"","mean","sd","2.5%","25%","50%","75%","97.5%","Rhat","n.eff","overlap0","f"
"beta1",28.2102509020686,0.559377274421962,27.1237765467545,27.8486153928353,28.1978399565378,28.6009688676399,29.3132681106347,1.00096545458998,1211,0,1
"beta2",-0.759254121870911,15.9636194920973,-31.5149538241947,-11.9956400826182,-0.764081623628767,10.365480436593,30.9157588466681,1.00002535044178,1500,1,0.522
"beta3[1]",152.384617132874,0.997894487538852,150.467008393001,151.693850052288,152.400879068276,153.075017818987,154.315083885993,1.0000428132683,1500,0,1
"beta3[2]",166.30814402662,0.892851521345029,164.504555579421,165.704159808881,166.289024888533,166.928773690928,167.987126400846,1.0001395099181,1500,0,1
"beta3[3]",157.73811492114,1.055262203593,155.668590282328,156.999261593332,157.735479370995,158.449812974708,159.787615971236,1.00126717671813,1036,0,1
"beta4[1]",3.22479600423283,15.9255509796504,-28.6746780547414,-8.03533638955116,3.35275259324808,14.2012507456538,34.2397417013699,1.00011004151499,1500,1,0.584
"beta4[2]",-0.376388952888464,15.9820587411716,-32.3387326825291,-11.6981616682688,-0.211699330074516,10.9841981563543,30.1013610167249,0.999988784002307,1500,1,0.506
"beta4[3]",-0.868160014857977,15.9479635712485,-32.3681979433713,-12.1296126992463,-0.847900174105653,10.1143379740017,29.5887367295487,0.999959694908428,1500,1,0.516
"eps1[1]",-0.0411117242195717,0.211724164045938,-0.460734350678971,-0.181946503222567,-0.0429337601091007,0.100149819881163,0.367543884786514,0.999683079687948,1500,1,0.571333333333333
"eps1[2]",-0.00515092250569608,0.215488353387912,-0.435773265714986,-0.151849443652516,0.00350140068543572,0.139100720829106,0.408659352041575,0.999850167806398,1500,1,0.497333333333333
"eps1[3]",0.0694997676287311,0.205885051080642,-0.339096030091094,-0.0699463023250406,0.0657360029850378,0.208170508221706,0.46053755761572,1.00042090778754,1440,1,0.63
"eps1[4]",0.0700842868297955,0.212433965456203,-0.33643870943945,-0.0753707071348436,0.0712679164451614,0.214558276890563,0.486848780884995,1.00122455771797,1500,1,0.636666666666667
"eps1[5]",0.071692388363018,0.209231634223895,-0.337074554160631,-0.0669497911594656,0.0749779607272789,0.210157778469802,0.472050393941492,1.00202120822233,897,1,0.626666666666667
"eps1[6]",-0.0439979993048536,0.208474262511149,-0.465294233565648,-0.187242033200912,-0.0366399495567461,0.0977785331616045,0.331134810511435,1.0028991083949,540,1,0.572
"eps1[7]",0.0111337017446405,0.212406792849985,-0.410623600601997,-0.129494659749311,0.0153780094716502,0.150979379131201,0.441493129987005,1.00236760366524,651,1,0.534666666666667
"eps1[8]",0.123744608338281,0.213999155921723,-0.29292960041475,-0.0185516049824396,0.121662964625939,0.267752043972255,0.543568300454857,0.999157395570378,1500,1,0.72
"eps1[9]",-0.00997027186766295,0.213575531222377,-0.430662385973124,-0.158058594714231,-0.00927906041194743,0.137561806878824,0.403110142364612,1.00427694207109,557,1,0.514666666666667
"eps1[10]",-0.0495392551237852,0.2073706144611,-0.462166237704967,-0.191415910661316,-0.049337099023636,0.0940458530071342,0.358782984277365,1.00043576732555,1500,1,0.597333333333333
"eps1[11]",-0.183922592592332,0.210894252464348,-0.590152864839867,-0.328394150672139,-0.183210476905506,-0.0382598279241778,0.228202518366366,1.00172658481417,773,1,0.806
"eps2[1]",0.00296639619852481,0.215773408409575,-0.42845278788368,-0.13931709319923,-0.000798034646389209,0.147380260827215,0.42949153519685,1.00055382243116,1500,1,0.498666666666667
"eps2[2]",0.00364570409317467,0.215993517601628,-0.419839744138701,-0.14000896500804,0.00314368673017495,0.153847163821488,0.408410466173902,1.00356518560652,489,1,0.506
"eps2[3]",0.00330641213953688,0.206824209491775,-0.398952230805991,-0.133943678178845,0.00640810115787423,0.1458927510258,0.408431418936724,1.00072962642498,1500,1,0.512666666666667
"eps2[4]",0.0143334757676194,0.217883329442948,-0.406909311611993,-0.123270931097427,0.011606773814767,0.159226424819013,0.464403935474055,1.00065888223187,1500,1,0.524666666666667
"eps2[5]",0.00688612508185307,0.209743306024198,-0.391988202839697,-0.134303051505463,0.00318343881684063,0.148532297505537,0.412915731555388,1.00111639108449,1500,1,0.508
"eps2[6]",0.0197998275573301,0.207184996289629,-0.381100340675565,-0.115090008779446,0.0206499761742009,0.157846066668175,0.424864772979812,1.00001794057217,1500,1,0.535333333333333
"eps2[7]",-0.00966752051580477,0.211627670013897,-0.423652762315801,-0.158470627073475,-0.0110242184701283,0.139920041504639,0.39086970114767,1.00011904368794,1500,1,0.516666666666667
"eps2[8]",-0.00181947347811403,0.212461284290601,-0.434990741186478,-0.140806539090998,-0.00390680841317766,0.146085382692761,0.400593505919677,1.00017649857362,1500,1,0.504
"eps2[9]",-0.0034761902409663,0.206926725405799,-0.420253226703918,-0.142424995042029,0.00468797379703267,0.136054479638953,0.38458094746396,1.00330253389023,705,1,0.487333333333333
"eps2[10]",-0.00287425460615138,0.209150329847182,-0.427138353271043,-0.142711650613541,-0.00186312093649871,0.138745458323863,0.390527836385079,0.999717928545766,1500,1,0.505333333333333
"eps2[11]",0.00955425192690223,0.211366747554466,-0.393523730858006,-0.134625469883712,0.0105639253348419,0.150532182483036,0.440694584129878,0.99980440149689,1500,1,0.520666666666667
"eps2[12]",-0.0104839788568438,0.210497384931685,-0.42569750337928,-0.15904397923773,-0.00143112552136805,0.130680838032471,0.399137263215226,1.00397078294437,422,1,0.504
"eps2[13]",-0.00744968268329721,0.207736418391152,-0.431465898293098,-0.146220811820019,-0.0068432619021832,0.132883617657222,0.395596438756185,1.00158637148747,782,1,0.51
"eps2[14]",-0.0152685422815657,0.210982020812746,-0.424599349160039,-0.154646226122837,-0.0143660873311627,0.127748534475082,0.38493927499297,1.00056573263579,1500,1,0.532
"eps2[15]",0.00602611928865636,0.208016132067444,-0.405456048860846,-0.132251602516403,0.00996629904047212,0.148746499384824,0.40084073138066,1.00032874269193,1500,1,0.518666666666667
"eps2[16]",0.00545656412413622,0.202046579175575,-0.388872596686657,-0.131614475705619,0.00383998698015338,0.141612907849252,0.413103826935667,0.999338500872045,1500,1,0.508
"eps2[17]",-0.0264162847214792,0.211691717439528,-0.442504708815372,-0.16559704091392,-0.0290392387079388,0.116751299215754,0.389100815116825,1.00097134999334,1500,1,0.548
"eps2[18]",0.00633052295491547,0.218886986981837,-0.41132998329687,-0.139387538783857,0.00214317959564557,0.164745451136446,0.424422244615023,1.00271860567563,587,1,0.508
"eps2[19]",-0.0111139868483278,0.214741251241787,-0.421590515621392,-0.156563096725188,-0.0124885202518802,0.137600525580413,0.431785249101981,0.999952048390138,1500,1,0.526666666666667
"eps2[20]",0.0042087726409836,0.215683835151243,-0.408411236647451,-0.138400419843421,0.00730263087840343,0.144545491220214,0.404129891383062,1.00075200602222,1500,1,0.517333333333333
"eps2[21]",0.00922690119934943,0.217430495807869,-0.40873566285336,-0.14143338592504,0.0103312745825898,0.157247342099155,0.432396975667763,1.00093834936538,1167,1,0.514666666666667
"eps2[22]",-0.0126128311322052,0.207842960942454,-0.433579690727795,-0.150727879070949,-0.00952335906630882,0.128091400883952,0.382265992740836,1.00032505865369,1500,1,0.527333333333333
"eps2[23]",0.00284489281344707,0.213695827682256,-0.421681029925751,-0.140582186997115,-0.000784222405646302,0.15062298940118,0.425095052407485,1.00108247561002,1197,1,0.499333333333333
"eps2[24]",-0.00628247799980979,0.220078751448671,-0.430376661520429,-0.152230865677549,-0.00315209924732238,0.138708150640178,0.419386395944693,1.000673128149,1500,1,0.505333333333333
"eps2[25]",0.00139899512542709,0.206819052167947,-0.409902025367057,-0.137963346687211,0.00256614465904807,0.137503687544858,0.403356129505897,0.999736480791012,1500,1,0.503333333333333
"eps2[26]",-0.00141555262472153,0.213850028290641,-0.428612324365071,-0.137887158203783,0.00544173095911174,0.141810993538355,0.40682649708335,1.00185341486524,809,1,0.485333333333333
"eps2[27]",0.0128939222189979,0.215953550908893,-0.399895294208975,-0.140103227635464,0.0189441346661018,0.160412379201134,0.440196874065055,1.00014334722243,1500,1,0.533333333333333
"eps2[28]",-0.00603487913920368,0.208981103056078,-0.405674089965115,-0.151174176158868,-0.00994261626486541,0.129070686663547,0.411542949318883,1.00246481938379,1191,1,0.516666666666667
"eps2[29]",-0.000263821119764457,0.213802466156213,-0.429022096182635,-0.146390995537104,-0.00881507729834095,0.144514358637985,0.42615360648532,1.00033130780553,1500,1,0.519333333333333
"eps2[30]",0.00869916672758679,0.21306109113539,-0.396563458131808,-0.137871158673985,0.00163570380829871,0.149889866515312,0.434170595915642,0.999856873923509,1500,1,0.506
"eps2[31]",0.00788236767187285,0.215620754669952,-0.436850258444249,-0.139253419908583,0.00922648241774414,0.160820766246519,0.418020577479036,1.00103583395002,1087,1,0.518666666666667
"eps2[32]",0.00518552201642338,0.207832034017522,-0.405985316710256,-0.132721513427917,0.00327078762858234,0.143438091712859,0.419287973356958,1.00027318545616,1500,1,0.505333333333333
"eps2[33]",0.0129796758535566,0.208068945226203,-0.390022278515668,-0.123079042043325,0.0109446358454686,0.160552800156706,0.413753795406499,1.00078733183117,1500,1,0.523333333333333
"eps2[34]",-0.00544704559721216,0.211810124072623,-0.425736333835999,-0.145372480977505,-0.0104079438839416,0.139435254562286,0.407605913807749,1.00000944432458,1500,1,0.518
"eps2[35]",-0.0015446561554226,0.211347477895291,-0.401159851610514,-0.144567545979798,-0.00777046390604412,0.140302820836308,0.411600407205304,1.00147881661587,1095,1,0.516
"eps2[36]",0.00954688663883394,0.204597845437815,-0.399791761810613,-0.123746397959119,0.00393695214736106,0.14994509686037,0.403553216638601,1.00301136834098,557,1,0.508666666666667
"eps2[37]",-0.00351670527058822,0.215653236541471,-0.419449375783589,-0.151668224967741,0.000719048476963878,0.149083396361257,0.403842062021062,1.0001750690204,1500,1,0.498666666666667
"eps2[38]",-0.0113249903761126,0.21195303846585,-0.419518703053556,-0.156396838486276,-0.00866248619624196,0.126747710788657,0.392296666966297,1.00134549840616,1500,1,0.517333333333333
"eps2[39]",-0.010219525868782,0.201891799899392,-0.393842892019154,-0.138966212774618,-0.0146561535154266,0.125815113752243,0.390122214503718,1.00033834802508,1500,1,0.525333333333333
"eps2[40]",-0.00912390216298553,0.216812657240285,-0.431041724632448,-0.164746884029462,-0.00617478218086574,0.132616412318195,0.427955762396797,1.00209833457932,669,1,0.508
"eps2[41]",-0.00671696598677378,0.21128884900222,-0.414643479421975,-0.15533631558959,-0.00730747651454335,0.137208991906281,0.404897977111335,1.00370335568232,466,1,0.516666666666667
"eps2[42]",0.00655215412631908,0.214398553373073,-0.412849950437974,-0.138882575817866,0.00789804200133495,0.148128280720314,0.421343836588082,1.00232428144041,628,1,0.512666666666667
"eps2[43]",0.00205195531281252,0.206982008034494,-0.406461306475241,-0.131271835544633,0.00623062349094503,0.143208749331761,0.397712816436205,0.999489154112609,1500,1,0.507333333333333
"eps2[44]",0.00710407319785634,0.2156018942781,-0.431173635194037,-0.134111393416534,0.0078022539926127,0.148118319250054,0.423999100926099,0.999782825756987,1500,1,0.516
"eps2[45]",0.00484010055649462,0.215008307076569,-0.396029237782517,-0.136825972533937,0.00220826660514487,0.147879880297744,0.431002150326542,0.999701231612807,1500,1,0.507333333333333
"eps2[46]",0.030442327539146,0.214715190711684,-0.387655437343255,-0.10368444375542,0.0235846500661621,0.174062363402956,0.4520742925567,0.999708952475993,1500,1,0.556666666666667
"eps2[47]",-0.00405843822806457,0.210980765240987,-0.41590935235303,-0.143377144354597,-0.00935325016912326,0.133922934159326,0.422659856829597,1.00046673365478,1500,1,0.514
"eps2[48]",0.00698168452754633,0.210239651616714,-0.402582526053201,-0.130911735458657,0.0112298534745484,0.147991563132493,0.419238129321802,1.00162280317064,1500,1,0.521333333333333
"eps2[49]",-0.00668623881039014,0.21815569700654,-0.445868212389333,-0.15194881134393,-0.00713908062177476,0.1464228398691,0.411484883494036,1.00359740205707,553,1,0.511333333333333
"eps2[50]",0.0132170088570357,0.215089350072595,-0.414598728556849,-0.131062908814028,0.0208935218157793,0.16302647300428,0.432796326709976,1.00199465856313,861,1,0.535333333333333
"eps2[51]",-0.00689085944051762,0.204625400327072,-0.431782938578877,-0.14517899717713,0.00201620406395674,0.134864660474664,0.380672891873423,1.00095944456914,1500,1,0.498666666666667
"eps2[52]",0.0143112658596046,0.206147655643856,-0.397510383195363,-0.120190810672108,0.00976156495151401,0.148839491658849,0.441165571540605,0.99964819028126,1500,1,0.517333333333333
"eps2[53]",-0.00736122673317245,0.217613699054287,-0.428578115417774,-0.153372296942942,-0.0130474507698063,0.143078782066218,0.416428908316909,1.0010737943289,1500,1,0.523333333333333
"eps2[54]",-0.00645577715147167,0.210562561935905,-0.429978896889,-0.155020966489796,-0.00208893351311776,0.137604180967421,0.39566612869568,0.999881339887889,1500,1,0.505333333333333
"eps2[55]",0.00682256357968396,0.210735968859458,-0.39325847154294,-0.133613546343431,0.000799637605391465,0.148796757449026,0.409585862769355,1.00008824003004,1500,1,0.501333333333333
"eps2[56]",0.0141384268943757,0.216605288346097,-0.40782964560687,-0.136013036511424,0.0164890361906349,0.161517442467148,0.429765239517271,1.00048690047564,1415,1,0.532
"eps2[57]",0.00955958688265279,0.215611225759674,-0.408201222996735,-0.137556189886458,0.0156517623758466,0.157722976865223,0.421865810995678,0.99971098977915,1500,1,0.524666666666667
"eps2[58]",0.00609093806883935,0.21133629724471,-0.413759468556968,-0.129205449817242,0.00978911641360258,0.153921221437974,0.417351618567416,1.00432168605234,389,1,0.522
"eps2[59]",0.00546100068842271,0.20778339189147,-0.40334821467937,-0.130078660530816,-0.00108040399416157,0.145166583206314,0.412000788204244,0.999452177354917,1500,1,0.498
"eps2[60]",0.00556826887494259,0.211191555788222,-0.418106117142922,-0.130134426662058,0.00340383223917662,0.1526879591562,0.409294910652578,0.999891950650898,1500,1,0.506
"eps2[61]",0.000353183773977782,0.20998359537676,-0.410811915062756,-0.137461580427367,-0.00568850993982521,0.134006443729482,0.428890525404052,1.0005305468009,1500,1,0.492
"eps2[62]",-0.0023212782559267,0.207803129152956,-0.390830754119143,-0.145979357690488,-0.00505580251750266,0.14013894515967,0.395544862801848,0.999865678305875,1500,1,0.51
"eps2[63]",-0.00680540607167633,0.210060831609535,-0.41153993360525,-0.151477072062885,-0.00494978352599129,0.12939218255785,0.407281240956414,1.00033630206522,1500,1,0.508
"eps2[64]",-0.00687633301860564,0.21220561383456,-0.415023886344649,-0.154439457369143,-0.00778713047001699,0.13983262539573,0.41423539293084,1.00063400526834,1500,1,0.513333333333333
"eps2[65]",-0.00585437423188257,0.211763027119883,-0.423172858631949,-0.144562926854295,-0.00562268644553913,0.133657420840055,0.414633000275994,1.00026178990016,1500,1,0.512
"eps2[66]",-0.00864437280375862,0.217374889633364,-0.439584300488541,-0.146655874123618,-0.00706305990002309,0.131473063281328,0.423348717941821,1.00479788764964,429,1,0.514666666666667
"eps2[67]",-0.0100766941635465,0.208906305519799,-0.414174479022916,-0.148332395788129,-0.0094007541925321,0.12362292989872,0.412202011793553,1.00104290609026,1383,1,0.518
"eps2[68]",-0.000399729156364322,0.212345257972355,-0.408323444288106,-0.14240126752618,0.000237352593500731,0.143399227133147,0.420176681889402,0.999519092070814,1500,1,0.5
"eps2[69]",-0.0073200686894895,0.211594509505257,-0.43122766204001,-0.14854969491883,-0.0111502115780854,0.140644485809369,0.403172883764122,1.00346582551153,617,1,0.516666666666667
"eps2[70]",0.00600632787288845,0.210899270215786,-0.417588267915893,-0.132985006560613,0.00744669700841641,0.145249623011219,0.408755511873361,0.99975736151903,1500,1,0.517333333333333
"eps2[71]",0.00682515978646263,0.214062149610774,-0.420787282446059,-0.136635529664379,0.00916021183627698,0.152875777222392,0.415747498160763,1.00076477127845,1305,1,0.518
"eps2[72]",-0.0025015183163668,0.217827338264941,-0.403776287967071,-0.156251834106493,-0.0019391453209502,0.148647276760595,0.419964828754288,0.99924239013258,1500,1,0.506
"eps2[73]",-0.0147515817270918,0.209377616837987,-0.431048371190992,-0.15493629433991,-0.0191819491349038,0.119402629016612,0.40395195107747,1.00358048737491,628,1,0.536666666666667
"eps2[74]",-0.00189774898489291,0.214349831312296,-0.427262417186814,-0.147020291206797,-0.000305602483559798,0.137899531141798,0.41701656533522,1.00089079998389,1500,1,0.501333333333333
"eps2[75]",0.0138106746280995,0.21444944783386,-0.399891916872906,-0.129432483599671,0.0120800671931862,0.158566412324477,0.433480094418928,1.00051122995161,1457,1,0.52
"eps2[76]",0.00584221292049231,0.211915509130087,-0.418494350332258,-0.132205012893557,0.00661647659017819,0.149598753216769,0.409675891652453,1.00242570123861,1110,1,0.510666666666667
"eps2[77]",-0.00166248250443483,0.212944556489006,-0.416138772090236,-0.143809384704536,0.000869320517351183,0.145492021394148,0.395159949603883,1.0008113152447,1500,1,0.498666666666667
"eps2[78]",-0.0245385549492141,0.215371424135095,-0.466464713771665,-0.168348916678233,-0.0248900047501742,0.12192935833946,0.3889094506802,0.999394308963417,1500,1,0.552666666666667
"eps2[79]",-0.00360797292212245,0.209007104005374,-0.403375729044926,-0.147761591276432,-0.00502905613857125,0.132384102764122,0.411907964795708,1.00002979480154,1500,1,0.508666666666667
"eps2[80]",0.00702524675497503,0.210226114374451,-0.410145115897028,-0.130867094245941,0.0051370085822211,0.152170844755002,0.410414805752465,0.999867801417943,1500,1,0.510666666666667
"eps2[81]",-0.00462330919202069,0.20562957636189,-0.401282939635026,-0.143209637261637,-0.00789524314542156,0.125947843035525,0.400837034540719,1.00029523633279,1500,1,0.511333333333333
"eps2[82]",-0.0083876831707647,0.216743416558702,-0.427278468716908,-0.154914897269396,-0.0113642157201592,0.135844908896276,0.417375590525014,1.00096314203023,1323,1,0.519333333333333
"eps2[83]",-0.00907272360098058,0.21181669588857,-0.429392888260499,-0.141408105387759,-0.00138239193387668,0.134524046582938,0.390549080088273,1.00101063303692,1215,1,0.502
"eps2[84]",0.00229097367286993,0.207724568992283,-0.417131236729903,-0.135567395559595,0.00256726299355618,0.140861991646017,0.397606210229152,1.00122734689479,1500,1,0.508
"eps2[85]",-0.0145920499870306,0.219593779327744,-0.435846944029082,-0.16227494625724,-0.017255758965552,0.140258127590542,0.418083738603791,1.0043094047345,615,1,0.526
"eps2[86]",-0.00381124892096294,0.211618477419113,-0.391027557059366,-0.142749628003642,-0.0102173270617516,0.135207875350031,0.432153029560655,1.00188871814821,1500,1,0.519333333333333
"eps2[87]",-0.00135270209391764,0.216970880754225,-0.438143528696177,-0.151025816518092,-0.000723375808863419,0.148952486230069,0.418143539760016,1.00357013190903,583,1,0.500666666666667
"eps2[88]",0.00245646698751855,0.21455486130044,-0.432904971210149,-0.139659570927291,0.00537732114370167,0.149702627289892,0.412614464579756,0.999261652287415,1500,1,0.513333333333333
"eps2[89]",0.00481076188882387,0.214982217610183,-0.419596244361746,-0.132165533358444,0.00301659943074088,0.14903762255485,0.420123804961675,0.999701241388322,1500,1,0.506
"eps2[90]",8.20242979101695e-05,0.209436811030475,-0.39006523332999,-0.142473108338167,-0.00741328002461462,0.135896560183452,0.411488127143136,1.00132727286241,1500,1,0.488
"eps2[91]",0.0027347569248774,0.214753668098669,-0.41416737746158,-0.148823220490806,0.0035061652398173,0.146860617802051,0.424287406387163,1.00056100569676,1500,1,0.504666666666667
"eps2[92]",-0.00868276730861667,0.215187653543335,-0.431782006819031,-0.157183489259621,-0.00479940515988357,0.138157057719296,0.417706635942085,0.99973462051936,1500,1,0.506666666666667
"eps2[93]",-0.000671033918756116,0.210630973608204,-0.395486562911849,-0.145756042480864,0.00636748540392629,0.135921408369396,0.420968939558585,0.999586829868448,1500,1,0.488
"eps2[94]",-0.00753846628937217,0.214582358926973,-0.448550450994684,-0.149152025559909,-0.000953255408915361,0.137836940240841,0.41556412896082,1.00005316670917,1500,1,0.502
"eps2[95]",-0.00714279434010472,0.206014812227089,-0.424485333094181,-0.143573799763867,-0.0100749113061121,0.136607281366521,0.385646131151523,1.00226553828993,694,1,0.517333333333333
"eps2[96]",0.00565708256327809,0.217560721306554,-0.432745020000132,-0.139453938076397,0.0111647914443205,0.152663037493785,0.432216399308514,0.999709050727102,1500,1,0.518666666666667
"eps2[97]",-0.00906060356533212,0.212899081180614,-0.420710225384588,-0.155681520558877,-0.0103086068996605,0.135564121623098,0.407292710041556,1.0006846969253,1500,1,0.518666666666667
"eps2[98]",-0.00253314181436415,0.208939673572714,-0.407297036984062,-0.142040709636006,-0.00776204827816854,0.137356917438955,0.407710359067598,1.00157903211675,845,1,0.515333333333333
"eps2[99]",-0.00808895422328062,0.214319719702274,-0.416858248459951,-0.162319234707894,-0.00984841158140909,0.142432201580347,0.421625981093124,1.00081168224565,1500,1,0.517333333333333
"eps2[100]",-0.023038580854671,0.210158194293997,-0.451194231198429,-0.16631357701529,-0.0211459960688431,0.13121542117831,0.363647263891505,1.00520026490476,352,1,0.537333333333333
"eps2[101]",0.00703493914509306,0.222409517042102,-0.431309765163508,-0.133818005964778,0.000181289184566185,0.156145645893175,0.463933355990412,0.999888516654011,1500,1,0.500666666666667
"eps2[102]",0.0179218620812743,0.215679167727908,-0.403388158486841,-0.124158529198552,0.0184056162472546,0.157590587228036,0.438546607847153,1.0004124738939,1500,1,0.54
"eps2[103]",-0.0111926837907413,0.209987421190761,-0.43281446083342,-0.146354911977962,-0.00649127839537395,0.126650319244986,0.387624227748113,1.00328235856691,747,1,0.514
"eps2[104]",-0.00066925361976317,0.216159695531824,-0.435865938447164,-0.139804674794828,0.00437142092925104,0.146152839608075,0.427953391752215,1.00017266735928,1500,1,0.492
"eps2[105]",-0.0135760558927339,0.215455670328516,-0.437416978119832,-0.158001915636113,-0.0130326912210397,0.129805467892986,0.406457266487698,1.00070300906251,1500,1,0.526666666666667
"eps2[106]",-0.00991949265824705,0.218669563113433,-0.454247567596108,-0.160145989540323,0.00349423679327844,0.142897831904039,0.408541785111189,1.00025358605931,1500,1,0.494
"eps2[107]",-0.00132323634718989,0.21313150524624,-0.425128954886391,-0.14285239068514,0.00296305955761779,0.135656828863629,0.418559090748015,1.00222277299771,695,1,0.495333333333333
"eps2[108]",-0.0053147140623853,0.215357520370275,-0.435211429463893,-0.151171723529927,0.00457013092532913,0.140653506322128,0.411622065332033,1.00129155427129,1090,1,0.492666666666667
"eps2[109]",-0.0122426849421408,0.200953236785198,-0.411319633250699,-0.145369651887632,-0.00897193513069263,0.12301587987981,0.378724693427208,1.00309395851746,608,1,0.516666666666667
"eps2[110]",-0.00186740512377842,0.218177170754978,-0.418087522080966,-0.151743418938152,-0.00209988089000342,0.150537160104147,0.422675733517616,1.00127345914249,1500,1,0.502666666666667
"eps2[111]",-0.00752120260888724,0.215091516371082,-0.430248532385272,-0.150409896305927,0.00229727603528049,0.138302141105776,0.391146198902003,1.00115677743325,1500,1,0.496666666666667
"eps2[112]",0.00624563326450631,0.201372412733062,-0.399921103872362,-0.123132889052947,0.00671431069161849,0.138906244751176,0.404483914520632,1.00581688217701,352,1,0.513333333333333
"eps2[113]",-0.00403983651395083,0.213141986295201,-0.405751121775288,-0.149334284805774,-0.00527520786333164,0.137242783187501,0.416482876027491,1.00113063194548,1500,1,0.510666666666667
"eps2[114]",0.00747903743156343,0.215445103094636,-0.420191795455764,-0.148486712081957,0.0134138271176549,0.154756148860556,0.435706817122437,1.0005377910781,1315,1,0.530666666666667
"eps2[115]",-0.0196579507135493,0.214394083908952,-0.451198696242487,-0.172293679030525,-0.0172623826636571,0.135955681601968,0.38967722857685,1.00076967904469,1297,1,0.521333333333333
"eps2[116]",-0.00469317519151048,0.218010975021982,-0.412519425525995,-0.158200888829806,-0.00811246846497884,0.147748196813077,0.416031165468367,1.00058636088995,1500,1,0.512
"eps2[117]",0.00450646411002957,0.217827548374307,-0.433466886787727,-0.132131145604296,0.00443598785959189,0.150600048238851,0.412123989280469,1.00061707991381,1500,1,0.507333333333333
"eps2[118]",0.00428509760964682,0.215309985410548,-0.410213447072328,-0.141168187912009,0.00833418720167969,0.149507436977163,0.427267900104275,1.00250030963689,617,1,0.511333333333333
"eps2[119]",0.0172805787651013,0.21311624363776,-0.382656278362878,-0.128274158102229,0.022488432035049,0.162647390791555,0.434997459725696,1.00079789449058,1181,1,0.544
"eps2[120]",-0.00264279359255216,0.212221457512178,-0.413654062938323,-0.148872697634323,-0.0053004752544111,0.14167363890345,0.40690819278623,0.999592237752111,1500,1,0.509333333333333
"eps2[121]",0.00494841079263322,0.214121711551744,-0.408571499868319,-0.135512094124791,0.00443911426904467,0.149707652744007,0.416986525515736,1.00017128430888,1500,1,0.509333333333333
"eps2[122]",0.00553333433254346,0.207336333271983,-0.389245879718269,-0.137678225485696,0.00466614412214762,0.14266459702841,0.418383555857731,1.00061336666943,1500,1,0.508666666666667
"eps2[123]",0.00842006166823333,0.213010545261944,-0.417412327223259,-0.131736505466017,0.00417554660676428,0.155257258922518,0.409931896319539,1.00083114988311,1357,1,0.508
"eps2[124]",-0.00481710416024703,0.218600804701768,-0.419542839582942,-0.149150650374229,-0.00821046717888075,0.144305050792737,0.397138804451459,1.00000554348674,1500,1,0.514666666666667
"eps2[125]",0.00914321487937348,0.214972493745965,-0.424247139030343,-0.130234256830184,0.0111000259873741,0.158892636869644,0.413750408218053,1.00287263916847,954,1,0.519333333333333
"eps2[126]",-0.0111123127762311,0.214644570383721,-0.419224383525426,-0.158838094418301,-0.0219203393139132,0.139573218159795,0.404438924242266,1.00177814305429,936,1,0.538
"eps2[127]",0.00893957533992452,0.208028780043457,-0.386218616583995,-0.128751548541241,0.00771141918105104,0.146667145005994,0.420475055226907,1.00752310525398,265,1,0.520666666666667
"eps2[128]",-0.00440881618503675,0.209948533670477,-0.416462354442782,-0.146634800689223,0.00186337663954441,0.143827890012789,0.39930054016208,1.0014891742827,1500,1,0.496666666666667
"eps2[129]",-0.0220446197109479,0.21427681784198,-0.435611233870031,-0.171310866298874,-0.0178701212551955,0.121370759987923,0.3825197226872,1.00024825784647,1500,1,0.524666666666667
"eps2[130]",0.00212940325665164,0.218063767836028,-0.426265309904338,-0.148474104160372,0.00124840995281239,0.154583665371107,0.41552874835395,1.00202098459183,904,1,0.502666666666667
"eps2[131]",0.00666119978248178,0.212592012042301,-0.401632765352071,-0.145504512612704,0.00779511748878139,0.151782716662941,0.426927789603094,0.999247354217296,1500,1,0.516666666666667
"eps2[132]",0.000923763839927162,0.214512611754095,-0.453415001640837,-0.140781039949161,0.00438807252039293,0.148332095447783,0.419617323577078,0.999400092101103,1500,1,0.508
"eps2[133]",0.00567992931504929,0.210313977313018,-0.398852253651769,-0.13570491810717,0.00509887902321195,0.148051035609137,0.420836558639409,1.00001861825534,1500,1,0.511333333333333
"eps2[134]",0.00825984848925188,0.212158642799694,-0.40864021457149,-0.129869266120936,0.00699576401162306,0.152387171901136,0.420423975602953,1.0012870115968,1500,1,0.516666666666667
"eps2[135]",-0.00663739900546921,0.21333534653927,-0.426333535382596,-0.145549239557505,-0.00704261002592246,0.143457696667288,0.408591465133048,1.0003343593091,1500,1,0.511333333333333
"eps2[136]",-0.00450712443273857,0.210600005372681,-0.414558142523793,-0.14192682544352,-0.00481679015190841,0.133751406078463,0.40939851235604,1.00165239708312,1413,1,0.513333333333333
"eps2[137]",-0.00636270861795073,0.20046228930615,-0.412502376025861,-0.138979524745993,-0.00402078949015036,0.130559915319645,0.388688211161199,1.00190441461681,806,1,0.506
"eps2[138]",0.0192534343437498,0.21299550563821,-0.392343901696656,-0.123354346962464,0.0150875568340493,0.158884442620185,0.432761246329266,1.00212945893394,655,1,0.528666666666667
"eps2[139]",-0.00370663521783029,0.203755171196105,-0.402899341614815,-0.140249175376392,-0.012092690994801,0.131507634183763,0.395115133644635,0.999757947413171,1500,1,0.524
"eps2[140]",-0.00331987280422459,0.209535942531623,-0.400185718616377,-0.147346929699463,-0.00232215550514839,0.131697070577586,0.401078896424351,1.000530808291,1500,1,0.504
"eps2[141]",-0.00203570019017262,0.210081953228681,-0.420670443998721,-0.138931938548658,-0.00725397484413046,0.140969415399264,0.406471713111882,1.00425941113453,434,1,0.516
"eps2[142]",0.0018112240254659,0.206866847635182,-0.394640783743333,-0.144220398890647,0.00106644408659978,0.135409138687513,0.415281302449667,1.00171625555132,1196,1,0.502
"eps2[143]",-0.00797180766818535,0.216732305274852,-0.443135034137053,-0.15613228984843,-0.00690571702316985,0.137131376189356,0.432349022163138,1.00175745347358,1500,1,0.512
"eps2[144]",-0.000335392178437084,0.210125985043268,-0.404787864654762,-0.139659988420154,-0.000452621858051689,0.137866664647284,0.408839191984947,1.00034368468485,1500,1,0.500666666666667
"eps2[145]",0.0030104331186391,0.211364053620787,-0.433925468675876,-0.138081807506832,0.00438046197067783,0.15403493331722,0.400956961648704,1.00061310994307,1500,1,0.512666666666667
"eps2[146]",0.0145783822023211,0.210349114913304,-0.38283164308559,-0.121380037830998,0.0067661484679915,0.151425708192962,0.439335343649619,1.0016160632477,1101,1,0.516666666666667
"eps2[147]",0.00303577557615981,0.211348596657707,-0.39794817121767,-0.139236331638561,0.00381242510707822,0.145514261713923,0.419113733624336,1.00068164514714,1319,1,0.502
"eps2[148]",-0.009416258786579,0.208487585458597,-0.417415143314769,-0.146212965674353,-0.0162318702054309,0.128935446861991,0.412300654804334,1.00129821437055,1343,1,0.528666666666667
"eps2[149]",0.000328455314829598,0.210397490571322,-0.403463660646502,-0.138068998072639,0.000829483636718614,0.132703748496073,0.410082390110732,0.99978736829421,1500,1,0.500666666666667
"eps2[150]",0.000150877873188638,0.216514131984979,-0.434844678522238,-0.14224565202538,0.00371290054892415,0.147972191417969,0.412343687746312,1.0008842512424,1184,1,0.51
"eps2[151]",-0.00231521156174855,0.21293361940182,-0.430240907494047,-0.149535323094251,0.000214484579107818,0.146303320858312,0.398352507409228,0.999709708410778,1500,1,0.499333333333333
"eps2[152]",-0.00106926076838415,0.215197275107004,-0.443968212690257,-0.147917447950022,-0.00199480968423544,0.144909353055333,0.425240437818035,1.00135650633944,1005,1,0.504
"eps2[153]",-0.00630460836060997,0.21326105731707,-0.407508485838867,-0.148566040518744,-0.0106428200765181,0.14010333191546,0.411167492873512,1.00022002112963,1500,1,0.518666666666667
"eps2[154]",-0.00295164825754018,0.206264283211419,-0.431074616899231,-0.135816284113388,-0.0112370461735104,0.14086715943872,0.399203547231592,1.00232816434028,1500,1,0.524666666666667
"eps2[155]",-0.0172841566305694,0.218062389795447,-0.438313084182337,-0.16101157647631,-0.0257758634091466,0.124977920829535,0.421514719496895,1.00008591922807,1500,1,0.546666666666667
"eps2[156]",0.00124651434516428,0.213204671982405,-0.405256712121843,-0.142683105616794,-0.00214380867395788,0.141310733797306,0.421540955999416,1.00199202817256,729,1,0.494666666666667
"eps2[157]",-0.0108455855291857,0.211501599194669,-0.422868465193551,-0.148623567343532,-0.0168425378473351,0.132076143677238,0.415010322131873,1.00054191043522,1310,1,0.533333333333333
"eps2[158]",0.00201511267970763,0.208580915750951,-0.40869322167165,-0.131651139831188,-0.00259787715998717,0.137050019714456,0.442334322167422,1.00368647911433,758,1,0.496
"eps2[159]",0.00996008290077111,0.209648382621923,-0.412562518291622,-0.124815696957622,0.0115714533120107,0.155555337802068,0.427166506418379,1.00148628956755,811,1,0.522666666666667
"eps2[160]",-0.0133039052162581,0.212018641479679,-0.440481110061982,-0.159793612123511,-0.0112886356427092,0.134097478387391,0.394871477117886,1.00004536135111,1500,1,0.521333333333333
"eps2[161]",-0.0120527673344113,0.213916970347815,-0.416334155152528,-0.159967142355974,-0.0139499539251107,0.131133683625747,0.418909713165173,0.999514336365059,1500,1,0.527333333333333
"eps2[162]",-0.00534291099629371,0.215307242660586,-0.419342636480369,-0.159374699038941,-0.00580933002104692,0.141860175486279,0.412466335796846,1.00065070410781,1500,1,0.514666666666667
"eps2[163]",0.00081003077969882,0.214976264533359,-0.425823392196453,-0.140360245963185,-0.00524208485700538,0.148752315726095,0.413747784867404,1.00034528569828,1500,1,0.493333333333333
"eps2[164]",-0.00454759335889982,0.211050578609735,-0.410634164712206,-0.154672531582122,0.000334306483912606,0.134617640125516,0.395737734760118,1.00100777838229,1118,1,0.499333333333333
"eps2[165]",0.0105340071921377,0.21736970240892,-0.427043195246963,-0.127520003342314,0.0132783459007281,0.155787638606929,0.428653346248402,0.999221714258156,1500,1,0.524666666666667
"eps2[166]",0.0102172672820829,0.214679590505439,-0.406078023818981,-0.136280613502545,0.00615052388739344,0.159330544751338,0.403508188772382,1.00079903933756,1500,1,0.514
"eps2[167]",-0.0050501888910606,0.209153837305381,-0.409103221405645,-0.147326683368136,-0.00882575442268628,0.138647420380431,0.398036322066812,1.00115181151696,1088,1,0.521333333333333
"eps2[168]",-0.00513789089600142,0.216421000152905,-0.444060779069585,-0.147691419728992,-0.0117077082649458,0.143255621865672,0.398868134957434,0.999657018276671,1500,1,0.516666666666667
"eps2[169]",-0.00988198825274616,0.208993410887688,-0.405530118594291,-0.152791177198569,-0.0123798126967098,0.126052589733532,0.423716256812148,1.00026702755663,1500,1,0.521333333333333
"eps2[170]",0.00935178279948509,0.213259698320904,-0.390432634921053,-0.136650268504651,0.00970195559981372,0.158889942808773,0.430822610364577,0.999099229677805,1500,1,0.513333333333333
"eps2[171]",0.0120035202586299,0.206804855243069,-0.403629462675703,-0.124360311568422,0.00902589796843429,0.147994269834434,0.435099980070545,1.00422200027123,475,1,0.521333333333333
"eps2[172]",-0.00773858208013334,0.214472735994237,-0.413936388105034,-0.157220365519031,-0.00729580193695724,0.137713825929809,0.410826510834081,1.0021088059094,888,1,0.512
"eps2[173]",-0.0029709571711724,0.223388253735527,-0.415389857975634,-0.160197426331937,-0.0042003247140457,0.134523523792685,0.463780092817273,1.00555080605227,329,1,0.506666666666667
"eps2[174]",0.00329259269594475,0.214587313455275,-0.397761241898796,-0.146723531126046,0.00157989746659664,0.147659665258787,0.423779486566737,0.999759361262791,1500,1,0.504
"eps2[175]",-0.00101703528733157,0.210419096465486,-0.398178179251412,-0.142215263579908,0.00036230280430641,0.136066873329558,0.413836205190091,1.0005663911404,1500,1,0.5
"eps2[176]",0.00508038374715736,0.216352867405833,-0.41902670634255,-0.140294074147847,0.000450041800794516,0.150428531017309,0.438972205237997,1.0036270313314,449,1,0.502666666666667
"eps2[177]",0.00449136872169235,0.209310991023276,-0.403048210406798,-0.135835893388421,0.00944978262230581,0.145773972101262,0.401646446851608,1.00129724617932,1500,1,0.518
"eps2[178]",0.00423285670657998,0.211366676889138,-0.398952348090996,-0.140367849299499,-0.00390110641794731,0.145944402672561,0.428705142902684,1.00111957746973,1410,1,0.495333333333333
"eps2[179]",-0.00421433618766491,0.210846535231978,-0.415066746329685,-0.149531081662308,-0.00169670041110263,0.138304902239777,0.405008784275427,1.00096474783721,1050,1,0.503333333333333
"eps2[180]",0.00291042176549996,0.207426003927882,-0.404408242808063,-0.14145429639697,0.00407559265121994,0.142640397614341,0.419100588497647,1.00316403327764,495,1,0.506666666666667
"eps2[181]",-0.001826248453945,0.216028424962252,-0.41130192174704,-0.148016731685664,-0.00129828135740753,0.140815483906118,0.430542331956621,0.999823239997167,1500,1,0.502666666666667
"eps2[182]",0.000662565674835094,0.216326665724305,-0.423357234962311,-0.14279967579543,0.00171634210642944,0.153068921927742,0.407532411599763,1.00072300205823,1500,1,0.504
"eps2[183]",-0.000505093218309692,0.213756928303282,-0.430085513725802,-0.142187214483815,-0.00447034069045457,0.150511495610014,0.418452500143223,1.0051305535107,365,1,0.509333333333333
"eps2[184]",-0.00428988863193739,0.211510228651176,-0.433562273094268,-0.135026848590533,0.000420284441077487,0.132266221766292,0.400129365321275,1.00134813027782,1473,1,0.499333333333333
"eps2[185]",-0.0116187394970864,0.21480368822547,-0.423519414853321,-0.161508599353066,-0.0204506441860668,0.137281667195748,0.408809172031701,1.00240008996709,631,1,0.528666666666667
"eps2[186]",0.00346083224192721,0.214122384358889,-0.395480548450729,-0.13983583987182,-0.00314236003401333,0.146513027721468,0.441371489085075,1.00144427303755,981,1,0.490666666666667
"eps2[187]",-0.00488444036325635,0.210943536518077,-0.404628597223788,-0.157200936790401,0.00104143229204164,0.129622028285144,0.413857056493708,0.999482241164752,1500,1,0.495333333333333
"eps2[188]",0.00427454605581147,0.21155390065443,-0.406851733382023,-0.140717332167323,0.0105448530271369,0.151629261198592,0.414853014306098,1.00033950429445,1500,1,0.513333333333333
"eps2[189]",0.00233383087464098,0.212382649339421,-0.437370763728386,-0.132971826616042,0.00487029968067124,0.143002476544481,0.405214338230656,0.999705644757763,1500,1,0.512
"eps2[190]",-0.00507116003017392,0.204070451878961,-0.40357255378341,-0.142254346941981,0.000610092498737758,0.134079874397465,0.388637312851615,1.00117373935681,1077,1,0.498
"eps2[191]",0.00333185934982768,0.215634751329837,-0.425311708151281,-0.151175299710592,0.00962043219655765,0.150915063999292,0.412575974857398,1.00195716519821,769,1,0.515333333333333
"eps2[192]",-0.000969739885011697,0.211151076030351,-0.420890585292974,-0.137833429248427,-0.00297297445667409,0.13377397397943,0.408996765664177,0.999291510892697,1500,1,0.504666666666667
"eps2[193]",-0.0103718298662382,0.20988977287197,-0.428293424721846,-0.149824127151588,-0.0166993005943032,0.132984142432728,0.381849215170384,1.00148264636877,1500,1,0.53
"eps2[194]",0.000765094876993762,0.211881969905942,-0.397917146425491,-0.136932681643145,-0.00720896255290102,0.136653765800433,0.428025365580545,0.999946539836553,1500,1,0.486
"eps2[195]",-0.00705113289788933,0.209714974763339,-0.409566471120146,-0.147292423833355,-0.0142712582332102,0.129713061139571,0.414101279648084,1.00081273047395,1238,1,0.528666666666667
"eps2[196]",-0.00235784274372955,0.208898596337165,-0.416642892832427,-0.14627348445364,-0.00165579437225132,0.14328640819457,0.407938680983019,0.999570465139101,1500,1,0.502
"eps2[197]",-0.000354128441247321,0.21294638683179,-0.409055985568702,-0.145648074712919,-0.00918489356203916,0.137516110063591,0.428994870737424,0.999369606580269,1500,1,0.52
"eps2[198]",-0.00291871443753814,0.214281566562674,-0.420436712831414,-0.148355594496643,0.00112512351927697,0.141720814419445,0.414625166189295,1.00221430922367,1500,1,0.498
"eps2[199]",0.00708802604829646,0.206444087106369,-0.391399380472056,-0.132279301252854,0.00356983121668341,0.150732356970093,0.396152340077643,1.00107642378378,1321,1,0.510666666666667
"eps2[200]",-0.00544507048604169,0.214841591336064,-0.42436770150881,-0.15234742712249,-0.00533620545247891,0.140242250008518,0.417965105932188,0.999355709243238,1500,1,0.511333333333333
"eps2[201]",-0.0127205737921968,0.212774822125229,-0.446895750643323,-0.156610776460763,-0.00921165141030408,0.13261728256579,0.407156579200058,1.00136755646144,1114,1,0.526
"eps2[202]",-0.00633969585320595,0.209607285097624,-0.407625178031767,-0.152757400085044,-0.00448650944891971,0.137918119615891,0.404361110488248,0.999725500224602,1500,1,0.51
"eps2[203]",-0.00135773857444868,0.218060287915931,-0.423121270472638,-0.15607660313155,-0.00174238783871195,0.145085672393884,0.430579326410815,0.999315950025891,1500,1,0.503333333333333
"eps2[204]",-0.0138001175135049,0.213625075110682,-0.422931293814489,-0.158193017698299,-0.0146004216506007,0.126516092133584,0.412276596355708,1.0048924915427,406,1,0.531333333333333
"eps2[205]",0.00137305186429384,0.217676537055541,-0.42898139471895,-0.147271223824223,-0.000582535891687469,0.150104977477669,0.444853457715191,1.00003413647839,1500,1,0.499333333333333
"eps2[206]",-0.00182523932186654,0.217702384781696,-0.417638447195125,-0.152165914617101,-0.00506543587238106,0.146948180141309,0.404780741338186,1.00009103396048,1500,1,0.509333333333333
"eps2[207]",0.00910240525830146,0.214241828025013,-0.424517464274127,-0.143206577458768,0.00456914807262587,0.153500818766888,0.442446216900376,1.00344314637323,496,1,0.511333333333333
"eps2[208]",0.00796245017135914,0.210284078714483,-0.399819308698591,-0.131966956723879,0.00793796727503918,0.14052503770032,0.442466793111076,1.00026497239329,1500,1,0.514
"eps2[209]",0.0148412153821685,0.207858309879536,-0.39134954397211,-0.126869864569432,0.0131371252353514,0.158370187975745,0.419915724518095,0.99971780522917,1500,1,0.530666666666667
"eps2[210]",0.000247595846736328,0.21810008843849,-0.419204050598373,-0.144207676967721,-0.00406353148119207,0.152110187986751,0.455462579943451,1.00061674354361,1500,1,0.490666666666667
"eps2[211]",-0.00589841684624467,0.209221508971453,-0.418928814013356,-0.144825388859031,-0.00637055446917027,0.136758453092233,0.405623952539663,1.00024399878547,1500,1,0.520666666666667
"eps2[212]",0.00150778983187229,0.215553715643734,-0.421771967265503,-0.138085330626029,0.00521437252525885,0.145235810798498,0.410499938561159,1.00367978011838,448,1,0.510666666666667
"eps2[213]",0.00595961231085426,0.213672998581901,-0.411845013514818,-0.138111708952442,0.0103355164531709,0.148685393030958,0.415969852258169,1.00219303500314,737,1,0.516
"eps2[214]",-0.00495559343261871,0.208576784536207,-0.408270205358871,-0.144768173121754,-0.00546343090298121,0.138733605886079,0.397935379888671,1.00181437842787,1500,1,0.509333333333333
"eps2[215]",0.00437208767319359,0.209837342206494,-0.409821573425568,-0.14232422149389,0.00737127296995928,0.148657199261198,0.403977345250497,1.00179383086629,1306,1,0.514666666666667
"eps2[216]",-0.014296687312133,0.214345143606503,-0.416092398783165,-0.163234704331087,-0.00923706131047281,0.134040055574105,0.406184681832464,0.999896110525158,1500,1,0.515333333333333
"eps2[217]",0.00239925383624263,0.211853688843312,-0.414658267987302,-0.143586883656464,0.00877964050897373,0.146565637954484,0.415047925889368,1.0008517891514,1500,1,0.518666666666667
"eps2[218]",0.00268312788337417,0.212190109618112,-0.410467366311019,-0.147594718550063,-0.00134792322448017,0.148924647577527,0.420031077427237,1.00013266202126,1500,1,0.497333333333333
"eps2[219]",0.00473596056788873,0.215541215403026,-0.433704723840526,-0.136278638178666,0.00721895142357037,0.139660510801893,0.440631686536485,1.00119604714829,1092,1,0.516
"eps2[220]",-0.0138573940299213,0.209375852862927,-0.426578554810403,-0.164569628322464,-0.0179220492026295,0.137693665144889,0.396635581349101,1.00066222703361,1500,1,0.526
"eps2[221]",-0.008272312964314,0.213657830051728,-0.419839062189097,-0.154525733854244,-0.00871749723140407,0.133261535633992,0.413241212654828,0.999997033565701,1500,1,0.516666666666667
"eps2[222]",-0.00248694273705716,0.21962477169651,-0.413020814584039,-0.151103691605915,-0.00625589244096203,0.146873230683352,0.441989645856008,1.00050712109207,1500,1,0.518
"eps2[223]",-0.00934152061768925,0.207530010194003,-0.424756705347966,-0.151118220554803,-0.00535234762003264,0.129925016381538,0.391015311685717,1.00095755080774,1152,1,0.513333333333333
"eps2[224]",0.00877370236083164,0.211276595581311,-0.393364010118448,-0.136545314716229,0.0164325495084243,0.153344637058103,0.421901509935951,0.999929466538782,1500,1,0.533333333333333
"eps2[225]",0.0122660100659226,0.214255331856759,-0.432535607310166,-0.125814660538398,0.0258152876004339,0.156285111920143,0.41936441809995,1.00049078905534,1500,1,0.540666666666667
"eps2[226]",-0.0040044646986421,0.211013439911492,-0.40797630904905,-0.14785372384192,0.00177590015409761,0.132462112240388,0.414597860834298,1.00082577173798,1500,1,0.497333333333333
"eps2[227]",0.00328019378117691,0.217447729795772,-0.412258637339307,-0.14048865910976,0.0061759474528448,0.153906945645606,0.425708885444573,1.00195077350002,1304,1,0.51
"eps2[228]",-0.0128124055037685,0.214208507683128,-0.425081114026806,-0.160356405844061,-0.0126144241209047,0.127739428307669,0.40438610248419,0.999969772267797,1500,1,0.527333333333333
"eps2[229]",-0.00413330269701595,0.204680608128033,-0.415387418012243,-0.138784227182277,-0.00593842744210553,0.137177585492009,0.399367639929079,1.00080456228656,1476,1,0.513333333333333
"eps2[230]",0.0181504868862472,0.211498595334303,-0.403299629904657,-0.129821500218977,0.0203895235793526,0.163879500525129,0.423714832407917,0.999946815392375,1500,1,0.538
"eps2[231]",-0.0215922983606902,0.21514323335289,-0.446915022054257,-0.163468229247306,-0.0155760468940268,0.127283740956851,0.39249620811747,1.0006940776129,1500,1,0.532
"eps2[232]",0.00495392092422787,0.216823440631138,-0.410301423004489,-0.144927961241261,0.00108697207135917,0.154956843176921,0.42792202463506,1.0027242654304,688,1,0.505333333333333
"eps2[233]",0.00352808366324026,0.213445096927335,-0.400897163342457,-0.141440230639184,-0.00160417932952466,0.152665052292068,0.397898299275424,0.999977327201946,1500,1,0.497333333333333
"eps2[234]",-0.00308486601129579,0.216286441148355,-0.429507295291681,-0.149637947366941,0.000498627449419364,0.143808600736412,0.408215869833983,1.00065507738811,1285,1,0.498666666666667
"eps2[235]",-0.0189422454193967,0.208427103049407,-0.431284607283757,-0.153996917721622,-0.0196041805241319,0.124335949971104,0.390484346790472,0.999138561504309,1500,1,0.533333333333333
"eps2[236]",-0.00230952702843903,0.209360449617014,-0.420681083311818,-0.140905941993503,0.00151032972068774,0.141054877694745,0.399862234094951,1.00133407276132,933,1,0.496666666666667
"eps2[237]",0.00321782567771342,0.213462381426037,-0.434717313363083,-0.136739849700538,0.00590698390851506,0.151262424992565,0.407060906709234,1.0031587892701,512,1,0.509333333333333
"eps2[238]",-0.00698015632640069,0.21431079834228,-0.424480951025789,-0.1478508048885,-0.00791403504084062,0.13118622446746,0.433015644897059,1.00090814229488,1136,1,0.514
"eps2[239]",0.00884941746610309,0.211505490780333,-0.389803344843102,-0.134351096860204,0.00484431456167567,0.153284864551647,0.443435564673869,1.00055272833067,1500,1,0.504
"eps2[240]",-0.0118479901656642,0.205576615174675,-0.415606920945104,-0.152097171918715,-0.0147562332142215,0.11985311881977,0.40699168670421,1.00141007788531,1329,1,0.524666666666667
"eps2[241]",0.0166994124588998,0.216716741514298,-0.404947074763353,-0.130808546914151,0.0191121285296808,0.169660183050423,0.430295649823711,0.999905831990289,1500,1,0.526
"eps2[242]",0.00649057238079984,0.212526929137323,-0.403678672639743,-0.135184107186887,0.0100099759867579,0.148416845852619,0.418075232026288,1.00068912381967,1203,1,0.513333333333333
"eps2[243]",-0.00139341136510501,0.216990971401818,-0.403057738221939,-0.151719367514591,0.00213304233428742,0.146423130539886,0.409096221793525,0.999781171235322,1500,1,0.497333333333333
"eps2[244]",0.00290518283826548,0.210876087132204,-0.39482735336248,-0.143740263086816,0.00235584855975542,0.148955326213299,0.414681878040108,1.00149827440536,1500,1,0.506
"eps2[245]",-0.00769870704326472,0.20799047327528,-0.406541118524619,-0.148887749621017,-0.00676893260296477,0.127832840393133,0.390629436297148,1.00133469314506,1381,1,0.509333333333333
"eps2[246]",0.000526677915432136,0.210705556143778,-0.407490508048956,-0.142314459027235,0.00528286260604891,0.146099512953129,0.404126801192103,1.00043482273375,1425,1,0.508
"eps2[247]",0.0226975897100642,0.217113178319123,-0.405568427656761,-0.120232675828211,0.0225855644851877,0.17398218844616,0.436102825683942,1.0023435731304,728,1,0.543333333333333
"eps2[248]",0.00173031325859384,0.212715177390898,-0.42966197055186,-0.139161802128026,0.00413463386571282,0.149543479429495,0.435384134193782,1.00620429453136,592,1,0.509333333333333
"eps2[249]",0.00832086023685389,0.220113135695907,-0.397576601728775,-0.143314113201988,0.002193756207961,0.155401022077526,0.46158554075566,0.999858220842883,1500,1,0.503333333333333
"eps2[250]",0.00834850975720585,0.204593509405567,-0.381481690259731,-0.136555801926532,0.00322740861805203,0.141661434558684,0.40026198837093,1.00031919333499,1500,1,0.509333333333333
"eps2[251]",0.00733358066888263,0.210461168201439,-0.3919713154655,-0.141250126613204,0.00621566705752172,0.152420439415015,0.410384083841943,1.00156779507376,1500,1,0.510666666666667
"eps2[252]",0.00559772054528119,0.215346049455614,-0.40067377764149,-0.140282588043833,0.000475837697382603,0.14995471426624,0.436760356920466,1.00175959005463,893,1,0.500666666666667
"eps2[253]",0.00378347685617647,0.210855243016309,-0.403038084586474,-0.140412267638485,-0.00240065565370752,0.143040580235564,0.421677804813186,1.00204346026903,1404,1,0.496
"eps2[254]",0.0164878309938148,0.21469693997805,-0.420495199188409,-0.123536731393579,0.0206800964446743,0.159548315254247,0.443775611905183,1.0005419600514,1500,1,0.538
"eps2[255]",-0.0101483582945903,0.210438545818278,-0.418350124604778,-0.157938707159378,-0.0143477135142454,0.13412558564412,0.431490866899215,0.999662860092151,1500,1,0.527333333333333
"eps2[256]",-0.00013829538541484,0.217640048447667,-0.428377200476502,-0.150619458182556,-0.00297723878070992,0.140453740383197,0.446019249683405,1.00118594605448,1021,1,0.51
"eps2[257]",0.00884890189908067,0.208979110454041,-0.392286575947221,-0.132451486589201,0.0074949743135936,0.144245618737403,0.419874924659302,1.00069887215871,1500,1,0.512
"eps2[258]",-0.00429958115232028,0.209893381133679,-0.413498913042092,-0.141928435108324,-0.00422868278449647,0.138218591251351,0.407720487176796,1.00209011720132,1014,1,0.505333333333333
"eps2[259]",-0.00116085255601208,0.212023902457789,-0.427882519564533,-0.142840058970265,-0.00187019810876132,0.137967374570648,0.432846703356883,1.00478538176115,429,1,0.502
"eps2[260]",0.00172288897110324,0.217404655160245,-0.429503260380075,-0.137119970194957,-0.00807353686473287,0.144990080660315,0.435394930869956,1.00044806374575,1500,1,0.49
"eps2[261]",-0.000294538675112822,0.206682442466389,-0.418477415082299,-0.13994951722726,0.00385588428135251,0.145237714293715,0.381665591819865,1.00064470470629,1500,1,0.492666666666667
"eps2[262]",-0.00526658603143418,0.213627564815678,-0.427618215148884,-0.148777965634167,-0.004462362265649,0.14525546380458,0.417316761614802,1.00017994927963,1500,1,0.506
"eps2[263]",0.00836915896759641,0.213311065218256,-0.402003981747752,-0.140620723013703,0.00473891853432615,0.152333333151514,0.413925992375914,0.999402571480378,1500,1,0.508
"eps2[264]",0.00372240944649011,0.214277354163198,-0.421562934764132,-0.143862861104448,0.00412950435361902,0.15038084625776,0.417393355045922,0.999623555243693,1500,1,0.504666666666667
"eps2[265]",-0.0175702970129849,0.210037092708532,-0.435796859144221,-0.160514034299723,-0.00739817265087911,0.123207324024439,0.367450702295903,1.0005009530461,1500,1,0.514
"eps2[266]",0.00224063827592304,0.211102716655984,-0.393290073096504,-0.143343187929701,0.00531161228973846,0.146171907262926,0.397963656241722,1.00121698205884,1052,1,0.507333333333333
"eps2[267]",0.00546099527960671,0.208545623532057,-0.391666001512163,-0.144233259058793,0.00539378079118454,0.1517373483197,0.401387502598332,1.0011179541661,1500,1,0.509333333333333
"eps2[268]",0.00267196976647908,0.211629131528103,-0.421865435505909,-0.138457943297165,0.00339219336320812,0.150409338108899,0.402138242509071,1.00044375411307,1407,1,0.504
"eps2[269]",0.00546689362316751,0.213727295214152,-0.416072846664573,-0.131448154119732,0.00727887754977517,0.151611762890329,0.404545635113024,1.0010619076892,1031,1,0.516
"eps2[270]",0.000793742713348789,0.209712838849906,-0.413398532472208,-0.140604060205791,0.0052467383563046,0.144099633168109,0.411370853900356,0.999496070049712,1500,1,0.508666666666667
"eps2[271]",0.00358390348765525,0.207334259374908,-0.403143936428542,-0.139861757973274,0.0069857922779046,0.145214453874899,0.385999007015595,1.00489491730917,372,1,0.511333333333333
"eps2[272]",0.00744881085825125,0.213673415755614,-0.404466736656902,-0.135232455234487,0.00850843219185883,0.150323943347565,0.427503589537917,1.00350403220333,916,1,0.516666666666667
"eps2[273]",-0.00365142646906516,0.215906030013485,-0.411802710563551,-0.150029177279874,-0.00687541891854792,0.138690860676643,0.447429461358601,1.00174190241756,1090,1,0.515333333333333
"eps2[274]",0.0103542351439626,0.217858966534319,-0.413724248274999,-0.142674609465165,0.012451436995138,0.160186060606698,0.432116689240359,0.99998161193443,1500,1,0.518
"eps2[275]",0.00760722806153567,0.214917182231505,-0.410928194825752,-0.143227834575789,0.00871846667887451,0.155883691667075,0.418879467726927,1.00321531730539,620,1,0.513333333333333
"eps2[276]",-0.011118114724681,0.214735805840071,-0.423285209251894,-0.157436461531266,-0.00734069493310717,0.130595562691038,0.400729311885555,0.999304846475594,1500,1,0.519333333333333
"eps2[277]",0.00229509967804687,0.220830058093524,-0.421941219324287,-0.137673788004631,-0.00358296017480317,0.150307164638584,0.43689142460251,1.0000151001141,1500,1,0.493333333333333
"eps2[278]",0.00123843625343408,0.216741501261426,-0.410077980895411,-0.145179689891403,-0.00266706339184136,0.146007845759984,0.441514735572688,1.00952079825219,229,1,0.495333333333333
"eps2[279]",-0.0190384237611594,0.21089799768961,-0.423253650485018,-0.156678428796602,-0.0212833425775859,0.11688215493761,0.407274173512849,1.00300645407718,1114,1,0.544
"eps2[280]",-0.00810930425252502,0.218207173247465,-0.436929357998883,-0.14985658938357,-0.00670562800189825,0.137419705738854,0.399954961176782,0.999341797365344,1500,1,0.515333333333333
"eps2[281]",0.00403723834365134,0.207781179067627,-0.400508326691054,-0.12814446579203,0.00739898778578497,0.142390332798357,0.411188815665808,1.00228681296393,1500,1,0.510666666666667
"eps2[282]",-0.0148083728684408,0.221076701579834,-0.427968312303804,-0.167090459197147,-0.0133766944445322,0.138905720523126,0.423721713648624,1.00022436684515,1500,1,0.530666666666667
"eps2[283]",0.00227606393428701,0.220765905836915,-0.4340712541934,-0.155270245216799,0.00485606589497477,0.15586835173131,0.446351035692281,1.00000083753729,1500,1,0.508
"eps2[284]",0.00324673240284148,0.213226036274899,-0.417850490174845,-0.138980934732452,0.00250060868281655,0.14561913618089,0.414814684110548,1.00507432112821,404,1,0.505333333333333
"eps2[285]",0.0130173912710197,0.216063207000845,-0.411782111383546,-0.131644860770959,0.0121879053403914,0.15736693036,0.412970044281468,1.00060214143618,1500,1,0.523333333333333
"eps2[286]",0.0130042239161192,0.216093139134666,-0.408744552025738,-0.140729216689764,0.0178549043348273,0.160623510620811,0.442619463196785,0.999779102303243,1500,1,0.526
"eps2[287]",-0.00916669190566787,0.212640508274651,-0.433683615435342,-0.156929187511294,-0.0104118532475122,0.135321865337845,0.390883571609492,1.00176988282196,1239,1,0.522
"eps2[288]",0.0142261314396291,0.214749662782895,-0.407371512830763,-0.128962239109841,0.0237604032394735,0.153011931218267,0.440394921308637,1.00244761544821,607,1,0.545333333333333
"eps2[289]",-0.00221109266904655,0.209032691592225,-0.411108651744089,-0.143199401897711,-0.00309885093529081,0.138136618378585,0.405055680049319,1.00145206302051,1495,1,0.508
"eps2[290]",0.00201719875975952,0.210214005160265,-0.408243816796868,-0.139052407258333,0.00558574675947252,0.138539635143803,0.423290843833278,1.00240059934166,1433,1,0.51
"eps2[291]",0.00536859655613524,0.213677910403998,-0.40356741820208,-0.142664746655209,-0.00169876217018377,0.153888138556919,0.424601807783816,1.00029703419022,1500,1,0.498
"eps2[292]",-0.00499143548280323,0.210713252585682,-0.406316271927503,-0.150828114035153,-0.00934389859879119,0.136417899147227,0.402306383712746,0.999651281433454,1500,1,0.515333333333333
"eps2[293]",-0.000131219740458733,0.210977699804285,-0.423391487919975,-0.139319785933799,0.00100655359048112,0.139961149383641,0.415995466352126,1.0001686432268,1500,1,0.495333333333333
"eps2[294]",0.00861788730278926,0.217216056280768,-0.420499279261009,-0.136483484089039,0.015697578374228,0.158125342667716,0.420318484126182,0.999365282873851,1500,1,0.526666666666667
"eps2[295]",-0.00878009909136473,0.209679795900831,-0.442048596766306,-0.139555119404904,-0.00639474771530131,0.134164047263552,0.38954219963427,0.99987462029545,1500,1,0.510666666666667
"eps2[296]",-0.00166358131114806,0.21318263683752,-0.441729829203324,-0.1487203146403,0.00289199827183373,0.148578911505038,0.399768244882994,0.999972515973405,1500,1,0.495333333333333
"eps2[297]",-0.0088428831817657,0.208968437965752,-0.419521668480683,-0.147495686976919,-0.00618577488409648,0.132921873441717,0.387067404653377,0.99971236588659,1500,1,0.516666666666667
"eps2[298]",-0.000244979502818118,0.209446420917517,-0.389461836892932,-0.148158320062315,0.00332871455348642,0.146207510568151,0.399782306059284,1.00012572544503,1500,1,0.491333333333333
"eps2[299]",-0.00662449005333803,0.206797502334978,-0.401493766037441,-0.149390950840113,-0.00967969219403968,0.133457866620926,0.397189039252155,0.999274122241824,1500,1,0.519333333333333
"eps2[300]",0.00595733704494848,0.211111424324162,-0.415854371411863,-0.134072416176955,-0.000253164292211089,0.145844708629595,0.413511446120031,0.999362586088975,1500,1,0.5
"eps2[301]",-0.00701824714190973,0.214943539343614,-0.41400968325771,-0.153030409076487,-0.0157111270076487,0.135220360502777,0.443730741315854,0.999892126585092,1500,1,0.53
"eps2[302]",-0.00618801678200979,0.215689371969429,-0.422116157441028,-0.143391508741134,-0.0084606876193257,0.135136227138252,0.413782879189973,1.00063002048731,1420,1,0.514666666666667
"eps2[303]",0.00652595599612591,0.217264219972747,-0.416806625483622,-0.136242495481331,0.00873338617088992,0.149818134235316,0.417580802780868,1.00085998462536,1385,1,0.516
"eps2[304]",0.000550313421188176,0.205112100425307,-0.398779016211948,-0.141846971562876,-0.00203287657895723,0.139062093088792,0.408024902563708,1.00013066526835,1500,1,0.497333333333333
"eps2[305]",0.00602726758219196,0.213767581872187,-0.396127607511281,-0.140944515544534,0.00420497877147529,0.152753651022502,0.418266638878245,0.999281533187021,1500,1,0.507333333333333
"eps2[306]",-0.00265763134817327,0.216277203445306,-0.433824655497453,-0.139609199102042,-0.00256417570325934,0.128620277556098,0.431170828801424,1.00015742148799,1500,1,0.502666666666667
"eps2[307]",0.00220080284610699,0.215656368041907,-0.433673010094897,-0.139624550158876,0.00518339944741004,0.151976646573391,0.403285868212264,1.00579438151384,315,1,0.508666666666667
"eps2[308]",-0.0108083784991066,0.217185756107754,-0.425767297909075,-0.157832882603839,-0.00976709821833434,0.131700173085618,0.422333983433392,0.999333353987303,1500,1,0.526
"eps2[309]",-0.00309191031327171,0.217641118406775,-0.436294959177322,-0.139901328865117,-0.00458979455101931,0.14431563283361,0.419089471946559,0.999592622634488,1500,1,0.512666666666667
"eps2[310]",-0.00873981988162162,0.208558899030838,-0.422714696176024,-0.145652420043898,-0.00967074637821758,0.129743128530199,0.397595861732266,1.00296838628244,947,1,0.520666666666667
"eps2[311]",0.0028421201398736,0.211136071171075,-0.400374998106565,-0.138861095901624,0.00259626207446038,0.145166439013877,0.435989375368513,1.00036782819647,1500,1,0.504666666666667
"eps2[312]",-0.00475182514020331,0.211753274649372,-0.414691008109329,-0.150783195975979,-0.0110490414793689,0.139686662369139,0.41432206109355,0.999590555925,1500,1,0.525333333333333
"eps2[313]",0.00448305820118809,0.215026139304263,-0.414171926540807,-0.144165813687927,-0.000974559084103351,0.153932864545036,0.422630451177181,1.00200494575597,731,1,0.496
"eps2[314]",-0.00621758356193554,0.212222332177136,-0.418225985829868,-0.138406087808485,-0.0059507030990792,0.134122360770862,0.415511556546298,1.0017263203128,784,1,0.510666666666667
"eps2[315]",0.00655675198623343,0.215381249161241,-0.415868738593722,-0.145689919602104,0.00750082026289765,0.152402146235328,0.419311235943884,1.0012621331192,1208,1,0.516
"eps2[316]",-0.00472448860326847,0.206603298743404,-0.429530093322992,-0.134500564862149,-0.00334683641268194,0.13305768871113,0.393999682959956,1.00001023652283,1500,1,0.505333333333333
"eps2[317]",0.00429928229849068,0.212964210226441,-0.404032645392354,-0.138860122434011,0.010531331749326,0.155161298330221,0.417827780659272,1.00035226564981,1500,1,0.52
"eps2[318]",-0.0167284837241903,0.220510166665176,-0.459582492551134,-0.170484554692882,-0.019222842747076,0.133831960182833,0.422932850477778,1.00303155004002,504,1,0.528666666666667
"eps2[319]",0.00982688222456667,0.213620817912062,-0.414287376505801,-0.133602047316938,0.0158446577139498,0.156461812745182,0.427646068262812,1.0004861502138,1500,1,0.532
"eps2[320]",-0.00184125856368892,0.21557321662028,-0.428947018027948,-0.138671222212431,-0.00463269702059489,0.13647904287888,0.419753869870543,1.0012894931635,1112,1,0.51
"eps2[321]",0.00629681600577337,0.21103317467668,-0.416556329627336,-0.139344623338971,0.0137657739696748,0.151859911784921,0.400070593912067,1.00015680598363,1500,1,0.520666666666667
"eps2[322]",0.00353367077487832,0.217502015844255,-0.404052253269207,-0.147720303051749,0.00600489614326698,0.148813769632039,0.434433844133941,0.999660078073614,1500,1,0.509333333333333
"eps2[323]",0.00468802668697217,0.211524766582003,-0.420203667140556,-0.140989720537118,0.00102253746169095,0.156560178148027,0.396168064207098,1.0006967418981,1500,1,0.502666666666667
"eps2[324]",0.00399408764349425,0.210534658139354,-0.396464433243803,-0.137215921057517,0.00510440167664046,0.144975192936633,0.422225711653062,0.999790500057042,1500,1,0.508666666666667
"eps2[325]",-0.0145439914472806,0.210425110317955,-0.427121056070203,-0.155771098525395,-0.0131886784304492,0.125022172758946,0.413780307632534,1.00304076163302,647,1,0.526
"eps2[326]",0.00181730069046935,0.210063468211963,-0.402728902295687,-0.140129301429967,-0.00339967231732176,0.146397316276195,0.421364168818452,0.999432624681508,1500,1,0.492666666666667
"eps2[327]",0.00640580254854103,0.214926049227957,-0.40704780182583,-0.14404532915588,0.00654280896228521,0.150838138915451,0.422937009938911,1.00152138451796,1500,1,0.515333333333333
"eps2[328]",-0.00159496940585625,0.214588866079518,-0.413617698934064,-0.15269557195069,-0.00154972340379089,0.155418195596765,0.410330297765867,0.999267064629958,1500,1,0.504
"eps2[329]",-0.000388182671987765,0.21247274971456,-0.430995094342226,-0.140162751983966,0.00564952380632443,0.144186362409793,0.407505311847269,0.999337798303851,1500,1,0.489333333333333
"eps2[330]",0.00899661014097465,0.208811481326982,-0.393474903798453,-0.132173126243763,0.0154706227536727,0.148180785846253,0.425816670331567,0.999529501761192,1500,1,0.528666666666667
"eps2[331]",-0.00747242428452731,0.210716651932297,-0.41469633083186,-0.149095803098764,-0.00253500401953773,0.135285390675414,0.402625933238263,1.00088678657641,1067,1,0.504666666666667
"eps2[332]",0.00995609263883564,0.217834234925865,-0.404870912635116,-0.146025642473344,0.0177385063281428,0.150172982333942,0.455965618480187,1.00280234984541,710,1,0.526666666666667
"eps2[333]",0.00415454217875264,0.207675610135186,-0.425484880222424,-0.128123598519794,0.00199582609766602,0.137134793495865,0.424369081902753,1.00402295433212,454,1,0.507333333333333
"eps2[334]",0.0103570029412229,0.20932195116893,-0.403756840525279,-0.132079286169631,0.00343061684076296,0.151056875992079,0.43182723893514,1.00020887898271,1500,1,0.510666666666667
"eps2[335]",-0.00157640612798267,0.215598689412011,-0.441443775603902,-0.149391340164982,4.00752931854799e-05,0.147989417503742,0.409143026237536,1.00353343234487,475,1,0.5
"eps2[336]",0.000135902691397498,0.208156273229631,-0.40429060125636,-0.140668613314677,0.00370287412354167,0.137649083550075,0.409021340828628,1.0031213532689,1353,1,0.506
"eps2[337]",-0.013792940672654,0.210496822527867,-0.410807362219995,-0.162731615809368,-0.0182801756696314,0.129456826656554,0.402842975455428,1.00018633261389,1500,1,0.532
"eps2[338]",0.00170668297516652,0.211846417194964,-0.408527449026797,-0.146009213502793,0.00809693378164236,0.146688170475142,0.420952468203547,0.99966283640714,1500,1,0.514666666666667
"eps2[339]",0.00134339128926833,0.213511008920027,-0.398673572047583,-0.13706244582156,0.000826031164444248,0.14029116527989,0.422420157036101,0.999261153756007,1500,1,0.501333333333333
"eps2[340]",0.00124883215664351,0.209830314867008,-0.42197058666452,-0.139342646318345,0.00294998069569474,0.146927994835988,0.412713879567112,0.999824276666916,1500,1,0.503333333333333
"eps2[341]",0.00654717987037507,0.215358803511294,-0.426144012053593,-0.137210269287776,0.00812768900933568,0.157243106496265,0.412550458417549,0.999470727422903,1500,1,0.508666666666667
"eps2[342]",0.00782453595496699,0.208532787797256,-0.398935272029991,-0.134788000062733,0.00881328050570305,0.14736077916936,0.426213384461949,1.00097238772999,1500,1,0.522666666666667
"eps2[343]",-0.00993163214970482,0.216643712907664,-0.438629675540236,-0.149901063384013,-0.0181508433049853,0.140212848355033,0.412310174640718,1.00050286179175,1347,1,0.528666666666667
"eps2[344]",0.00410984837930254,0.212073302334788,-0.416103860476234,-0.13577311875117,-0.000614094651191187,0.1467993292578,0.412370246782771,1.00064188152202,1500,1,0.498
"eps2[345]",0.00147537892221652,0.216780291177365,-0.417211006501898,-0.154206743042108,0.00061825185328282,0.143316431153596,0.44765729768124,1.00463065734615,361,1,0.500666666666667
"eps2[346]",-0.0017653744444435,0.211808818321844,-0.403310902566468,-0.139972608780304,-0.010300332598478,0.141451323464514,0.406914636865389,0.999361650680825,1500,1,0.517333333333333
"eps2[347]",-0.00227729387306225,0.223473590535,-0.42900669124412,-0.154076293900098,-0.00753947307400366,0.147703918588272,0.457525986635882,1.00447780220148,442,1,0.515333333333333
"eps2[348]",-0.00278242553631325,0.211308423136526,-0.413840242153842,-0.147638044235392,0.00311308468478162,0.134134674884687,0.405608260090401,0.999341792446129,1500,1,0.495333333333333
"eps2[349]",-0.00386139453292675,0.217607979805649,-0.403284374129171,-0.160225595689633,-0.00366353413628628,0.149133782079418,0.414124092048746,1.00338447610637,519,1,0.508
"eps2[350]",-0.0212336553569942,0.209104420418706,-0.424865258642768,-0.159996555929837,-0.0224386684114372,0.120128863994038,0.395984796024911,1.00063232309108,1500,1,0.551333333333333
"eps2[351]",0.00525883280493313,0.206606733917536,-0.388453556771487,-0.133063130956611,-0.00281073933944063,0.137646833654207,0.406734873448145,0.999677794738217,1500,1,0.496
"eps2[352]",-0.000186217416649207,0.211249714272126,-0.418540033858126,-0.138699264559631,0.000393605468110521,0.146251269504493,0.389785087262412,0.999576763985895,1500,1,0.499333333333333
"eps2[353]",-0.0044933415367667,0.210239185449846,-0.396384432600086,-0.14895655939944,-0.00544395251533718,0.130134028064825,0.433549021023032,1.00058194493066,1500,1,0.512
"eps2[354]",-0.00783764513619029,0.20871132969332,-0.407465151104497,-0.151984816239089,-0.00424831009292603,0.129062841921997,0.395143592236162,1.00166123493617,1500,1,0.51
"eps2[355]",0.00904818124337403,0.216343800679364,-0.406527873195968,-0.13811250795867,0.00529247380874545,0.153938929678356,0.440524919025004,0.999573582888911,1500,1,0.51
"eps2[356]",-0.00196096818190285,0.21205398535536,-0.421004978398468,-0.149952518324184,0.00245673662011428,0.143436738174649,0.410903885379376,1.00041154279259,1465,1,0.495333333333333
"eps2[357]",0.00389482082222351,0.207651971128553,-0.383276974462347,-0.141544036396123,0.000390037079923786,0.153576459294358,0.415795011373769,1.00222423914146,937,1,0.500666666666667
"eps2[358]",-0.00696304352385307,0.219519598243115,-0.440681517480331,-0.151523542064083,-0.00418662813012649,0.128995029193834,0.422927012067515,1.00149233229404,1223,1,0.508
"eps2[359]",-0.00514384502838093,0.213364981473826,-0.41757144056677,-0.145169353473822,-0.00212029096543366,0.139567548776569,0.38884346061124,1.00363327705757,460,1,0.505333333333333
"eps2[360]",3.19436197340037e-05,0.217644270690697,-0.423104720191276,-0.145042814560579,-0.000932568460954408,0.144586782378145,0.420378452196081,1.00185779718885,1030,1,0.498666666666667
"eps2[361]",-0.00536944801644571,0.201271242808838,-0.401940986497997,-0.138563837962403,-0.00560978534368457,0.133937019860819,0.37501124366291,1.00083308907656,1500,1,0.509333333333333
"eps2[362]",-0.00465141640700509,0.208239258022419,-0.409774664526546,-0.146076046211714,-0.00305359428733483,0.143504791016117,0.404861307848244,0.99945253389976,1500,1,0.508
"eps2[363]",-0.00251594771766569,0.213948875731865,-0.457846505625458,-0.143680488782207,-0.00448604725611647,0.139568129344938,0.412330290784523,1.00216510149375,868,1,0.514
"eps2[364]",-0.022225503369951,0.215817175417997,-0.454866392332808,-0.163177314752765,-0.0162348229364036,0.12367260069259,0.407681684687551,0.999578806167191,1500,1,0.538
"eps2[365]",-0.00403816361429281,0.214888465393768,-0.438385821755809,-0.150445899837513,-0.000493693206287494,0.140741970982271,0.419061458288407,1.00093808416715,1224,1,0.500666666666667
"eps2[366]",-0.00723499266594715,0.209437060219859,-0.396153988404216,-0.151890476532322,-0.0124823386467208,0.139494702932886,0.413404972828323,0.999780627333367,1500,1,0.523333333333333
"eps2[367]",0.00393654156180667,0.21067114203789,-0.415490664146334,-0.13415697313857,0.00356349589022978,0.150460581379007,0.404999823655332,0.999523077474797,1500,1,0.505333333333333
"eps2[368]",-0.00480336267549034,0.205144014652012,-0.412244791734579,-0.146740947707878,-0.00999852251824352,0.12655682141618,0.399449918664357,1.00227061821991,665,1,0.514
"eps2[369]",-0.00249738512994819,0.214615604954683,-0.410531438988787,-0.151892589290348,-0.000996118463078614,0.13816936812178,0.424732949672816,1.00162260798842,1059,1,0.504
"eps2[370]",-0.0058113743877085,0.210713473346684,-0.430188087511241,-0.15726070843167,-0.00183185669349462,0.138546402563344,0.40617830791828,0.999985201934362,1500,1,0.505333333333333
"eps2[371]",-1.22029771136079e-05,0.213378766262578,-0.405984544142564,-0.141651267824232,-0.00362513577265329,0.137544421011655,0.415809880777386,1.00115400263476,1283,1,0.504666666666667
"eps2[372]",0.00100890567039523,0.215679576228219,-0.408460606685283,-0.143167854274806,0.00399901248714729,0.148801408536276,0.409882026197054,1.00387699334197,786,1,0.507333333333333
"eps2[373]",-0.00255374597720065,0.206290170519048,-0.410687757233438,-0.144607340822492,0.00470413697083352,0.132173563258708,0.390200430992088,0.999425813426017,1500,1,0.490666666666667
"eps2[374]",0.00688766124978845,0.215565353051229,-0.432012147030714,-0.128238484956481,0.015885152937755,0.144462763116451,0.420996955363486,1.00176805867382,1500,1,0.53
"eps2[375]",-0.00111096494831343,0.212573008752021,-0.417649489568714,-0.147216473949073,-0.010657813766468,0.144159234601437,0.411039324174669,0.999820138055658,1500,1,0.520666666666667
"eps2[376]",0.0012242771451821,0.217896998857683,-0.404146083165603,-0.141434746983933,-0.00208221153800504,0.149859396199443,0.454026101392414,1.00046548329625,1500,1,0.498
"eps2[377]",-0.00439305389296102,0.207206746770966,-0.403463276250642,-0.149697336894007,-0.000454395138788824,0.137645123263868,0.38844923711245,1.00079176746073,1500,1,0.502666666666667
"response[1,1]",147.916506221005,2.15597424406005,143.859822811191,146.430275339438,147.847960084424,149.311042895957,152.312458022114,1.00000324825374,1500,0,1
"response[2,1]",148.027720431376,2.106982752566,144.064070869986,146.581761431695,147.962142841619,149.387698016692,152.298203408564,1.00001201253097,1500,0,1
"response[3,1]",148.138934641746,2.05828779132618,144.270219105965,146.728309386685,148.073425258607,149.472392962321,152.283948795013,1.00002176889137,1500,0,1
"response[4,1]",148.250148852117,2.00991091294757,144.460273809735,146.879986260852,148.187202430949,149.560960199933,152.269694181462,1.00003263324023,1500,0,1
"response[5,1]",148.361363062488,1.96187564789428,144.647569478856,147.009537049567,148.304140682409,149.641745110632,152.256028022562,1.00004473457906,1500,0,1
"response[6,1]",148.472577272859,1.91420771374659,144.860356953831,147.173278611693,148.409674012498,149.716267975125,152.244706543679,1.00005821606835,1500,0,1
"response[7,1]",148.58379148323,1.86693524758757,145.077128512064,147.309858543055,148.510005598873,149.800503846503,152.252256755909,1.0000732359863,1500,0,1
"response[8,1]",148.6950056936,1.82008906368734,145.30386964805,147.453325933866,148.613609993059,149.871601235692,152.273197751089,1.00008996848396,1500,0,1
"response[9,1]",148.806219903971,1.77370293864987,145.504649901874,147.588800777931,148.723244971401,149.940199781007,152.29123707748,1.00010860399663,1500,0,1
"response[10,1]",148.917434114342,1.72781392607759,145.688424521433,147.739046873464,148.846855901644,150.010528922825,152.340519545301,1.0001293491181,1500,0,1
"response[11,1]",149.028648324713,1.68246270254993,145.893400144625,147.883805229681,148.982670095765,150.100969138562,152.382570845186,1.0001524256755,1500,0,1
"response[12,1]",149.139862535083,1.63769394623877,146.086036340037,148.032219078677,149.084017120967,150.184426422323,152.399688019183,1.00017806865499,1500,0,1
"response[13,1]",149.251076745454,1.59355674871468,146.304414581057,148.179543416755,149.213124807891,150.274973398352,152.415714793858,1.00020652252153,1500,0,1
"response[14,1]",149.362290955825,1.55010505932748,146.473943671455,148.312303542042,149.325940129787,150.377398104308,152.457824901374,1.00023803534603,1500,0,1
"response[15,1]",149.473505166196,1.5073981598379,146.655344992793,148.47142740076,149.430702959703,150.467368135974,152.515985950008,1.00027285000682,1500,0,1
"response[16,1]",149.584719376567,1.46550116457281,146.845812754929,148.612253390692,149.52581032574,150.554500606981,152.515609881623,1.00031119157542,1500,0,1
"response[17,1]",149.695933586937,1.4244855380794,147.044408832514,148.741263273582,149.638723543806,150.637492571433,152.514154350663,1.00035324984745,1500,0,1
"response[18,1]",149.807147797308,1.3844296178506,147.21934686498,148.887452993237,149.757227298615,150.732853832915,152.554628519224,1.00039915587537,1500,0,1
"response[19,1]",149.918362007679,1.34541912396029,147.396880782142,149.020491193629,149.8765768483,150.816139355907,152.580479798876,1.00044895134969,1500,0,1
"response[20,1]",150.02957621805,1.30754763018627,147.538654448239,149.165639498515,149.983034129804,150.901801528656,152.653494555763,1.00050254984962,1500,0,1
"response[21,1]",150.14079042842,1.27091696229332,147.683572209353,149.298470741703,150.100150018521,150.98896763268,152.684796940582,1.0005596894564,1500,0,1
"response[22,1]",150.252004638791,1.23563747864638,147.85614438865,149.41294813317,150.201085219904,151.080871190339,152.751855178814,1.00061987714641,1500,0,1
"response[23,1]",150.363218849162,1.20182817656176,148.016210077923,149.545041353472,150.322757910024,151.174478372161,152.81825509468,1.0006823269226,1500,0,1
"response[24,1]",150.474433059533,1.16961655557345,148.228832919206,149.673532646525,150.429442888469,151.279511382413,152.877641715254,1.00074589595409,1500,0,1
"response[25,1]",150.585647269904,1.13913815751942,148.383461267679,149.813859561561,150.560024958857,151.358316922042,152.921553258898,1.00080902611319,1500,0,1
"response[26,1]",150.696861480274,1.11053569529012,148.482825511158,149.921396169888,150.680119616302,151.456662928178,152.953195351158,1.00086970205506,1500,0,1
"response[27,1]",150.808075690645,1.08395768038323,148.619874375451,150.071911921278,150.786339243266,151.555125159984,153.014579780369,1.0009254408164,1500,0,1
"response[28,1]",150.919289901016,1.0595564680382,148.78672539364,150.191709644611,150.890241867208,151.637143391031,153.077274087385,1.00097333071791,1500,0,1
"response[29,1]",151.030504111387,1.03748566197943,148.951761130255,150.33283278814,151.005574026234,151.720169621725,153.142544649886,1.00101013748739,1500,0,1
"response[30,1]",151.141718321757,1.01789686236659,149.095180312192,150.448069791187,151.122121118599,151.805930812634,153.211026716841,1.00103249098093,1500,0,1
"response[31,1]",151.252932532128,1.00093580202234,149.243984151323,150.58872128511,151.247320645769,151.908699796191,153.286358850687,1.00103715497617,1500,0,1
"response[32,1]",151.364146742499,0.986737995050346,149.391802667655,150.69967469886,151.360452280901,152.011601978816,153.330899424288,1.00102136496962,1500,0,1
"response[33,1]",151.47536095287,0.975424110699225,149.54477364325,150.807292500172,151.477369143786,152.10969922346,153.405556800701,1.00098319702579,1500,0,1
"response[34,1]",151.586575163241,0.967095369827759,149.674041667936,150.919286506505,151.600055803359,152.21014584378,153.494077727606,1.00092191005575,1500,0,1
"response[35,1]",151.697789373611,0.961829323062426,149.816803485459,151.03249751898,151.708127080352,152.317252681869,153.571969284193,1.00083819240764,1500,0,1
"response[36,1]",151.809003583982,0.959676389630735,149.944132291007,151.146050400472,151.820011636864,152.429839106885,153.689887095666,1.00073424891587,1500,0,1
"response[37,1]",151.920217794353,0.960657500193568,150.075261585025,151.23936606249,151.929093777956,152.547915056388,153.765839082059,1.00061368978589,1500,0,1
"response[38,1]",152.031432004724,0.964763093351497,150.172002352437,151.355563009273,152.039773148698,152.674650784293,153.876141196847,1.00048122354758,1500,0,1
"response[39,1]",152.142646215094,0.971953575876782,150.271289649736,151.460088312417,152.169377685274,152.792973222925,154.026264148667,1.00034220103468,1500,0,1
"response[40,1]",152.253860425465,0.982161195923406,150.352173083992,151.578584166295,152.273309765379,152.918949194111,154.136752289216,1.00020209107439,1500,0,1
"response[41,1]",152.365074635836,0.995293127499254,150.444643771779,151.679228152405,152.381009738828,153.051200774628,154.284470799489,1.00006598000112,1500,0,1
"response[42,1]",152.476288846207,1.01123545144952,150.520790793836,151.77427651907,152.480435465077,153.196120737863,154.430915946055,0.999938173673312,1500,0,1
"response[43,1]",152.587503056578,1.02985766037881,150.577131573412,151.876995131468,152.590054898349,153.32091521857,154.565832239931,0.999821949178156,1500,0,1
"response[44,1]",152.698717266948,1.05101731515947,150.630368057558,151.978644057073,152.710811906065,153.45438613237,154.719998451675,0.999719466060819,1500,0,1
"response[45,1]",152.809931477319,1.07456452883978,150.696018746581,152.073598437375,152.815515558104,153.596973404009,154.897687200308,0.999631815441469,1500,0,1
"response[46,1]",152.92114568769,1.10034603205891,150.752879111131,152.156406963683,152.927515607929,153.730267983311,155.054870839479,0.999559166716396,1500,0,1
"response[47,1]",153.032359898061,1.12820866316762,150.777991989506,152.240733321724,153.041310921248,153.853456419471,155.197613151984,0.999500966663281,1500,0,1
"response[48,1]",153.143574108431,1.15800221017779,150.840947153804,152.329723497032,153.14416073524,153.992459487271,155.388876972848,0.999456151362211,1500,0,1
"response[49,1]",153.254788318802,1.18958160025211,150.89026831138,152.405561432162,153.243264437612,154.13245637242,155.573396236853,0.999423342403596,1500,0,1
"response[50,1]",153.366002529173,1.22280848144408,150.935001050603,152.500555208361,153.362629800229,154.256802062862,155.748968996713,0.999401010926614,1500,0,1
"response[51,1]",153.477216739544,1.25755227115072,150.979845692474,152.576022703089,153.47692426903,154.388095507042,155.888909095028,0.999387603243846,1500,0,1
"response[52,1]",153.588430949915,1.29369075934421,151.018094167951,152.672208006238,153.591567818156,154.516253765872,156.06493745859,0.999381628967338,1500,0,1
"response[53,1]",153.699645160285,1.33111035631926,151.069709806507,152.757637760351,153.709276725618,154.657663238735,156.265716153956,0.99938171666432,1500,0,1
"response[54,1]",153.810859370656,1.36970606859271,151.104086604129,152.829746438899,153.820669539728,154.814068670793,156.449328291207,0.999386643769337,1500,0,1
"response[55,1]",153.922073581027,1.40938127620971,151.12292838459,152.910275977761,153.939211776876,154.94523259946,156.644159258636,0.999395347569459,1500,0,1
"response[56,1]",154.033287791398,1.45004737263058,151.13458609899,152.982990341796,154.055449783633,155.088762944311,156.838990226066,0.999406923276492,1500,0,1
"response[57,1]",154.144502001768,1.49162331631237,151.162510028298,153.060294106087,154.151522697129,155.200344862023,157.031115200796,0.999420614029418,1500,0,1
"response[58,1]",154.255716212139,1.53403513206579,151.185277919642,153.152931514069,154.281723646174,155.345662478173,157.224553195268,0.999435796461442,1500,0,1
"response[59,1]",154.36693042251,1.57721539074693,151.218854567318,153.243490709482,154.384459631071,155.481919272312,157.438249665512,0.999451964393389,1500,0,1
"response[60,1]",154.478144632881,1.62110268797427,151.249827655339,153.323515939304,154.507096755396,155.626675568466,157.620047671472,0.999468712347624,1500,0,1
"response[61,1]",154.589358843252,1.66564113627677,151.28035484223,153.414941441608,154.617211011453,155.767153777663,157.80306600832,0.999485719919935,1500,0,1
"response[62,1]",154.700573053622,1.71077988020342,151.317966978087,153.493711371474,154.730511346339,155.89173294852,157.986500804597,0.999502737577437,1500,0,1
"response[63,1]",154.811787263993,1.75647264024003,151.361324196097,153.586105750561,154.830355180245,156.02406781696,158.175758351216,0.999519574131343,1500,0,1
"response[64,1]",154.923001474364,1.80267728866436,151.404681414108,153.671700407149,154.94533895692,156.166916694738,158.378341705812,0.999536085928719,1500,0,1
"response[65,1]",155.034215684735,1.84935545852395,151.446175442441,153.765152056793,155.069540290953,156.305588262012,158.598843992915,0.999552167684183,1500,0,1
"response[66,1]",155.145429895105,1.89647218556715,151.455985733683,153.851299318895,155.177334064168,156.465995592675,158.822173118675,0.999567744806501,1500,0,1
"response[67,1]",155.256644105476,1.94399558205231,151.475173912726,153.918068191004,155.279631336319,156.612138847474,159.033585462575,0.999582767045815,1500,0,1
"response[68,1]",155.367858315847,1.99189654078707,151.484638467604,153.993537579323,155.391032921407,156.753740585102,159.237297652002,0.999597203281538,1500,0,1
"response[69,1]",155.479072526218,2.04014846741887,151.47787284822,154.066201245017,155.510343441637,156.901284318842,159.460251940464,0.999611037279025,1500,0,1
"response[70,1]",155.590286736589,2.08872703883853,151.505451578216,154.130991834503,155.624155221602,157.04062134326,159.662640515515,0.999624264258264,1500,0,1
"response[71,1]",155.701500946959,2.13760998551895,151.53700595414,154.223816277733,155.734666570264,157.180483273807,159.859668498871,0.999636888136348,1500,0,1
"response[72,1]",155.81271515733,2.1867768956519,151.557814676827,154.308930015718,155.852956769655,157.327228454787,160.056614846072,0.999648919324211,1500,0,1
"response[73,1]",155.923929367701,2.23620903903798,151.571583740852,154.396021289346,155.961959230249,157.475848484731,160.258476484613,0.9996603729764,1500,0,1
"response[74,1]",156.035143578072,2.28588920880799,151.567941828737,154.486883231231,156.069315950461,157.62861202429,160.474428436067,0.999671267608854,1500,0,1
"response[75,1]",156.146357788442,2.33580157919418,151.57500158577,154.56660567989,156.173498627066,157.790143483061,160.705475160115,0.999681624014226,1500,0,1
"response[76,1]",156.257571998813,2.38593157771525,151.574293402543,154.661904873287,156.277660134217,157.936659891797,160.918438411975,0.999691464416723,1500,0,1
"response[77,1]",156.368786209184,2.43626577028514,151.567933616564,154.735165816394,156.381696511153,158.08266021693,161.120664921981,0.999700811818922,1500,0,1
"response[78,1]",156.480000419555,2.48679175789586,151.579142364424,154.823838700802,156.496777845928,158.227335423593,161.336735566089,0.999709689501906,1500,0,1
"response[79,1]",156.591214629926,2.53749808365762,151.590100445218,154.899771242518,156.596222862484,158.37296328969,161.571849954714,0.999718120647406,1500,0,1
"response[80,1]",156.702428840296,2.58837414910304,151.621528024864,154.967573791975,156.710712141678,158.511969897096,161.801531518774,0.999726128056578,1500,0,1
"response[81,1]",156.813643050667,2.63941013877632,151.647162622526,155.035133334162,156.838148338079,158.649542594298,162.010278527369,0.999733733945065,1500,0,1
"response[82,1]",156.924857261038,2.69059695223143,151.649539004094,155.110365363516,156.952791389819,158.792058128132,162.237943509973,0.999740959797974,1500,0,1
"response[83,1]",157.036071471409,2.74192614265783,151.663767095597,155.185822923059,157.053795931402,158.947807917401,162.479467548178,0.999747826271641,1500,0,1
"response[84,1]",157.147285681779,2.79338986143634,151.677696784344,155.288832605911,157.171090863143,159.097966903201,162.699293265382,0.999754353131759,1500,0,1
"response[85,1]",157.25849989215,2.84498080800411,151.716172143888,155.369975999835,157.2641836476,159.248301617233,162.931006571076,0.999760559219474,1500,0,1
"response[86,1]",157.369714102521,2.89669218447519,151.757164768492,155.446973148014,157.380151811655,159.384444113339,163.163320253077,0.999766462438849,1500,0,1
"response[87,1]",157.480928312892,2.9485176545239,151.76237558543,155.525758182416,157.491992670221,159.535503171038,163.389035518119,0.999772079760466,1500,0,1
"response[88,1]",157.592142523263,3.00045130609214,151.766185528148,155.604658312598,157.593697091083,159.69181068795,163.610265615342,0.99977742723697,1500,0,1
"response[89,1]",157.703356733633,3.05248761752977,151.775537559861,155.684740588305,157.711859297185,159.842499936381,163.831495712565,0.99978252002732,1500,0,1
"response[90,1]",157.814570944004,3.10462142681947,151.798950853221,155.763730040886,157.831291165213,159.976215513903,164.052725809788,0.999787372427177,1500,0,1
"response[91,1]",157.925785154375,3.15684790357598,151.822364146581,155.832657391653,157.939081219547,160.119597135101,164.273955907011,0.999791997903444,1500,0,1
"response[92,1]",158.036999364746,3.20916252354241,151.845777439942,155.920629200481,158.057556174622,160.262104221371,164.493137236149,0.999796409131396,1500,0,1
"response[93,1]",158.148213575116,3.26156104533668,151.863345507373,156.000255736423,158.17366031076,160.4123649343,164.705937184611,0.999800618033221,1500,0,1
"response[94,1]",158.259427785487,3.31403948922727,151.870643911705,156.071965920503,158.277843511329,160.553663915496,164.918737133073,0.999804635817051,1500,0,1
"response[95,1]",158.370641995858,3.36659411774116,151.877942316037,156.147101680505,158.38832278122,160.703957862747,165.131537081535,0.999808473015831,1500,0,1
"response[96,1]",158.481856206229,3.41922141792725,151.884186148915,156.206937584686,158.498548761821,160.853330855656,165.344337029997,0.99981213952547,1500,0,1
"response[97,1]",158.5930704166,3.47191808511766,151.884194741278,156.283927457815,158.601099277581,161.009317770473,165.557136978459,0.999815644641968,1500,0,1
"response[98,1]",158.70428462697,3.52468100804502,151.879276145272,156.354261608698,158.715424246346,161.158988942738,165.769936926922,0.9998189970972,1500,0,1
"response[99,1]",158.815498837341,3.57750725518914,151.874357549266,156.421834154591,158.82078088569,161.29478565102,165.982736875384,0.999822205093236,1500,0,1
"response[100,1]",158.926713047712,3.63039406223899,151.879182030574,156.489739752485,158.93094045349,161.460686755229,166.193995257981,0.999825276335059,1500,0,1
"response[1,2]",168.366182160396,1.79285684636926,164.906789945644,167.113265162905,168.347400540241,169.629088580955,171.83871574545,1.00086068002036,1500,0,1
"response[2,2]",168.314956241775,1.7637216385439,164.914730178802,167.090100721146,168.290669920424,169.557620390822,171.726951385491,1.00087337397316,1500,0,1
"response[3,2]",168.263730323154,1.73473656246618,164.918589337295,167.063583812572,168.242992926121,169.484564118815,171.615187025532,1.00088591169506,1500,0,1
"response[4,2]",168.212504404533,1.70590927081134,164.917461144558,167.039443846439,168.19931855938,169.419029489131,171.51089367509,1.00089824446602,1500,0,1
"response[5,2]",168.161278485912,1.67724789924368,164.916164568094,167.010449531815,168.151007094235,169.361928736584,171.412362362497,1.00091031773926,1500,0,1
"response[6,2]",168.110052567291,1.64876110064156,164.914785632104,166.98145521719,168.110940945966,169.288911194294,171.31408767912,1.00092207058325,1500,0,1
"response[7,2]",168.05882664867,1.62045808173316,164.920250286107,166.95361835542,168.063369537511,169.223207317629,171.214918469715,1.00093343509033,1500,0,1
"response[8,2]",168.007600730049,1.59234864226211,164.928691107302,166.925409240618,168.013615842664,169.156754347986,171.094338454876,1.00094433575575,1500,0,1
"response[9,2]",167.956374811428,1.56444321679242,164.934355148413,166.89527946696,167.97196795109,169.081646019641,170.986571299568,1.00095468883306,1500,0,1
"response[10,2]",167.905148892807,1.53675291924753,164.932724712748,166.867624119144,167.920045034625,169.011124498747,170.886526371002,1.00096440167405,1500,0,1
"response[11,2]",167.853922974186,1.50928959025692,164.931094277083,166.832836083952,167.862792374324,168.938391589865,170.782011485385,1.00097337206511,1500,0,1
"response[12,2]",167.802697055565,1.48206584735435,164.932590229738,166.797685590166,167.810812582815,168.853048459408,170.672346637571,1.00098148757576,1500,0,1
"response[13,2]",167.751471136944,1.45509513803206,164.927819707137,166.770119331845,167.763896586061,168.785872390994,170.562681789757,1.00098862494035,1500,0,1
"response[14,2]",167.700245218323,1.4283917956041,164.925885660541,166.731902441535,167.714487523218,168.715177150106,170.456914048135,1.0009946495002,1500,0,1
"response[15,2]",167.649019299702,1.40197109776478,164.919582240739,166.698504950325,167.652359994067,168.645146626054,170.366976303956,1.00099941474006,1500,0,1
"response[16,2]",167.597793381081,1.37584932764478,164.92201756735,166.65985334369,167.601048725392,168.57745173726,170.272419369275,1.00100276196225,1500,0,1
"response[17,2]",167.54656746246,1.35004383706143,164.920083520755,166.633294447225,167.544079858234,168.509433358539,170.184113941555,1.00100452015085,1500,0,1
"response[18,2]",167.49534154384,1.32457311153015,164.91793248603,166.596727493905,167.499355532908,168.42851131748,170.091279468162,1.00100450608962,1500,0,1
"response[19,2]",167.444115625219,1.2994568364451,164.907413492428,166.559902301004,167.452287929178,168.356324399145,170.007503086113,1.0010025248099,1500,0,1
"response[20,2]",167.392889706598,1.27471596364574,164.908276766389,166.524508895929,167.39326555451,168.291759734838,169.917554841445,1.00099837045613,1500,0,1
"response[21,2]",167.341663787977,1.25037277735754,164.892496601488,166.48623200413,167.33094044409,168.229008547118,169.805284452255,1.00099182767041,1500,0,1
"response[22,2]",167.290437869356,1.22645095822641,164.882192957984,166.450694850147,167.281411597809,168.155012790821,169.677006967099,1.00098267360892,1500,0,1
"response[23,2]",167.239211950735,1.20297564385414,164.873972070176,166.409450133136,167.227971965908,168.083330790849,169.559365345816,1.00097068071155,1500,0,1
"response[24,2]",167.187986032114,1.17997348388522,164.85202504233,166.37418809962,167.174240497581,168.000618881703,169.470608178673,1.00095562035035,1500,0,1
"response[25,2]",167.136760113493,1.15747268729432,164.839652854149,166.342150056233,167.124775118215,167.931233106249,169.378449722361,1.00093726748116,1500,0,1
"response[26,2]",167.085534194872,1.13550305908287,164.832226361673,166.312387874865,167.079972633476,167.867636489227,169.2877352206,1.00091540640598,1500,0,1
"response[27,2]",167.034308276251,1.11409602312141,164.826405370156,166.276783720331,167.025364059601,167.799991118145,169.182212703541,1.0008898377301,1500,0,1
"response[28,2]",166.98308235763,1.0932846273855,164.835838440059,166.249540813645,166.976512969946,167.731201035163,169.098636196036,1.00086038654587,1500,0,1
"response[29,2]",166.931856439009,1.07310352735144,164.818462674908,166.216341861162,166.938301966409,167.666138775646,169.010210968241,1.0008269118086,1500,0,1
"response[30,2]",166.880630520388,1.05358894287332,164.802723885005,166.175785886907,166.890044624374,167.612715052926,168.926528313139,1.00078931676945,1500,0,1
"response[31,2]",166.829404601767,1.0347785834998,164.782411294152,166.134691931927,166.84459592431,167.550702684165,168.833419504997,1.00074756020405,1500,0,1
"response[32,2]",166.778178683146,1.01671153696067,164.75329802608,166.103145937924,166.802596778888,167.490708395621,168.761958178468,1.00070166801961,1500,0,1
"response[33,2]",166.726952764525,0.999428115525151,164.738057254344,166.063523189487,166.74445305118,167.424561898905,168.67932968301,1.00065174464436,1500,0,1
"response[34,2]",166.675726845904,0.982969655182457,164.726009862757,166.019466881001,166.694400390412,167.357991946097,168.595603661705,1.00059798341348,1500,0,1
"response[35,2]",166.624500927283,0.967378263199574,164.698047553883,165.977398309655,166.64014701119,167.288433158347,168.511798045913,1.00054067498593,1500,0,1
"response[36,2]",166.573275008662,0.952696510651043,164.668238519864,165.939934325049,166.58120430478,167.228006038769,168.412894201575,1.00048021268302,1500,0,1
"response[37,2]",166.522049090042,0.93896706805748,164.645498468707,165.899669876087,166.518818834344,167.165206119543,168.324118580591,1.00041709357302,1500,0,1
"response[38,2]",166.470823171421,0.926232284354412,164.615414069556,165.85070643691,166.4609469655,167.105047021063,168.240963133233,1.00035191417121,1500,0,1
"response[39,2]",166.4195972528,0.914533712040438,164.571398997286,165.80936803981,166.409514424383,167.054012200627,168.150309798547,1.00028535982603,1500,0,1
"response[40,2]",166.368371334179,0.903911584465359,164.545660330564,165.755231387344,166.34988419814,166.992958090631,168.072486944815,1.00021818724193,1500,0,1
"response[41,2]",166.317145415558,0.894404254684105,164.51170002062,165.705516335982,166.300115359491,166.936729352199,167.997269060536,1.00015120015553,1500,0,1
"response[42,2]",166.265919496937,0.886047608911352,164.467818013554,165.668575973452,166.247614848855,166.878010487504,167.927492546025,1.00008521890089,1500,0,1
"response[43,2]",166.214693578316,0.878874471077732,164.445972999634,165.625038651177,166.200273276419,166.816243988435,167.837046040327,1.00002104540744,1500,0,1
"response[44,2]",166.163467659695,0.872914017965654,164.395642540341,165.575808509924,166.151868049071,166.74695791462,167.768899329951,0.99995942595402,1500,0,1
"response[45,2]",166.112241741074,0.868191226518595,164.371484982562,165.532961688914,166.108295504653,166.703732727663,167.726843795669,0.999901014625441,1500,0,1
"response[46,2]",166.061015822453,0.864726375821232,164.338002770116,165.48502652751,166.058196362451,166.647730603915,167.656046607589,0.999846340739029,1500,0,1
"response[47,2]",166.009789903832,0.862534625665616,164.282477785267,165.443955024108,166.018664033477,166.596723246845,167.581248169744,0.999795783424068,1500,0,1
"response[48,2]",165.958563985211,0.861625691409831,164.222413186617,165.391758256247,165.972716082114,166.542601494348,167.545665290823,0.999749555991121,1500,0,1
"response[49,2]",165.90733806659,0.86200363103467,164.175125474088,165.343598506259,165.929512129922,166.493900130225,167.492751609823,0.999707701773426,1500,0,1
"response[50,2]",165.856112147969,0.863666755137987,164.147418277662,165.29530168685,165.874245477889,166.450494771177,167.446959234112,0.999670101868562,1500,0,1
"response[51,2]",165.804886229348,0.866607664481655,164.094025302362,165.229165590929,165.820693750395,166.400105446056,167.399301930901,0.999636493868721,1500,0,1
"response[52,2]",165.753660310727,0.870813413160511,164.029845708103,165.175947393105,165.762497918125,166.358477378857,167.327306268296,0.999606499450011,1500,0,1
"response[53,2]",165.702434392106,0.876265789093874,163.957701028776,165.120774900007,165.707534828764,166.313773236658,167.28646596826,0.999579657804912,1500,0,1
"response[54,2]",165.651208473485,0.882941697920368,163.888018322051,165.057319708207,165.664177657789,166.271286327355,167.25821141386,0.999555461472257,1500,0,1
"response[55,2]",165.599982554865,0.890813631974072,163.840127188018,165.002491635784,165.614686959308,166.232688656597,167.240817506961,0.999533391184433,1500,0,1
"response[56,2]",165.548756636244,0.899850203139007,163.778475841101,164.94154673429,165.566155563221,166.190824840064,167.223193362541,0.99951294684989,1500,0,1
"response[57,2]",165.497530717623,0.910016717133223,163.707719333819,164.865180341389,165.520178906933,166.143458595337,167.191572282874,0.999493672591408,1500,0,1
"response[58,2]",165.446304799002,0.921275767090769,163.646248613482,164.799686919299,165.463938450271,166.105583776909,167.168053196737,0.999475174696589,1500,0,1
"response[59,2]",165.395078880381,0.933587825964749,163.559844937117,164.742394886396,165.398455819163,166.047511318133,167.133416781085,0.999457132250226,1500,0,1
"response[60,2]",165.34385296176,0.946911819941342,163.480174400652,164.682981325423,165.341511818176,165.998067933461,167.123902841267,0.999439300978138,1500,0,1
"response[61,2]",165.292627043139,0.961205668363337,163.433818510909,164.621552342388,165.300364049281,165.960042686639,167.114093507744,0.999421511371284,1500,0,1
"response[62,2]",165.241401124518,0.976426779250309,163.353363532086,164.557430525948,165.244031929654,165.903379098271,167.081883385653,0.999403662452985,1500,0,1
"response[63,2]",165.190175205897,0.992532493057329,163.247537879078,164.48885939642,165.203186034443,165.850767263213,167.071311059848,0.999385712626875,1500,0,1
"response[64,2]",165.138949287276,1.00948047059178,163.154485748748,164.431075123804,165.153383552423,165.818984485172,167.056603496305,0.999367668946869,1500,0,1
"response[65,2]",165.087723368655,1.02722902384617,163.071236038432,164.373252877847,165.097959349126,165.782984632006,167.038888729409,0.999349575942735,1500,0,1
"response[66,2]",165.036497450034,1.04573739081657,162.96632073111,164.314478908822,165.048269427441,165.753125576841,167.033056924713,0.999331504872515,1500,0,1
"response[67,2]",164.985271531413,1.06496595713941,162.866588265911,164.247961917627,165.000107845209,165.716063343323,167.037306848222,0.999313544003454,1500,0,1
"response[68,2]",164.934045612792,1.08487642861943,162.774327951328,164.181581923025,164.959867083523,165.680215234649,167.032469314001,0.999295790277436,1500,0,1
"response[69,2]",164.882819694171,1.10543195949654,162.682067636746,164.111481113745,164.910991273125,165.642116649616,167.02612678882,0.999278342512832,1500,0,1
"response[70,2]",164.83159377555,1.12659724168525,162.589572155304,164.047493863577,164.853430681751,165.594258113233,167.013328366454,0.999261296141981,1500,0,1
"response[71,2]",164.780367856929,1.14833856029631,162.505279798701,163.979255624472,164.792567041304,165.552201950469,167.016665402421,0.999244739376605,1500,0,1
"response[72,2]",164.729141938308,1.17062382059658,162.420411411352,163.907756007638,164.743960848343,165.528462002939,167.017010564402,0.999228750630859,1500,0,1
"response[73,2]",164.677916019687,1.19342255124789,162.328161187319,163.839139953635,164.68941092794,165.497216229362,167.014415250218,0.999213397000423,1500,0,1
"response[74,2]",164.626690101067,1.2167058882491,162.246587340428,163.76922292386,164.649001327001,165.457749536331,167.032795401789,0.999198733591291,1500,0,1
