"","mean","sd","2.5%","25%","50%","75%","97.5%","Rhat","n.eff","overlap0","f"
"beta1[1]",29.6505034252602,11.7576137099182,6.56260140368233,21.6487562411536,29.4456554958604,37.2100151948729,52.8977469225249,1.00360411495105,459,0,0.996666666666667
"beta1[2]",45.4556564325401,10.2913155806022,25.2177812464512,38.6337313012525,45.4415527588531,52.1694156234672,65.5875516420977,1.00290718723567,542,0,1
"beta1[3]",49.6079520109682,9.1471350920304,32.0026117437757,43.3942650611734,49.6655702822423,55.665445618077,68.1228542229374,1.00264673887447,614,0,1
"beta1[4]",49.561337537888,8.45394136059431,33.7386988135179,43.7342414664504,49.4203626393208,55.0902478624113,66.9406054666142,1.00141097562873,1021,0,1
"beta1[5]",44.5129433574354,8.32750266308351,28.8800371344034,38.8659763301531,44.5237221101437,49.9001871776623,61.4005709127075,1.00061107897971,1500,0,1
"beta1[6]",32.5155812399972,8.75525001473531,16.3253394996369,26.5048747973662,32.3013084267866,38.2530809471547,50.2074697488591,0.999603568511034,1500,0,1
"beta1[7]",19.0726144303561,9.67999915867608,1.18507354487363,12.5371391237358,18.8107014302074,25.5176936100763,38.8740350722933,0.999389870404175,1500,0,0.982666666666667
"beta1[8]",3.49479090486143,10.9862054954448,-16.8056015821871,-4.13143581062321,3.39529525686291,10.684083533818,26.509418729291,0.999485222089732,1500,1,0.621333333333333
"beta1[9]",-18.447501716282,12.5752572996504,-41.5545756134675,-27.108136576803,-18.6739412363716,-10.2323011297679,7.02034302568119,0.999490824588739,1500,1,0.923333333333333
"beta1[10]",-27.3865462797533,14.3889525519066,-53.591036309331,-37.1221824256169,-27.9731702728812,-17.6990875853463,1.43604993959606,0.999921397165148,1500,1,0.966666666666667
"beta1[11]",-51.2109238726092,16.2562225908841,-80.622563409916,-62.6147043717261,-51.4922125189613,-40.2951310238492,-18.2894122321986,0.999749324030921,1500,0,0.999333333333333
"beta2[1]",55.5384113973461,13.4080083625979,28.8600795259386,47.1181388307764,55.5766809088076,64.4884051906985,81.6251911527356,1.00394637310057,423,0,1
"beta2[2]",62.4771632632616,13.4021228918842,36.0383534070718,53.9019480843366,62.5475087300395,71.3715650375704,88.790084881802,1.00385536024723,436,0,1
"beta2[3]",59.345380136835,13.3763662997696,32.9253176637666,50.8430523414229,59.5900311926377,68.3794986893546,85.6365950093025,1.00376787476048,443,0,1
"beta3[1]",16.0044561889947,2.21092217408661,11.6978405657435,14.5767268532845,16.0010198362134,17.4511536801975,20.3291062510374,1.00319657759639,568,0,1
"beta3[2]",17.7140354070836,2.21937361699272,13.3553061379791,16.2733825383969,17.7076659794678,19.1951366366862,22.0479612209215,1.00348456806593,555,0,1
"beta3[3]",16.3363879711238,2.21293759053008,12.0554574342972,14.9373994986742,16.3526172269635,17.8070668119181,20.6375118640173,1.00305189217106,585,0,1
"beta4",-1.11105317646501,0.257115045691302,-1.60820296348801,-1.28357773591028,-1.10723691408235,-0.939147130463503,-0.625686756480586,1.00077575106206,1500,0,1
"eps1[1]",0.152431004026928,0.314250461029292,-0.4694604138678,-0.064799492618471,0.153116000282983,0.36552375558342,0.768618124239201,0.999230799344229,1500,1,0.683333333333333
"eps1[2]",0.602547689100097,0.305022799367612,-0.00914508331998432,0.39522429468643,0.595291380819146,0.801582857832445,1.22440087993881,1.00243373964628,781,1,0.973333333333333
"eps1[3]",1.04881151948181,0.307916505488025,0.444651716799085,0.84556333617377,1.05075266297031,1.24704555898085,1.66035900998327,1.00061484497409,1500,0,0.999333333333333
"eps1[4]",0.355062343714904,0.3042328113585,-0.25780869224521,0.145895765003752,0.360592732512314,0.550642384747749,0.942349837185074,1.00000041045389,1500,1,0.884666666666667
"eps1[5]",-0.0507940077387111,0.302295589298871,-0.622024593096446,-0.252386379055562,-0.0545603731072396,0.158131073937584,0.538451092697453,1.00008961970821,1500,1,0.578
"eps1[6]",-1.13286301762838,0.297354775064009,-1.73398326716954,-1.33076756790244,-1.13631570775926,-0.927401638737566,-0.575246856348273,1.00237072189529,800,0,1
"eps1[7]",-0.691471658615153,0.295779112376779,-1.29169616516134,-0.884631997111027,-0.691388421529126,-0.491540796711155,-0.106176053137395,1.00046770437557,1500,0,0.992666666666667
"eps1[8]",0.75849145454741,0.297199438565799,0.167516518788376,0.563794415365647,0.753254840689904,0.95738726253224,1.33610611655304,0.999843376058119,1500,0,0.991333333333333
"eps1[9]",-0.0173145562818102,0.28689988028187,-0.567929924310724,-0.215144537249639,-0.012926450991911,0.175612054507007,0.534442564452783,1.00098270110596,1298,1,0.516666666666667
"eps1[10]",-0.0269608538738972,0.291247130841418,-0.603071436538135,-0.224463845927429,-0.0202096624764979,0.169407589845994,0.540988842590248,1.00087830383517,1170,1,0.531333333333333
"eps1[11]",-0.973695792539248,0.29734085123524,-1.55342388455775,-1.1679040728222,-0.974090410079615,-0.76574511599532,-0.406131351836232,0.999724126908543,1500,0,1
"eps2[1]",0.0357040307819611,0.311126881071891,-0.573229129733147,-0.171080636148111,0.0370228759105067,0.240821687808178,0.624700758830048,0.999945846843202,1500,1,0.548
"eps2[2]",0.124106945220671,0.321788617607984,-0.48744798076273,-0.0913783815994978,0.116900188951871,0.346135400638458,0.732194927256606,1.00003614653993,1500,1,0.642666666666667
"eps2[3]",0.10510953079429,0.31394396435229,-0.502145354046309,-0.100628404851912,0.102322515944107,0.324189668109058,0.735948512707181,1.00012634633398,1500,1,0.631333333333333
"eps2[4]",0.175698693396504,0.308843667206455,-0.407104562515198,-0.0339350736543495,0.168626819338278,0.388763030420348,0.765624552483666,0.999267388394214,1500,1,0.716666666666667
"eps2[5]",0.00101019033775041,0.316697820691431,-0.623041340070689,-0.218153445930263,0.00627846727258524,0.215536061428435,0.609317569669238,0.99952637736925,1500,1,0.508666666666667
"eps2[6]",0.067209704302807,0.304475641659682,-0.543078664988723,-0.132592162211544,0.0676113674331943,0.280632993145355,0.650784773839593,1.0040792348157,519,1,0.591333333333333
"eps2[7]",-0.041810337721993,0.313498475931206,-0.649563178409394,-0.249207208470252,-0.0337211954317598,0.176817307058496,0.572206531993296,1.00038080545851,1500,1,0.549333333333333
"eps2[8]",-0.0102222834069521,0.307218332955206,-0.593616066948099,-0.211325429187052,-0.0115682204112807,0.202158583321391,0.595781510497712,0.999355664268428,1500,1,0.518666666666667
"eps2[9]",0.00747120326445987,0.313052112300304,-0.601633917266668,-0.196153630017994,0.00466638603575395,0.213571899306424,0.621679444145068,0.999204867776776,1500,1,0.508
"eps2[10]",0.00295100753964894,0.322695969189271,-0.651160385167585,-0.217204573700734,0.00291506035788218,0.221277550678386,0.611527679360688,1.00114099155977,1211,1,0.506
"eps2[11]",0.0741374051759332,0.307876701539223,-0.520059031559168,-0.145048403374093,0.0682323454233705,0.284972706948432,0.678247072566275,1.00015647104045,1500,1,0.585333333333333
"eps2[12]",0.0399055164934408,0.316798871177351,-0.568740463670189,-0.181809562690882,0.0426505248283665,0.256995652263575,0.653753031982447,0.999323486716436,1500,1,0.555333333333333
"eps2[13]",0.00599973151448417,0.313873083481764,-0.624459066513046,-0.195914795653812,0.0135982282778751,0.212757474657991,0.630869093637949,0.999716103314611,1500,1,0.512666666666667
"eps2[14]",-0.0760952924820897,0.31739606384249,-0.687454101518842,-0.292976611494999,-0.0856763635300437,0.127492124116217,0.571857088846671,1.00020255749501,1500,1,0.605333333333333
"eps2[15]",0.168679825738433,0.3152387604098,-0.490829776493715,-0.0421611384164458,0.166378647159969,0.395309340590867,0.749589237128063,1.00208437305737,1500,1,0.708
"eps2[16]",0.0429692188263327,0.312957914931129,-0.566578593854083,-0.1744632373202,0.0435940473740157,0.256882903192323,0.648141928135958,1.00065356010274,1500,1,0.549333333333333
"eps2[17]",-0.186884922388998,0.310229289652052,-0.79019574479359,-0.405548478541703,-0.186830675698278,0.0231698019763495,0.430023341282433,1.00038360264787,1500,1,0.728
"eps2[18]",0.0202167656752534,0.320718143584167,-0.607582481590077,-0.183900577118467,0.0179644545997005,0.236035822616069,0.633817397476126,0.999468425229202,1500,1,0.529333333333333
"eps2[19]",-0.0524113853162243,0.311470641391273,-0.67252345079043,-0.267112334414378,-0.0415197874734027,0.167693352301769,0.521017970637295,1.00232601991355,818,1,0.554666666666667
"eps2[20]",0.0787990317886472,0.312258892237553,-0.554155215713404,-0.123241899665453,0.0729156651335725,0.290705906713827,0.687457091253176,0.999354423104049,1500,1,0.598666666666667
"eps2[21]",0.143623442645676,0.3019175504237,-0.419989333947108,-0.0611271678169394,0.136423072144098,0.349051157777453,0.750696548856305,1.00052761970633,1446,1,0.687333333333333
"eps2[22]",-0.0213531537154578,0.321880396953989,-0.680726700655527,-0.229237926516079,-0.0196409954003612,0.198413859334931,0.593777913777213,0.999084602950793,1500,1,0.530666666666667
"eps2[23]",0.0365247377934968,0.308145206397202,-0.58402638953068,-0.174922754049981,0.0344787988992833,0.254463217907026,0.625082046756688,1.00039228586559,1500,1,0.542666666666667
"eps2[24]",0.0195209135617575,0.309397433793109,-0.578122172787625,-0.191955684259692,0.0165028875226322,0.216933967739832,0.644538485350761,0.999412757504465,1500,1,0.526666666666667
"eps2[25]",-0.0128386872199378,0.32222255339221,-0.645254057715028,-0.225373951397267,-0.0175937860085048,0.20674794128086,0.60194401650613,1.00017189246521,1500,1,0.519333333333333
"eps2[26]",-0.0760112397042584,0.324706350194491,-0.725908311674738,-0.293399304757839,-0.0784624129568942,0.148181665452752,0.556089845230697,1.00122565103545,1500,1,0.592666666666667
"eps2[27]",0.305803448594777,0.315972249390408,-0.30299640878103,0.0967981483866042,0.314890029893962,0.528292881313431,0.895194487220491,1.00073792434335,1500,1,0.826666666666667
"eps2[28]",-0.0579339598790943,0.31745264746986,-0.687376150151899,-0.267759961747354,-0.0428939921995291,0.158627481803594,0.541075401214729,0.999748978105911,1500,1,0.557333333333333
"eps2[29]",-0.00099016555525249,0.313590453064149,-0.598763228813112,-0.21040047824756,-0.00423886623645497,0.204817435514175,0.619728298291289,1.00093910642496,1240,1,0.506
"eps2[30]",0.0374901018157564,0.310296625631601,-0.540937603406817,-0.191517344675114,0.0462888156104702,0.25668531182904,0.635018314393443,1.00271729919447,1500,1,0.555333333333333
"eps2[31]",0.00789257979426048,0.308304837828072,-0.60948227465878,-0.202098793049201,0.0149367152392677,0.21069656325875,0.597483417182503,0.999839094496699,1500,1,0.514
"eps2[32]",-0.0154082430470469,0.311586004905118,-0.638433410131124,-0.226050545295368,-0.011063460675684,0.198606376025875,0.572576858751734,1.00147979709698,1427,1,0.514666666666667
"eps2[33]",0.0763447463520869,0.313948625764218,-0.539913004336516,-0.136633773616771,0.0783196234971783,0.292380548746782,0.690493799356165,1.00105918714303,1005,1,0.590666666666667
"eps2[34]",-0.0202183685630794,0.323098800641444,-0.615536303828865,-0.250163292244953,-0.0217064507731603,0.196266610228182,0.617175510596063,1.00034955711612,1500,1,0.524
"eps2[35]",-0.0406609458272847,0.323489218807253,-0.691987783303561,-0.248616484203237,-0.031155243855176,0.173836133146936,0.596342671476034,1.00003271650978,1500,1,0.544666666666667
"eps2[36]",0.0375197302183204,0.3134222349495,-0.556453462585468,-0.180697294364338,0.0328259090845154,0.249227372299555,0.661963171178388,1.00053343712318,1500,1,0.538
"eps2[37]",0.0109331708589492,0.312665717775898,-0.589003978234465,-0.202328203017302,0.0197827253892197,0.226145382462509,0.611191227761603,0.999695741825707,1500,1,0.526
"eps2[38]",-0.038322996823129,0.321479826086967,-0.660154183724466,-0.261069879404043,-0.0341279113378242,0.181104302193952,0.589941932946902,0.999968900190423,1500,1,0.543333333333333
"eps2[39]",0.0430130111215741,0.326996985468205,-0.608870970496873,-0.175777036792111,0.0400937248114883,0.256825558099448,0.690503279832892,1.00257904081791,1500,1,0.546666666666667
"eps2[40]",-0.0586017306659659,0.309381330459394,-0.648766916643071,-0.268214899291892,-0.0622265429078483,0.14878685084244,0.562819045492307,1.00128138788619,1500,1,0.575333333333333
"eps2[41]",0.0396087778467463,0.317846031099008,-0.56005287934751,-0.184561469919121,0.0488097132789015,0.255940005977819,0.663239430194484,1.0006077245771,1500,1,0.563333333333333
"eps2[42]",0.069049439382093,0.320359201930852,-0.552015635462645,-0.153999958713642,0.0678710494438114,0.294811547011514,0.701653346456162,0.999757166251466,1500,1,0.580666666666667
"eps2[43]",-0.0190065973473188,0.308371713517911,-0.594677567618876,-0.235082364722485,-0.0262439095414052,0.183908001830116,0.604331575979277,1.00117598654776,1326,1,0.533333333333333
"eps2[44]",0.0715871420538288,0.317336740024448,-0.540399040227999,-0.142969824575324,0.0835802471898299,0.279159724850423,0.703205244251012,1.00098651751968,1500,1,0.586666666666667
"eps2[45]",0.059855645148303,0.315145389362953,-0.576430301949225,-0.149955756335059,0.0592055326217356,0.274320697880498,0.665093785006387,1.00059664450634,1500,1,0.574666666666667
"eps2[46]",0.273445257647179,0.320261992729135,-0.384217996395787,0.0624119485904352,0.281935704887827,0.486780371164313,0.898795732017938,1.00776435654949,255,1,0.812
"eps2[47]",0.00189786449989617,0.314661937591418,-0.567355317783437,-0.22222094981875,0.00317007002430722,0.220679437110741,0.594595679996546,0.999491515935381,1500,1,0.506666666666667
"eps2[48]",0.149324128597699,0.319890673290941,-0.469307999583664,-0.0644442894048238,0.14522848641822,0.365189111765037,0.767130056343588,0.999532009083094,1500,1,0.682
"eps2[49]",-0.09121800524217,0.310232901805416,-0.665127848551645,-0.299914987524492,-0.0917562493353285,0.107817797046287,0.541246614419373,1.00138237044263,911,1,0.62
"eps2[50]",0.0714567535382476,0.309580925119904,-0.554426569123659,-0.13029015076031,0.0746928352793689,0.274289079865929,0.668304252863199,0.999362078869095,1500,1,0.600666666666667
"eps2[51]",-0.0289666857189454,0.316400347908744,-0.6615631139744,-0.246682798413615,-0.0198670932530176,0.192951118701639,0.570326639120252,0.999856697164852,1500,1,0.523333333333333
"eps2[52]",0.0719486851387729,0.30761062066329,-0.521192406160251,-0.139676662442628,0.0800759366127289,0.279575822934917,0.673556219354998,1.00045440139286,1500,1,0.589333333333333
"eps2[53]",0.00368013258210551,0.311687609677257,-0.626400151337604,-0.197713591898888,0.00966356427402599,0.203720306162044,0.622163761709685,0.999461862323833,1500,1,0.519333333333333
"eps2[54]",0.0540618421784716,0.313485389892134,-0.54781183602279,-0.162508284184187,0.0527148752487827,0.269950787761415,0.673740030805828,1.0003235723651,1500,1,0.573333333333333
"eps2[55]",0.124945054165401,0.317562378879655,-0.514262945818434,-0.0884863566650335,0.124812078162777,0.345145068280831,0.724662256468556,1.00083362933557,1129,1,0.665333333333333
"eps2[56]",0.107771238017743,0.312621769840959,-0.471486029685767,-0.112792191331889,0.106023141309194,0.318564413998379,0.728406870370589,1.00031859518472,1500,1,0.619333333333333
"eps2[57]",0.200733081468775,0.30994610291277,-0.414515516599772,0.00140306640228696,0.201764475101806,0.403450718258481,0.80307886488459,1.00065606130472,1500,1,0.751333333333333
"eps2[58]",0.0726198820303487,0.313362502129958,-0.553884259338001,-0.13609100015559,0.0698310034774521,0.279579503870547,0.669911438304642,1.00030416308015,1500,1,0.591333333333333
"eps2[59]",0.0386366843960108,0.314278470988022,-0.58228555602664,-0.165773899519069,0.0254863352461124,0.24717342931742,0.675623903536126,1.00042019912872,1500,1,0.545333333333333
"eps2[60]",0.0169952467418279,0.314871168952538,-0.589331044146626,-0.198692274590619,0.0143340578148001,0.232848484383482,0.622006136301293,0.999381771130497,1500,1,0.518
"eps2[61]",-0.0442494361999998,0.321092642083375,-0.63467498617821,-0.278306794349757,-0.0512262237673061,0.163781124201209,0.613055288752935,1.00009735508954,1500,1,0.564
"eps2[62]",0.00564077733676761,0.321494741118584,-0.631487596559747,-0.202870900347731,0.0168336679661462,0.216423299194344,0.610569663312898,1.00013303730331,1500,1,0.518666666666667
"eps2[63]",0.0133187954812932,0.31670668744455,-0.61721475586072,-0.188223417414758,0.0171860072543928,0.22462114031959,0.617353976259116,1.00245362808873,929,1,0.52
"eps2[64]",-0.0593977752192459,0.307183630411841,-0.666897808253931,-0.2680081576812,-0.0518267460692076,0.155193349315749,0.539864758120773,1.00050725856802,1500,1,0.572
"eps2[65]",-0.0127488551938905,0.312391166488499,-0.611456517209264,-0.210442558298408,-0.0109323844790905,0.193233326341919,0.607790339230019,1.00272158018045,663,1,0.509333333333333
"eps2[66]",-0.0559315488957279,0.310781066384372,-0.674138065538499,-0.267622430642994,-0.0551451847243131,0.150145558009251,0.565074214933131,1.0000943314872,1500,1,0.566
"eps2[67]",-0.0258224330573945,0.314909084906034,-0.646325021342493,-0.245461471296221,-0.0349576993110845,0.192072420737088,0.577801583475183,1.00311906411801,560,1,0.539333333333333
"eps2[68]",0.0560960889845857,0.318794928948213,-0.578813664520516,-0.164345092266708,0.0555761616263717,0.279658586763957,0.660938835439382,1.00161649029796,1500,1,0.569333333333333
"eps2[69]",-0.0296010815849559,0.311336384208762,-0.642831668049376,-0.23834505626545,-0.0203265538678909,0.177103210172892,0.566619750286605,1.00012309971412,1500,1,0.532
"eps2[70]",0.0149872007896379,0.304691808235416,-0.594687459541793,-0.176670991306913,0.0104695275196619,0.222050368590354,0.614991521414859,1.00165407142539,1500,1,0.51
"eps2[71]",0.00797348088810837,0.321898280759432,-0.617526850757304,-0.212515475903433,0.00592959459861309,0.230877420267091,0.638597295192174,1.00014759990708,1500,1,0.506666666666667
"eps2[72]",0.00645775585153695,0.309579942933657,-0.594249585514429,-0.20214244603595,0.0171299641081979,0.21349468462951,0.584046205834056,1.00040578187535,1500,1,0.524
"eps2[73]",-0.122024524723987,0.319960434972988,-0.738638550774011,-0.341389365591058,-0.127213453975633,0.0887644337574539,0.527555818460739,0.999970639143334,1500,1,0.66
"eps2[74]",0.0532942385883224,0.312798590136473,-0.550768342955421,-0.151448795170747,0.0497971026240861,0.264057338784971,0.701878941623407,1.00288954081725,1500,1,0.568666666666667
"eps2[75]",0.0966137059289039,0.306240315932826,-0.499070225632495,-0.12159418437405,0.0951477501421734,0.310458151498302,0.694046415636829,1.00293387857178,696,1,0.612
"eps2[76]",0.00533168800738409,0.315017024952878,-0.594545736385774,-0.206234540890201,0.00753825390453936,0.211690147391306,0.601897817141557,0.999610540577376,1500,1,0.51
"eps2[77]",0.0203196782785201,0.316976575371809,-0.607165837424099,-0.188917153209394,0.0159166625673235,0.236713648570201,0.643475279852213,1.00095906499246,1500,1,0.518
"eps2[78]",-0.163357753352576,0.312491701486175,-0.782943020767007,-0.378636045414111,-0.164233807622877,0.0420305097685963,0.430020678955313,1.006456576927,278,1,0.699333333333333
"eps2[79]",-0.0323992795610509,0.317134968436612,-0.642169294640976,-0.255583296444837,-0.0332431066673703,0.195020528424331,0.564537398934485,1.0000372449693,1500,1,0.537333333333333
"eps2[80]",0.0995936568884857,0.318149665399942,-0.529210450156546,-0.106398985595541,0.0950068705286124,0.318397583654273,0.72831567519464,0.999319800545185,1500,1,0.618666666666667
"eps2[81]",-0.0102475851237839,0.310691311498184,-0.636868639845855,-0.215609039064068,-0.00554088003875019,0.199485989174116,0.608055978316758,1.00091010056675,1500,1,0.508
"eps2[82]",0.0147176194209423,0.307973047544176,-0.583715770762618,-0.19693246531395,0.0123336505677849,0.220070633492272,0.607753354299739,1.00486456891739,389,1,0.518666666666667
"eps2[83]",-0.0500552638058673,0.309152465109893,-0.661989763838461,-0.256796354876415,-0.050706605289696,0.168112588153161,0.558044842822517,1.00156177097774,1500,1,0.566666666666667
"eps2[84]",-0.0996631016127985,0.307744802007796,-0.696619991036104,-0.304604394677698,-0.0948108895728085,0.111881148602893,0.497609338936141,0.999657165234857,1500,1,0.627333333333333
"eps2[85]",-0.132714774253374,0.313910788100258,-0.749280157438676,-0.334255845762186,-0.13776097671029,0.0870218026613947,0.478421147392051,1.00052326931366,1500,1,0.674
"eps2[86]",0.0937564223674086,0.317033125558901,-0.520126552470718,-0.130543762718103,0.105341645862514,0.305975369991774,0.709391098589818,1.00034605544838,1500,1,0.621333333333333
"eps2[87]",0.0139419013612139,0.323525713635069,-0.640540679451003,-0.193082049952361,0.0186672153721577,0.229043076666297,0.645133927092684,1.00565707296077,345,1,0.526
"eps2[88]",0.0106426366246587,0.318479153677691,-0.621154702153835,-0.183760559638786,0.00697649054896159,0.216354109227607,0.639450118970477,0.999610974127943,1500,1,0.513333333333333
"eps2[89]",0.0913169172557012,0.315044831433271,-0.528175470091817,-0.1242961046704,0.0975118674983852,0.300053717761483,0.702271199535382,1.00347699314181,493,1,0.615333333333333
"eps2[90]",0.00504081074157182,0.315981873355201,-0.618088362999365,-0.206407789511733,-0.00161339052340026,0.229948682574702,0.604831104977112,1.0003922194001,1500,1,0.498
"eps2[91]",0.0431355864668509,0.323054988570782,-0.57319819094516,-0.177223416131369,0.0489259540444548,0.253313015509515,0.693566879364493,1.00057785604161,1500,1,0.562
"eps2[92]",-0.0642374314181486,0.334523540408871,-0.736364804571516,-0.29012545628505,-0.0585300856143188,0.156622044030232,0.567651006735809,1.00112707312262,1500,1,0.576666666666667
"eps2[93]",0.0340221571329728,0.317190936623877,-0.58839485847475,-0.167973591665938,0.0360729932511287,0.245767951908278,0.666448079495002,0.999874309310158,1500,1,0.543333333333333
"eps2[94]",-0.0368403053324314,0.317337232428061,-0.672493036943036,-0.237850492396907,-0.035546953801006,0.176194609146913,0.592234733751942,1.003650087213,445,1,0.546666666666667
"eps2[95]",0.0197998001081893,0.310434895085595,-0.605357514866426,-0.18835762491131,0.0230717361234559,0.233956897949429,0.606696949147972,0.999964134215455,1500,1,0.533333333333333
"eps2[96]",0.113762939109233,0.310284356647739,-0.452339162255022,-0.110930629450768,0.10964326775194,0.32118565342599,0.741947380322599,0.999363017961346,1500,1,0.631333333333333
"eps2[97]",-0.170055381509065,0.314636045821735,-0.803160639674254,-0.37991242133027,-0.170288227034424,0.0429041906706187,0.431045295607869,1.00339388270568,526,1,0.707333333333333
"eps2[98]",0.0648187666859342,0.31507499150699,-0.561177377257303,-0.155092304371357,0.0630369364291849,0.290305475084033,0.678206327428697,1.00031810837127,1500,1,0.575333333333333
"eps2[99]",-0.0501085217177182,0.301604769025964,-0.640033844855901,-0.248764505023941,-0.0554545219808331,0.148462370551537,0.543622138953934,0.999804814962627,1500,1,0.574666666666667
"eps2[100]",-0.0519221982584538,0.315204823025147,-0.654885033485792,-0.264462688468263,-0.0374826788478344,0.152158395175993,0.570190335940232,0.999548714246107,1500,1,0.559333333333333
"eps2[101]",0.0119209318284024,0.316932966012608,-0.598910830119612,-0.215060771691086,0.00890258361115095,0.240238425895603,0.611903011826881,1.0004442700329,1500,1,0.514666666666667
"eps2[102]",0.0838650586628171,0.31675813833047,-0.523260462741581,-0.131941375588242,0.0796115647139138,0.294355237389165,0.734040996079364,0.999749024815139,1500,1,0.589333333333333
"eps2[103]",-0.133334515586397,0.314042808387797,-0.768920940875153,-0.334427245680153,-0.130899675189731,0.0831548451199589,0.471809800124913,0.999785957628684,1500,1,0.663333333333333
"eps2[104]",-0.0256123489580776,0.323314678924978,-0.648807473585149,-0.244079421498449,-0.0271587269958391,0.185177417780467,0.615953416051754,1.00168287541564,1043,1,0.532
"eps2[105]",-0.185896583431631,0.320632660461224,-0.812135739594545,-0.403086816580577,-0.185074429182638,0.0366341057873596,0.437322141748314,1.00132112014604,1350,1,0.717333333333333
"eps2[106]",-0.0262884486851443,0.314529071101193,-0.625438922475699,-0.237016959867334,-0.0163755111889385,0.1941900336449,0.5794362525187,1.00158450117143,1122,1,0.524
"eps2[107]",-0.0259684302781424,0.324650833850758,-0.657664170361215,-0.250314183842405,-0.0219003956099319,0.190668158575165,0.602941911972886,1.00181927509295,774,1,0.520666666666667
"eps2[108]",-0.00296069531076398,0.313091348548322,-0.587518540841745,-0.21941906155652,-0.0133343003178761,0.204732886011773,0.619286754014064,0.999129574330631,1500,1,0.514666666666667
"eps2[109]",-0.0726533333953244,0.318163467947969,-0.683481710881236,-0.293613951134333,-0.0637867950463752,0.143323417068423,0.529555831175014,0.999971519127578,1500,1,0.586666666666667
"eps2[110]",-0.0260442963082952,0.3140690228075,-0.634903104251138,-0.241361228800978,-0.023255249538739,0.189086592806775,0.573124713551172,1.00150334735369,997,1,0.527333333333333
"eps2[111]",-0.0960441170694887,0.320191086166227,-0.700792575694038,-0.314915627610868,-0.0895713736108217,0.109915798500068,0.525875656496138,1.00275404837109,596,1,0.612
"eps2[112]",0.0578406522475442,0.321671353313849,-0.557726543638902,-0.158476677988068,0.0572201189772319,0.271115819826437,0.710184887937374,1.00022559157237,1500,1,0.584
"eps2[113]",-0.0141830962231348,0.317815932612105,-0.63327273478887,-0.229774867774536,-0.0192171672052171,0.207261672537301,0.585660953096686,1.00014474487244,1500,1,0.53
"eps2[114]",-0.00657397690215358,0.313596580632375,-0.636457017180364,-0.209117408653067,0.00231282618971854,0.215955652380495,0.599047876843477,1.00147371330501,1500,1,0.496666666666667
"eps2[115]",-0.0466900851930858,0.315817965247792,-0.63564739564423,-0.274242200603414,-0.0500018862659639,0.174946810328373,0.572401986252876,1.00068196145725,1500,1,0.555333333333333
"eps2[116]",-0.0999010684635694,0.31225090607884,-0.667533008486973,-0.319365643972694,-0.103586663718464,0.117937782409152,0.508838049366,1.00089177728671,1500,1,0.618666666666667
"eps2[117]",-0.00120227853582051,0.321409568621702,-0.63551807433857,-0.210875349767774,0.000745362429215721,0.198280189833443,0.670982946555298,1.00066081502319,1500,1,0.499333333333333
"eps2[118]",0.0471200658058248,0.317869667653834,-0.565816801291986,-0.165675374319229,0.0435718994676711,0.269189192105829,0.659586660779236,1.00272652028744,668,1,0.552
"eps2[119]",0.062467267466015,0.324159949394765,-0.558456191269844,-0.158049066905055,0.0735382585480351,0.286115190325546,0.69158997708601,1.00044390535674,1500,1,0.579333333333333
"eps2[120]",-0.0685448312979529,0.314254680362988,-0.689210063059693,-0.279570434098974,-0.0527832089268998,0.130933494649809,0.527004858595851,0.99941420949818,1500,1,0.574666666666667
"eps2[121]",0.0101059521300351,0.318927202763546,-0.63866322864859,-0.200176957023019,0.0175212023272321,0.22249839613574,0.601232650987685,0.999999643137939,1500,1,0.526666666666667
"eps2[122]",0.0679152329585911,0.314631236975643,-0.540084631957575,-0.143408322207033,0.0726166744307359,0.283463727484216,0.672297437023244,1.00188453927155,1500,1,0.584666666666667
"eps2[123]",-0.00459609886174295,0.323022156135195,-0.629248946147334,-0.224172296104425,-0.0142682486406047,0.221241542726557,0.620256633382236,1.00411300637453,402,1,0.516
"eps2[124]",0.0195478652609061,0.319672253364982,-0.584296483293281,-0.203019050622429,0.0163784324510554,0.232858617719644,0.669302372058657,1.00094721988202,1300,1,0.522
"eps2[125]",0.0911517306381369,0.322329690885067,-0.564184468666381,-0.129715274138579,0.100170073744501,0.322343256652655,0.693167389613629,0.99946370605851,1500,1,0.618
"eps2[126]",-0.000866419126839793,0.313964911400063,-0.592341847204388,-0.205469059108936,-0.0104525727580987,0.204635388248756,0.641919384981382,1.00332407279823,756,1,0.514
"eps2[127]",-0.050379000772651,0.301074171807371,-0.654670204320444,-0.243274322279894,-0.0463363482222806,0.146134921315172,0.540935563124798,1.00052184603799,1500,1,0.562
"eps2[128]",0.0219105675931329,0.316940346964396,-0.570102458345902,-0.19249360963345,0.0202113948124555,0.235014309211857,0.619793902313616,0.999860802543926,1500,1,0.527333333333333
"eps2[129]",-0.0976128744297853,0.315268912988842,-0.73774109315948,-0.30792782589326,-0.093002771050914,0.112416485289563,0.524126737509661,1.00058945924342,1293,1,0.612666666666667
"eps2[130]",0.0283593223518941,0.311824547803497,-0.587655816677222,-0.17863929651195,0.0261605798893246,0.253843565362465,0.626283771774588,1.00664631623772,279,1,0.53
"eps2[131]",0.0858332409307295,0.31134502769874,-0.513375856714543,-0.121669854063222,0.0842999770124881,0.299625670848365,0.697950329441998,1.01232552707856,177,1,0.608666666666667
"eps2[132]",0.0290965749620182,0.313514037969669,-0.586810335253313,-0.182990919364923,0.0260388022342285,0.240445887214098,0.615891923579004,1.00000799721794,1500,1,0.530666666666667
"eps2[133]",0.0840525544206643,0.325471716758619,-0.560822425987576,-0.140276065081528,0.0765782738108604,0.304871053563814,0.747779153052719,1.0016122741097,1500,1,0.598666666666667
"eps2[134]",0.0241543843133531,0.313490151699381,-0.595839110115565,-0.188749628970062,0.0287497225188382,0.231962404911313,0.622925830055193,1.00002105164115,1500,1,0.538
"eps2[135]",-0.141647372450558,0.320752814086313,-0.754736156456304,-0.361075845205547,-0.139018789603262,0.0751337527692159,0.4822985441724,0.99937722369834,1500,1,0.661333333333333
"eps2[136]",-0.0146993027283119,0.320483046060759,-0.647066593665546,-0.22185107418537,-0.015815805082195,0.214002396329314,0.593529970351599,1.00395565478898,776,1,0.516666666666667
"eps2[137]",-0.0918418195657798,0.311751526240057,-0.711998054544246,-0.29567143087763,-0.0973655619011035,0.115155622276062,0.537229729363698,0.999899258685143,1500,1,0.624
"eps2[138]",0.121397223429441,0.311240207519538,-0.517568391383585,-0.0747467277701288,0.122236355115402,0.332583790818991,0.728555555746589,1.00141395856694,1500,1,0.656666666666667
"eps2[139]",-0.0177805418068839,0.320400591260428,-0.673896148532956,-0.228577728004364,-0.0185916225500484,0.203127381182784,0.605874768084624,1.00026926328586,1500,1,0.516666666666667
"eps2[140]",-0.116585738830856,0.318685079812111,-0.753096211306909,-0.327587652775679,-0.113355058268475,0.0992537715052097,0.481380908141741,1.00025294769157,1500,1,0.636666666666667
"eps2[141]",0.0151344072794543,0.314754668982786,-0.57520353840787,-0.203428641628414,0.0112568067280107,0.22806496335195,0.651976679146706,0.999495887646376,1500,1,0.515333333333333
"eps2[142]",-0.0095156692236544,0.31219885168443,-0.612342015527056,-0.224864561667741,-0.00528164168396417,0.192742324165694,0.59223260567554,1.0040141940468,530,1,0.504666666666667
"eps2[143]",-0.0880483674652349,0.310928892061842,-0.711980391666037,-0.298179898044338,-0.0887529672280056,0.134207312249266,0.515294406212683,0.999784214777055,1500,1,0.596
"eps2[144]",0.0324210252170575,0.316496183325725,-0.583619630537403,-0.180200114722031,0.0249155625782283,0.234517968467632,0.656884563207583,1.00170565369004,1500,1,0.538666666666667
"eps2[145]",0.008125633368044,0.320963004759967,-0.617476908326504,-0.206585569712105,0.0142113657745062,0.22374513910229,0.634768587781784,1.00005213062531,1500,1,0.519333333333333
"eps2[146]",0.0541644422838457,0.31234771634878,-0.573993361177399,-0.154384994790542,0.0572749708050987,0.264012520074488,0.665400491108039,1.0006251233328,1500,1,0.569333333333333
"eps2[147]",-0.0100689631930172,0.313145169094447,-0.612978171349107,-0.228490589497428,-0.0138387728860665,0.204652755058867,0.594833602562758,1.00017779826784,1500,1,0.518
"eps2[148]",-0.00743155343513861,0.322735463358001,-0.6380729491594,-0.225496075192463,-0.00643182346682608,0.207733492481488,0.622563411923635,1.00124466714993,1072,1,0.506666666666667
"eps2[149]",0.0214003207224416,0.320978939763866,-0.622228640073453,-0.199628251136726,0.0223149147175102,0.244180178978821,0.643646094057657,0.99967378763752,1500,1,0.535333333333333
"eps2[150]",-0.00905495301234319,0.318703962494728,-0.668331752006833,-0.216539562929454,-0.0118220310757633,0.216046066114132,0.604914855814502,1.00107027615944,976,1,0.516666666666667
"eps2[151]",0.00943302950170073,0.326012234996369,-0.660011764582351,-0.20742427707807,0.0220564501640889,0.216800279202088,0.632783464472196,1.00113641381128,1132,1,0.520666666666667
"eps2[152]",-0.0586840943215148,0.309881173575819,-0.649201979589452,-0.264266000682734,-0.0701472991097599,0.150988399575011,0.549822841792314,1.00370799863684,729,1,0.576
"eps2[153]",-0.0422683204508654,0.317288801615889,-0.658464607646392,-0.258692903476521,-0.0477585562596337,0.173582735448512,0.580545699712852,0.999479959913401,1500,1,0.562
"eps2[154]",-0.0422185402694267,0.318546898967739,-0.669743299361925,-0.249138228674424,-0.0407841877411112,0.162217498367191,0.579336847247526,1.00110492487872,1500,1,0.56
"eps2[155]",-0.113992978802779,0.318179022045521,-0.746635896354694,-0.319819346004328,-0.109064534686462,0.0951889610398973,0.508590385463302,1.0025178320387,631,1,0.637333333333333
"eps2[156]",0.012806724567202,0.314766080467226,-0.595625601539986,-0.208312675703967,0.00992036265423963,0.224548743397566,0.640096546758757,1.00117353871014,944,1,0.510666666666667
"eps2[157]",-0.0342302590715773,0.315406239980674,-0.667454873730946,-0.239095407066133,-0.0346891011574768,0.168668133120292,0.588726871438114,1.00126541913798,1480,1,0.541333333333333
"eps2[158]",0.0331382764226889,0.316049545056045,-0.574158456719809,-0.190254132655999,0.0318439084622478,0.244491786842311,0.664568695045054,0.999789967943029,1500,1,0.534666666666667
"eps2[159]",-0.000996110619804576,0.306018217789907,-0.590018724104166,-0.214583365554616,-0.000396883572444134,0.200185749527509,0.602126622720169,1.00017421570463,1500,1,0.501333333333333
"eps2[160]",-0.068898508213998,0.322432116414923,-0.715021295568084,-0.269784806859495,-0.0636471914279015,0.147422096096482,0.540215325976634,1.00154292171366,1500,1,0.579333333333333
"eps2[161]",-0.0798959841127615,0.316193402229353,-0.678472876296041,-0.304412952736852,-0.0759575232880007,0.134861401115846,0.540120692617472,0.999668831105956,1500,1,0.582666666666667
"eps2[162]",-0.132297537250194,0.306059126714737,-0.744561684968587,-0.334516579448527,-0.137003404882484,0.0706193242742251,0.50445190539064,1.00058406004264,1458,1,0.668
"eps2[163]",-0.000766347634338607,0.317245392819742,-0.627068395630912,-0.209312805121607,-0.000339909968159802,0.208255770486641,0.618615800037888,1.00045922429407,1500,1,0.501333333333333
"eps2[164]",-0.0862113547008867,0.318868342252481,-0.715988561513012,-0.305106075811363,-0.0920952754969919,0.12964614468948,0.554344315381404,1.00245861470773,592,1,0.604666666666667
"eps2[165]",0.0378855181038401,0.313805963681087,-0.556397476521357,-0.165583247005552,0.0265253063098241,0.240601318068449,0.692787455068096,1.00101384798084,1500,1,0.541333333333333
"eps2[166]",-0.00835246267296141,0.311995087159026,-0.631161516603365,-0.216548638446754,0.00261267766266446,0.20280928887709,0.570861308318151,1.00179381472652,1340,1,0.496
"eps2[167]",-0.120673398525112,0.315669178007319,-0.718899800411544,-0.3372034783269,-0.121341092961405,0.100816396325025,0.498676928107417,0.999611592472828,1500,1,0.641333333333333
"eps2[168]",-0.0332041280217634,0.313521073050451,-0.618079877216049,-0.252781068098089,-0.0338401365273411,0.184861661640078,0.559135482565056,1.00014062360921,1500,1,0.55
"eps2[169]",-0.0120210874900294,0.318861228783143,-0.614114012203011,-0.223239057962569,-0.0104858273216946,0.200627027214412,0.593374514390794,1.00070883297263,1500,1,0.51
"eps2[170]",0.00689849801386619,0.313075871062844,-0.596706191973116,-0.188997426621067,0.00374225378544466,0.215130104418742,0.608512473347372,1.00168724335268,935,1,0.508
"eps2[171]",0.0399472503314665,0.318767186235189,-0.557403395382116,-0.190138136551764,0.0413127064284972,0.258039868326947,0.665671612673759,1.00030609714364,1500,1,0.550666666666667
"eps2[172]",-0.0351072278436552,0.313834631867283,-0.676924040543957,-0.242859445944443,-0.0312157732149686,0.168324887326614,0.593708900556784,0.999663278009862,1500,1,0.54
"eps2[173]",0.00789880143199061,0.316979018771078,-0.625628963880143,-0.211054264659246,0.0155202929924456,0.214335354755816,0.620042411509062,1.00060010289437,1500,1,0.518666666666667
"eps2[174]",0.0338810221683416,0.320097299408918,-0.55448563685588,-0.189950894066772,0.0293668739900375,0.251658302436005,0.656734687928583,1.0014286801122,1118,1,0.537333333333333
"eps2[175]",-0.0926450409798098,0.309408430211882,-0.715597170050763,-0.286472017114166,-0.0967660072356962,0.120008730711684,0.50965767428702,0.99983828494345,1500,1,0.623333333333333
"eps2[176]",-0.0388455474830357,0.31277437673726,-0.692464470915965,-0.243361361897088,-0.0331532569610147,0.166891319170181,0.563165021725719,1.00171967753486,1012,1,0.550666666666667
"eps2[177]",-0.0418074457545018,0.316855294430096,-0.663766562517604,-0.262260592818911,-0.0372451887312175,0.165186434802979,0.596520001903827,0.999686860157485,1500,1,0.547333333333333
"eps2[178]",-0.0127639796054571,0.321631044246043,-0.675246900377972,-0.229467911869825,-0.00309951503837948,0.194831763879543,0.594284220375073,1.00143396035789,1500,1,0.506
"eps2[179]",-0.00209464736138191,0.317048375142821,-0.632703699465436,-0.212428504816761,0.0163512465208816,0.211671227638517,0.586054434321763,1.00762771206846,244,1,0.482666666666667
"eps2[180]",-0.00719138972244521,0.315470007023552,-0.622104195860269,-0.215558517043736,-0.0122786798437761,0.197350467434462,0.618005972299935,1.00328659481223,606,1,0.512
"eps2[181]",-0.00906810286953652,0.320236785797694,-0.637296978284781,-0.224369547620633,-0.000546138202685037,0.21821196244632,0.601545724747107,1.00153845718232,920,1,0.500666666666667
"eps2[182]",-0.0287971583138624,0.312771185900647,-0.666202704331006,-0.227217654542171,-0.027896411083606,0.169935482095422,0.570501683375416,0.999215946271759,1500,1,0.533333333333333
"eps2[183]",-0.0655700178350988,0.310889882810101,-0.671804082701878,-0.27692212087979,-0.0557794728182741,0.140310391566516,0.537044448606401,1.00121471281016,1310,1,0.588
"eps2[184]",-0.0237237277842451,0.313494449604233,-0.630957814179334,-0.236007425826306,-0.0276828667155425,0.177933841442819,0.603676000011028,1.00354918223973,447,1,0.532666666666667
"eps2[185]",0.0104952241236697,0.315491250500848,-0.578670233139667,-0.207413270747864,0.00564747592765097,0.211023749918857,0.632947114039743,1.00044581532626,1500,1,0.510666666666667
"eps2[186]",-0.0178051107908217,0.312602760836415,-0.638318379122401,-0.223243141104268,-0.0198897987550608,0.196983441233289,0.572984589326288,0.99967580293419,1500,1,0.528666666666667
"eps2[187]",-0.00692273654643295,0.312072862081573,-0.598491702865156,-0.223424241481019,-0.00393573031261948,0.202032400113421,0.61757786882491,0.999719849674771,1500,1,0.504666666666667
"eps2[188]",-0.0193256396181358,0.311105147037315,-0.62877677837372,-0.221947925735535,-0.0206074250656642,0.190222462802385,0.594694705842348,1.00157422574016,1500,1,0.529333333333333
"eps2[189]",-0.00133006825207869,0.330979083957895,-0.641516913137076,-0.230601297154032,0.00748162686804493,0.225503717685029,0.647549710339688,0.999533476593304,1500,1,0.49
"eps2[190]",-0.0149341547128979,0.329741638723906,-0.686803902556596,-0.245737626671282,-0.0136432669713789,0.210129947263217,0.633965758186346,0.999364938425276,1500,1,0.518
"eps2[191]",0.0157828357023111,0.312486036030886,-0.596434926567241,-0.197288093812647,0.0246864077656405,0.224549229011296,0.623949557356201,1.00128084826854,949,1,0.522666666666667
"eps2[192]",-0.0550448165155277,0.319026302308604,-0.676236268566448,-0.278985083400161,-0.0370427059995038,0.16791629501807,0.528801408354714,1.00068524298918,1361,1,0.55
"eps2[193]",-0.00863098004328919,0.317298006485956,-0.632292807969402,-0.22945941004572,-0.00390773062585406,0.215387621811545,0.598247727584159,1.00189480237739,1500,1,0.506
"eps2[194]",-0.0304971108297462,0.310801149925634,-0.61679747528745,-0.247289648243162,-0.0302372466817954,0.171755341110694,0.585280830689389,0.99943356119805,1500,1,0.533333333333333
"eps2[195]",-0.0397798476674482,0.319734999561464,-0.680592236116966,-0.256745276095026,-0.0384793712433115,0.185529029386392,0.582650799640377,1.00065530729097,1500,1,0.548
"eps2[196]",-0.0158342728123787,0.31179679885789,-0.606912395007097,-0.235776059077559,-0.0100545342570084,0.195278751706011,0.581536721049993,1.00201612482282,950,1,0.516
"eps2[197]",-0.0295158745833563,0.307234173896253,-0.655146056956928,-0.235058166773665,-0.0232901862263598,0.178615270620283,0.586028085784256,0.999506243634617,1500,1,0.533333333333333
"eps2[198]",-0.0364272632418727,0.315553587310276,-0.648843226292165,-0.247459996780693,-0.0358342750545756,0.177669147635103,0.565443355190732,1.00006821025942,1500,1,0.545333333333333
"eps2[199]",-0.0084314623876785,0.317214752389106,-0.63384236326593,-0.222215725544837,-0.00425216809238097,0.208804143560633,0.608081235481799,1.00033961933221,1500,1,0.506666666666667
"eps2[200]",-0.0720517179591481,0.321239155353074,-0.71755708476128,-0.283349896662151,-0.0749004032312768,0.145151320014441,0.560633063776276,0.999635130910072,1500,1,0.584
"eps2[201]",-0.0522449495320406,0.318381007990653,-0.705749565719424,-0.258630184252744,-0.0663405667753385,0.151712450441405,0.606937030142709,0.999347935171549,1500,1,0.572666666666667
"eps2[202]",-0.0193590774877055,0.320535695356962,-0.664377566519218,-0.226779474327058,-0.0328702162516166,0.199801101583935,0.607610232751335,0.999863197396648,1500,1,0.531333333333333
"eps2[203]",0.0121814237107423,0.305357236072691,-0.60172704884836,-0.193748464367082,0.011636219514486,0.225485589168037,0.603051047464972,1.00208729145185,1162,1,0.511333333333333
"eps2[204]",-0.0524576689663958,0.322717761963861,-0.671660211414449,-0.277016531028269,-0.0627139468208351,0.159953778530461,0.586247686810372,1.00013266450434,1500,1,0.578666666666667
"eps2[205]",-0.0103919802501318,0.308630453246022,-0.626250251943949,-0.207263448384382,-0.00795730426398488,0.188460339836787,0.598027821958906,1.00285812326871,526,1,0.510666666666667
"eps2[206]",0.0298943779295986,0.313964160178445,-0.602669956584409,-0.182088481376617,0.027848446531921,0.244296439854574,0.669566967522947,1.00022124228305,1500,1,0.542
"eps2[207]",-0.00204713622437471,0.316633802503235,-0.617868259942404,-0.210572415267163,0.0008429973541648,0.205985871852127,0.61727143030238,1.00014651766406,1500,1,0.499333333333333
"eps2[208]",0.0363410344274964,0.315975059304316,-0.584398563819317,-0.183457281656717,0.0359758331016338,0.245877850040833,0.649244661166148,1.0002122921765,1500,1,0.544
"eps2[209]",0.0146613369749523,0.31319992046544,-0.580220861529143,-0.198400486593966,0.00797719839923874,0.222567927513191,0.62873003613766,1.00072185311853,1500,1,0.51
"eps2[210]",0.00878646010075323,0.315184216254822,-0.624315836526978,-0.195861093311055,0.0159966514877884,0.215572766198799,0.62055850473181,1.00030577357893,1500,1,0.52
"eps2[211]",-0.0313693165403479,0.315158724966964,-0.629271562681175,-0.256596872505125,-0.0269013506489231,0.188523744070333,0.580988045355825,1.00201043648083,709,1,0.536666666666667
"eps2[212]",0.000356066415232426,0.314820625466098,-0.624652960561407,-0.217236882341561,0.0109413666959189,0.221378966519066,0.59411528266089,1.00012083833694,1500,1,0.514666666666667
"eps2[213]",0.00440944085005905,0.315603465800137,-0.61071807668634,-0.216955903133565,0.0127835702154892,0.219736376411795,0.648839871178769,1.00065684180945,1500,1,0.512666666666667
"eps2[214]",0.00139124235786484,0.323441099499976,-0.651772650145767,-0.218434948978098,0.00358611272290565,0.221122791392842,0.628173992665451,1.00228862153221,631,1,0.504
"eps2[215]",0.0407556099078299,0.326997114757022,-0.59298035632678,-0.17741004295178,0.0454601033919158,0.257240353310296,0.680000018666066,1.00389491372294,575,1,0.555333333333333
"eps2[216]",-0.254163813729573,0.313695406904749,-0.874932525103586,-0.465733499495626,-0.253558656007088,-0.0283424134357848,0.323799764723682,1.00113796646215,1500,1,0.786
"eps2[217]",0.0453013605900588,0.312422710612523,-0.561016886021799,-0.159173699641437,0.0443550254943951,0.255593405936784,0.615759371125824,1.0019448328936,883,1,0.562
"eps2[218]",0.0416517557132492,0.315828681889465,-0.559234239491646,-0.164205319410876,0.0429736356724634,0.242135572594079,0.679939611661537,1.00090899971435,1118,1,0.550666666666667
"eps2[219]",-0.0274951120848664,0.310926555727477,-0.677774347030771,-0.230561270098719,-0.0193604146529649,0.183497231396797,0.555985083124603,1.00207276915298,1348,1,0.527333333333333
"eps2[220]",-0.246636510993887,0.313250590012683,-0.887286838234724,-0.455486163137667,-0.240679189329101,-0.0328161013086399,0.346757935858645,1.00133802583771,1344,1,0.78
"eps2[221]",0.0113200474677982,0.320546434767095,-0.588505576330753,-0.214608543327276,0.0177580879971283,0.216280464257011,0.664364989951872,1.00309763623864,514,1,0.515333333333333
"eps2[222]",-0.0491630880313997,0.309106148108075,-0.663636054225466,-0.244018203271888,-0.0501481631887399,0.159661362102141,0.541426643469869,1.00248200111073,1500,1,0.562666666666667
"eps2[223]",-0.113041926422459,0.325964545823364,-0.761769031640244,-0.33383765845182,-0.106944474417064,0.106828346533068,0.52369647602734,1.00151143210479,849,1,0.631333333333333
"eps2[224]",0.188228602702917,0.303349586303961,-0.43017871207542,-0.00778629854439119,0.191712868681923,0.399707423990805,0.770640174532176,1.00022219214997,1500,1,0.742
"eps2[225]",0.0416503286929602,0.314075269844683,-0.56661697886001,-0.165255616134985,0.044776530972068,0.256162861538791,0.652344790957351,0.999627212284909,1500,1,0.55
"eps2[226]",-0.047277527734799,0.315116338758556,-0.685721292788724,-0.255857762845328,-0.0489514617542346,0.168331949589606,0.558071051150536,0.999499673142839,1500,1,0.557333333333333
"eps2[227]",0.0335615105788967,0.314911564517466,-0.60688853733487,-0.179658576198567,0.0353023911836835,0.264549497981894,0.632865737693759,1.00197028343402,757,1,0.541333333333333
"eps2[228]",-0.10398941456557,0.312371917400659,-0.720563110688136,-0.311577722119494,-0.101245634665423,0.101892735465874,0.49586535408025,0.999542150982715,1500,1,0.622
"eps2[229]",0.0244443532278633,0.307502034683933,-0.589923816757595,-0.178089277920687,0.0160787871043752,0.23085915753433,0.629963465736631,1.00183644061753,1500,1,0.526666666666667
"eps2[230]",0.0496559334394302,0.308320700858951,-0.552448071963061,-0.1569156551991,0.0465606585892341,0.256331244597692,0.665352346156183,1.00256802261377,1107,1,0.559333333333333
"eps2[231]",-0.175542590812779,0.310370038607891,-0.77059929960758,-0.399196974312743,-0.179369535789476,0.0414176051199443,0.412576485865806,0.999679457839222,1500,1,0.711333333333333
"eps2[232]",-0.0109537536016473,0.313272496557515,-0.616297437496572,-0.220085120871347,0.00254964225510769,0.201750885286297,0.577638323339451,1.00059611659784,1475,1,0.498
"eps2[233]",0.0214558906059044,0.318209464402524,-0.600207130917013,-0.187674477702071,0.018070631294667,0.24034321699683,0.633385914450532,0.999732163909807,1500,1,0.52
"eps2[234]",0.00373379856908423,0.316829479290613,-0.615998524132828,-0.207234490010477,0.00304946929926218,0.221951478212098,0.611437098859853,1.00011676887289,1500,1,0.504
"eps2[235]",-0.0829248199194351,0.321721752426492,-0.711183154617846,-0.294726083243829,-0.0802629898078637,0.140392392618826,0.533211043003299,0.999185358646323,1500,1,0.590666666666667
"eps2[236]",-0.068691692555638,0.311558953937138,-0.660154463527589,-0.289255594684597,-0.0683305754161877,0.156314070025583,0.529322510747701,1.00060995708162,1500,1,0.578666666666667
"eps2[237]",0.0677366828825607,0.313043530007022,-0.542703178322032,-0.145523807474612,0.0636046353690821,0.274019926433703,0.671380940105524,1.00072280829246,1181,1,0.576666666666667
"eps2[238]",-0.0615844060668309,0.302633201113636,-0.667905054825213,-0.258664701462963,-0.0575952848633223,0.139891000946706,0.516573055454105,0.999369293823436,1500,1,0.586666666666667
"eps2[239]",0.022852316922851,0.315325168916614,-0.596453706244221,-0.179989669560469,0.0169166958289998,0.229629865081181,0.663245670907809,0.999356166706415,1500,1,0.527333333333333
"eps2[240]",-0.0250852462645062,0.316606862706402,-0.622460133008577,-0.237571932261811,-0.0285638030332658,0.192434442845228,0.578626774970912,0.999776272170122,1500,1,0.532666666666667
"eps2[241]",0.0972612907384765,0.316693834597382,-0.534714098404994,-0.122279523767564,0.0963591494080133,0.304463100716872,0.703907994267363,1.00125830352128,1500,1,0.628666666666667
"eps2[242]",0.0559237222722512,0.311887245937945,-0.535309109328812,-0.169645317694285,0.0628754317286686,0.274407567892518,0.676994865803707,0.999999920230874,1500,1,0.572
"eps2[243]",-0.0104804980420449,0.310809595352521,-0.629623276341707,-0.213076307624139,-0.00696023489691569,0.19059247541172,0.582035267216696,1.00074287436156,1212,1,0.51
"eps2[244]",0.0256464609907871,0.316320575652255,-0.612583539561346,-0.183387495284602,0.0324991887280041,0.239527175560944,0.637029811696356,1.00013096364707,1500,1,0.546
"eps2[245]",-0.0500076149969262,0.313471687865241,-0.685304313988945,-0.266496000826952,-0.0430788348150881,0.160806669122426,0.552937313492521,1.0012106854026,1500,1,0.558
"eps2[246]",0.0321317803540837,0.320264919633072,-0.58608397434483,-0.183786645383097,0.0231414341111946,0.247822205857904,0.66644960392797,1.00104668446763,1491,1,0.534666666666667
"eps2[247]",0.122217300923236,0.311126576963635,-0.480707644543928,-0.0920448177072524,0.119642022441517,0.34286694195167,0.723092590959432,1.00058741219581,1500,1,0.640666666666667
"eps2[248]",-0.00730330087103876,0.321377167166248,-0.636973688052765,-0.218748037003753,-0.0123418755346651,0.213002377089785,0.630902937638311,1.00157400641101,828,1,0.514
"eps2[249]",-0.0513052287104571,0.310916949012144,-0.651538707963313,-0.260180699144012,-0.0587070958132155,0.155483180365681,0.593153899425508,1.00076330494118,1264,1,0.580666666666667
"eps2[250]",0.0796159021840894,0.307697701478144,-0.50450335357014,-0.133127049068924,0.0749400574341548,0.280581953360814,0.711445569185908,1.00112423067671,1500,1,0.592666666666667
"eps2[251]",0.0200755337634985,0.32216333680139,-0.60060239952104,-0.198140208496147,0.0214820146866593,0.22082756461442,0.67089370466645,1.00038350674667,1500,1,0.52
"eps2[252]",0.0895537668753327,0.314684341115589,-0.517087257535731,-0.117324705696031,0.0835037606237614,0.299653195203606,0.735747195052512,1.00023247641134,1500,1,0.603333333333333
"eps2[253]",-0.0295051894588445,0.325699258102921,-0.662149199189865,-0.24759809086469,-0.0246304409467824,0.205695293655808,0.588637107127567,1.00476953030708,484,1,0.525333333333333
"eps2[254]",0.25112614551267,0.319268009259683,-0.384989338615943,0.0344093290561167,0.242496615364677,0.468080813790029,0.888513536766258,1.00799384407711,341,1,0.786666666666667
"eps2[255]",-0.00499733874672526,0.312292320884331,-0.643997740152693,-0.216831973315056,0.00103833718975921,0.205046140395284,0.595216447977102,1.00013665594728,1500,1,0.498666666666667
"eps2[256]",0.0189424311335852,0.310018065922297,-0.59256858409005,-0.187285774780305,0.0311679722296623,0.225729511827907,0.627403643899199,1.00172417367753,755,1,0.536
"eps2[257]",0.117697813779769,0.314071990426587,-0.520996937866008,-0.0860651687030203,0.137511196930573,0.321841468826768,0.735351989277353,1.00075309096145,1240,1,0.655333333333333
"eps2[258]",-0.0488731329746578,0.320299656210274,-0.661964835926922,-0.274037952527843,-0.049399910927449,0.164543823464735,0.579936184726839,1.00080665085554,1323,1,0.558
"eps2[259]",0.0267376713826423,0.320143037381801,-0.605576210933712,-0.188025548504657,0.0173778064363411,0.242016939264388,0.666472696788677,1.00161937898871,1500,1,0.53
"eps2[260]",0.0159416643324455,0.322438649218489,-0.627907310373107,-0.201322060662838,0.0176527511527256,0.231819650517431,0.657903271115909,1.002679627392,838,1,0.527333333333333
"eps2[261]",-0.0123145177178941,0.322351873853694,-0.636729528421766,-0.224863837044032,-0.014647305156397,0.207568128316594,0.605509230403928,1.00112994855722,1500,1,0.519333333333333
"eps2[262]",-0.0343764950054928,0.318196381364406,-0.675205902371302,-0.250688087207102,-0.0274265737530058,0.193412832242516,0.564563716510378,1.00262952428552,560,1,0.538
"eps2[263]",-0.02206762664429,0.313072729228775,-0.657179444517164,-0.227253840344395,-0.0179861200063239,0.190086467453447,0.590195894749177,0.999822215653349,1500,1,0.519333333333333
"eps2[264]",-0.0356033323957693,0.3185229222401,-0.635741402476185,-0.250027433513371,-0.0399773164789414,0.176479145392244,0.605746698599195,1.00341787898446,482,1,0.545333333333333
"eps2[265]",-0.20129432156655,0.313197098370028,-0.823275990294045,-0.413522798823343,-0.198215679547015,0.0194406391984627,0.398457189568264,0.999685507211813,1500,1,0.729333333333333
"eps2[266]",0.021118019135264,0.317921833340987,-0.614978957198656,-0.191546385535961,0.0246822378438306,0.229306233346838,0.629287868915742,0.999668322425886,1500,1,0.526
"eps2[267]",0.0241992702828814,0.312249083288396,-0.568016325204457,-0.177466335988953,0.0179152854030831,0.23480211464315,0.618589424985344,1.000057273863,1500,1,0.526666666666667
"eps2[268]",0.0348681299139065,0.311753329204649,-0.567389731038193,-0.180131798746449,0.0274632007540486,0.256896363366933,0.639765156372793,1.00135471009285,972,1,0.543333333333333
"eps2[269]",0.059382930328971,0.321454950095554,-0.557597414753386,-0.1675958711018,0.0670925912906122,0.2913252923699,0.672103603345676,1.00051683537602,1500,1,0.576666666666667
"eps2[270]",0.0279430331365863,0.311276976578387,-0.565949329705469,-0.192352818205281,0.0278319419723847,0.241822481625512,0.637412482467232,0.999219136687986,1500,1,0.530666666666667
"eps2[271]",0.0038460662045709,0.315107924528436,-0.604923267550383,-0.204434972745405,0.00723144300523669,0.219051925465285,0.593896039225371,1.00413233911217,677,1,0.51
"eps2[272]",0.109690837225096,0.314832390802316,-0.462941305447761,-0.110085449945915,0.111443127479609,0.312293248079456,0.741444677696316,1.00034661604282,1500,1,0.629333333333333
"eps2[273]",0.0606690652799748,0.319965126689111,-0.550983201293481,-0.151284010066373,0.0642480016935534,0.275407951080367,0.675864367950149,1.00048882894238,1500,1,0.579333333333333
"eps2[274]",0.169267302874847,0.3088526554328,-0.44838277645743,-0.0436936950713354,0.1687034604266,0.373951682761649,0.765111671874418,1.00291144441404,612,1,0.714
"eps2[275]",0.0143815707033706,0.315513047127552,-0.598316384509387,-0.205825486396757,0.00872845806687835,0.222120799212004,0.626543656353681,0.999860695670839,1500,1,0.505333333333333
"eps2[276]",-0.178430370567158,0.306216008174709,-0.778004141324872,-0.385572505619306,-0.18664814514506,0.0254299595900328,0.431995647148351,1.00296720367456,578,1,0.723333333333333
"eps2[277]",-0.0217836982498518,0.324497281141396,-0.67467218670508,-0.239194351829815,-0.0284902852219948,0.204159491764809,0.598789740969549,0.999969587343048,1500,1,0.538666666666667
"eps2[278]",-0.0757838082828331,0.319005610131357,-0.68736351752226,-0.287189794513836,-0.0839826675017768,0.134355301109502,0.557191895098624,1.00069586694755,1500,1,0.59
"eps2[279]",-0.090463170752913,0.320983720154846,-0.721076779137398,-0.313396894545082,-0.0874815582464433,0.138369877655053,0.536174534679883,1.0016336208116,797,1,0.604666666666667
"eps2[280]",-0.0455137042554805,0.328084092276848,-0.703557393025524,-0.266303677683579,-0.0434345218095005,0.165936903029079,0.626265431627048,1.00380454590761,436,1,0.560666666666667
"eps2[281]",0.000526423385492748,0.313724164509831,-0.649920545043781,-0.194197909448707,0.00275270617849666,0.207409629078482,0.591629125199798,1.00180654715234,773,1,0.503333333333333
"eps2[282]",-0.105038504267606,0.31924489759052,-0.735978366131975,-0.322615386036941,-0.104144034380468,0.107921600171814,0.5290835192466,1.00012808981763,1500,1,0.628666666666667
"eps2[283]",-0.00310645039059029,0.317381001278604,-0.618506249416486,-0.208682726706276,-0.00499649065574163,0.210860983766362,0.612913459900844,1.0013897891659,849,1,0.508
"eps2[284]",0.00104856050442088,0.315923672975687,-0.616898919644054,-0.202122390497828,0.0106480470792905,0.214276498529547,0.601711393244595,0.999703922378599,1500,1,0.514
"eps2[285]",0.0862628270525031,0.315488055277269,-0.51544650632757,-0.129511333119462,0.0770142268445535,0.296833223894315,0.719217393642566,1.00272408425641,1500,1,0.601333333333333
"eps2[286]",0.0628319392423414,0.315514980877115,-0.575727397382353,-0.149336081061066,0.0704158845899273,0.280084112830472,0.682375323313576,1.00300521947658,1014,1,0.591333333333333
"eps2[287]",0.0149430871936677,0.31228507601752,-0.594194728592676,-0.194313782266877,0.0171661059042431,0.226378656357612,0.616479538913405,0.999440405830915,1500,1,0.518666666666667
"eps2[288]",0.0554598619507948,0.312082922604554,-0.560397944519191,-0.147856413484583,0.0608009760880665,0.263292107113571,0.669362845338086,1.00000043083171,1500,1,0.580666666666667
"eps2[289]",-0.0498963565775986,0.325424316162907,-0.714246857841733,-0.265748391734527,-0.0400845425842055,0.167516499040167,0.567779020478801,1.00030924980621,1500,1,0.556666666666667
"eps2[290]",0.0694531619715528,0.314535194730303,-0.550555631781205,-0.143119767302241,0.0741448456495336,0.282469229960101,0.67323434179784,1.00122032898018,1189,1,0.593333333333333
"eps2[291]",-0.00626584616308923,0.311653962739174,-0.605144107724008,-0.208859518967346,-0.00352846464453911,0.210362007001036,0.571263124956326,0.999211137026489,1500,1,0.506
"eps2[292]",-0.0114228487221682,0.312190547478573,-0.609336123131069,-0.219668135870343,-0.0146080682496371,0.193922874637273,0.617508315627735,1.0006707795052,1500,1,0.524
"eps2[293]",-0.0245971830416714,0.312627698748355,-0.61199749942404,-0.227491498699419,-0.0306745404812055,0.18726863965286,0.576362989725201,1.00062025173346,1500,1,0.538
"eps2[294]",0.0528515894409079,0.309427794805005,-0.561186990756512,-0.14236525996625,0.0584831549339531,0.255751630774639,0.649447217227237,1.00259349541329,783,1,0.576
"eps2[295]",0.0145849497365036,0.324300306342024,-0.620421517926955,-0.210587573663375,0.0149839585741533,0.231521867239201,0.644173101117516,1.00067233092997,1206,1,0.521333333333333
"eps2[296]",0.0106054505011409,0.309653251408125,-0.606148446933439,-0.19596468256003,0.00964341637192336,0.221123020325884,0.607287048547258,1.001072337807,1500,1,0.514
"eps2[297]",0.0167388945400475,0.324009882028221,-0.623353196086683,-0.200224359604191,0.0187199471008709,0.226634003029912,0.672806467068893,1.00138552087424,1500,1,0.524
"eps2[298]",-0.00639179162683022,0.316211400634255,-0.613065738240503,-0.224854754659576,-0.0106125806762729,0.202576938180016,0.624403166805075,0.999525430038257,1500,1,0.514666666666667
"eps2[299]",-0.0789262879008749,0.313341709370104,-0.724659918223995,-0.290980974419299,-0.0744396957872218,0.125091363065079,0.533922646149128,1.000226191344,1500,1,0.602666666666667
"eps2[300]",0.0722171898628449,0.320332801169008,-0.554294786789619,-0.141393914555479,0.0673121162725688,0.280986614885506,0.708225458961322,1.00472711518931,442,1,0.592
"eps2[301]",-0.0376836578288692,0.324931707477313,-0.687004518775164,-0.240887500316264,-0.0283824201161934,0.173882498992229,0.587081661287199,1.00061513804945,1500,1,0.532666666666667
"eps2[302]",-0.0207115229614944,0.322299461902584,-0.649245844131937,-0.245471984369954,-0.00989390607903645,0.201774159021436,0.580487728086165,1.00085482666885,1315,1,0.508
"eps2[303]",0.122480589705588,0.308407518116748,-0.496522403782108,-0.0891016267179551,0.128275667856084,0.338384417099316,0.719261799573869,1.00078010417053,1253,1,0.668
"eps2[304]",0.00263154288741126,0.319584244085039,-0.631472193387275,-0.205437629480078,-0.00686145458307422,0.221205827866528,0.625391899509467,1.00092781255346,1100,1,0.494666666666667
"eps2[305]",-0.00871584947283647,0.314037341044286,-0.62730855274166,-0.214865156391129,-0.00360861546070798,0.186136152637529,0.610603884315378,1.00084988552039,1241,1,0.504
"eps2[306]",-0.0175325435738136,0.314247147077216,-0.640135723019103,-0.226896163856807,-0.0145566583717874,0.19547352253612,0.594723820811031,0.999464118996104,1500,1,0.516
"eps2[307]",0.00744555082611174,0.318645215365753,-0.620998932780487,-0.196363754692462,0.0131156644220898,0.211878929584804,0.623689615572544,0.999412614324104,1500,1,0.513333333333333
"eps2[308]",-0.0986663031099215,0.30786834567928,-0.732021664666755,-0.290759936412794,-0.102299551892643,0.0953757094964567,0.498432629978871,1.0059321258658,300,1,0.628
"eps2[309]",-0.0621714093204684,0.317645213789501,-0.66478155398771,-0.273887251385064,-0.0659945634217829,0.147056785978105,0.575759279100835,0.999983318391052,1500,1,0.578666666666667
"eps2[310]",-0.0165981582919033,0.319944751754985,-0.649372479053326,-0.229292999646254,-0.0139650475987489,0.191163765060016,0.610035969478686,1.00180056217694,738,1,0.525333333333333
"eps2[311]",0.0564509656338395,0.313637920988212,-0.550231090184446,-0.155832905256179,0.0566814266493407,0.257307652752446,0.687177647786197,0.999297467009474,1500,1,0.566666666666667
"eps2[312]",0.000811849603973786,0.310893679523666,-0.581783380133454,-0.20763951955947,-0.00690156637996717,0.197142932214117,0.627139167269728,1.00152344105759,999,1,0.494666666666667
"eps2[313]",0.0111365550157843,0.312114275338498,-0.616352470096056,-0.196611474410361,0.0109629098000286,0.220692915092595,0.599759636179278,1.00131350804875,881,1,0.514
"eps2[314]",0.0248780798649875,0.315071311012779,-0.553830380899262,-0.20144413123683,0.0120819873374255,0.239943458796805,0.651735647972411,1.00172304491199,821,1,0.518
"eps2[315]",0.101196119488064,0.319437189726381,-0.517934297317915,-0.107130602607483,0.0992771426443966,0.3215778989628,0.718953865277169,0.999309461690218,1500,1,0.63
"eps2[316]",-0.0144883782903237,0.320461356752908,-0.652318211767187,-0.231437761757097,-0.0209328875377368,0.207115868003043,0.604753613726519,1.00121183387799,916,1,0.522
"eps2[317]",0.0054431153991944,0.305772089803154,-0.634364254951717,-0.193006541615512,0.0143214074462847,0.215589746022871,0.568513679973944,0.999912605587421,1500,1,0.518
"eps2[318]",-0.0801733233651444,0.304990618964787,-0.692118161126313,-0.279837140315406,-0.0810552540266242,0.126851703692455,0.498058556487025,0.999798362253833,1500,1,0.605333333333333
"eps2[319]",0.0833902502993881,0.315948044980726,-0.517423120395782,-0.134059818360825,0.081301789317537,0.300725849302296,0.694080182839789,1.00145117593267,1500,1,0.606666666666667
"eps2[320]",-0.0398871784813503,0.320373760604558,-0.666280068612282,-0.251787792624597,-0.0308990405117819,0.188289717216296,0.560797418409492,1.00020068012091,1500,1,0.534666666666667
"eps2[321]",0.0312642790282518,0.321474067047187,-0.624158035593351,-0.187229410719297,0.0312854388881785,0.242123950076141,0.676804462323793,1.00101321532053,1500,1,0.534
"eps2[322]",0.0361287371807176,0.307525935037522,-0.577410115611422,-0.172720006785719,0.0394682749989693,0.24611854591538,0.620761567749655,1.00041966120588,1463,1,0.548666666666667
"eps2[323]",0.0448701050389401,0.312154932287505,-0.582952948151043,-0.166427095523322,0.0407432578458655,0.252554060639477,0.642188451555244,0.999963113534443,1500,1,0.550666666666667
"eps2[324]",0.0566396512584307,0.316135569191717,-0.565236032369676,-0.161658503326524,0.0640813463770006,0.272349722802994,0.651899296648196,1.00062864780886,1500,1,0.577333333333333
"eps2[325]",-0.0473467178522139,0.316345795260454,-0.674975701859283,-0.261350571408629,-0.0455636926950235,0.162743738626845,0.568494497278606,0.999961851096473,1500,1,0.554
"eps2[326]",-0.00696951243038697,0.314983974002043,-0.599045573717201,-0.223788739131956,-0.0053655379376169,0.210880499516703,0.610848228033736,1.00006097973434,1500,1,0.504
"eps2[327]",0.0560369988705433,0.324548293576554,-0.560027586725901,-0.165395085453531,0.0582468941424551,0.274252176816276,0.699847553005984,1.00164507846719,1254,1,0.569333333333333
"eps2[328]",0.0549439570410318,0.321668176204544,-0.559139469242546,-0.165707680260934,0.0661443037617054,0.272017733751163,0.681676514482313,1.00134633651474,1500,1,0.567333333333333
"eps2[329]",0.0179546777443704,0.320211595125219,-0.612464911519111,-0.198232761275476,0.0269241530541404,0.233640511984817,0.652540866294119,1.00187027373991,1500,1,0.538
"eps2[330]",0.0501763024336978,0.310580526165402,-0.562856631492445,-0.173263778225434,0.0585860297114248,0.26059386616361,0.637046690458747,0.999554516757659,1500,1,0.564666666666667
"eps2[331]",-0.00206704806577888,0.313675789039339,-0.627310143239538,-0.213550420395278,-0.0114650669161635,0.199380720524436,0.621399688468626,0.999545714678578,1500,1,0.510666666666667
"eps2[332]",0.12636357913632,0.312955404086378,-0.500214420259964,-0.0674899638509363,0.12277265604383,0.331139613274869,0.747955228429607,1.00184295525352,1500,1,0.668
"eps2[333]",0.0182935572960907,0.31936336387657,-0.62201030665435,-0.196338057751463,0.0117294033917861,0.229203268882495,0.645886988944865,1.00061542032686,1500,1,0.520666666666667
"eps2[334]",0.0871918300387794,0.305590443008593,-0.495104141658664,-0.134396915222872,0.0809138947941454,0.294746396040604,0.692219141525826,0.999786330229572,1500,1,0.608
"eps2[335]",0.0161206014101117,0.311793293106396,-0.58858796646262,-0.205755336299265,0.00804880156186907,0.232673093224445,0.621937854362685,0.999897801643863,1500,1,0.513333333333333
"eps2[336]",0.0458585005480585,0.316799651713564,-0.568769717894179,-0.167337996979686,0.0415955268072386,0.26868064185122,0.648055429890226,0.999023818674916,1500,1,0.554
"eps2[337]",-0.106619128104102,0.317592626345197,-0.752559774746947,-0.304524177473077,-0.11672780004001,0.110081898760155,0.534787087375874,1.00201006298121,1307,1,0.635333333333333
"eps2[338]",-0.0533573728314172,0.326928600475619,-0.700397131962418,-0.26489529524055,-0.0533189886573906,0.150297777893485,0.597109933456517,1.00092755600522,1500,1,0.558
"eps2[339]",0.00954030476984794,0.311495717087859,-0.603151077787741,-0.198409902329612,0.0197376485436588,0.214035195195028,0.59365260452275,1.00394052640903,458,1,0.528666666666667
"eps2[340]",-0.0662415959849138,0.310184645392635,-0.650348539946938,-0.26967051877065,-0.0643543504276789,0.144894380648953,0.548912265333061,1.00063866817028,1454,1,0.594
"eps2[341]",0.0784143446682365,0.30933308262427,-0.513682691567996,-0.135537352947906,0.0808541957885004,0.289090022003157,0.68984448718973,0.999289342196975,1500,1,0.594666666666667
"eps2[342]",0.0463446643105968,0.312752504311882,-0.574679422934238,-0.169393120756521,0.045500376854428,0.263767813559739,0.656257407986068,1.00138874954211,1500,1,0.558
"eps2[343]",-0.0418730470452057,0.325122771114423,-0.675781514425129,-0.262700099838847,-0.0447923769337422,0.178126780462342,0.611159267210572,1.00077814280117,1500,1,0.556666666666667
"eps2[344]",-0.0126829681538798,0.31422683632743,-0.62319085585011,-0.221511938673999,-0.0192634016611644,0.200921714977274,0.594333257118968,1.0025083396186,1500,1,0.528666666666667
"eps2[345]",-0.0648284634415226,0.312587650621378,-0.667017790505111,-0.275843437112665,-0.0710233888234742,0.149807005833611,0.553071811982061,1.00088439330363,1500,1,0.582
"eps2[346]",0.0152217635531771,0.313487182069048,-0.574346962808816,-0.208155460207085,0.0158482094551674,0.225188421772027,0.656824565394211,1.0049038680306,403,1,0.520666666666667
"eps2[347]",-0.0221539163817999,0.315849707464148,-0.634117811583656,-0.2394990995933,-0.0141518012707068,0.192442577976156,0.577895233310468,1.00203834552671,1079,1,0.517333333333333
"eps2[348]",-0.0109088798930456,0.316553796715293,-0.614895391438852,-0.236981465683146,-0.0148493595970889,0.210144215841343,0.605969058662723,0.999565136173694,1500,1,0.517333333333333
"eps2[349]",0.0208891326239183,0.321270048313224,-0.594505839471576,-0.206477664304055,0.025796182627619,0.252776274947857,0.642160284271505,0.999989623863351,1500,1,0.532666666666667
"eps2[350]",-0.0605280685707306,0.317208222290606,-0.687755707534145,-0.262390158414789,-0.0566935958517184,0.140172729777762,0.582026975557324,1.00338677889025,827,1,0.570666666666667
"eps2[351]",-0.00815769217977473,0.313672649742684,-0.657040153118627,-0.21249999105474,-0.0123754736689094,0.20026741823011,0.600910703655075,1.0018509948827,829,1,0.514
"eps2[352]",-0.0049928949724441,0.316023510375871,-0.619190986043604,-0.222214821630678,-0.000383062439841667,0.211659282576645,0.609324406780606,1.00285849741819,566,1,0.5
"eps2[353]",-0.0244463232739917,0.309749245572536,-0.661709757503979,-0.219455743203845,-0.0260622701662506,0.182092019499369,0.586516064704534,1.00016165405155,1500,1,0.540666666666667
"eps2[354]",0.00315858289872509,0.334614945438098,-0.660385484073854,-0.226239393982504,-0.00574099007044335,0.230162433589299,0.650102515007656,1.00080483100754,1500,1,0.490666666666667
"eps2[355]",0.00260853569636416,0.312445536874244,-0.596482706235143,-0.214266489894003,0.00814969408110069,0.224649823207487,0.586346257152491,1.00175742503269,1043,1,0.51
"eps2[356]",-0.0476424553204801,0.31977039166814,-0.670326697398657,-0.255071021831298,-0.042052264596872,0.166349763145093,0.597431284506074,0.999806840102205,1500,1,0.556666666666667
"eps2[357]",-0.0280872305300896,0.315493489344439,-0.624001253227334,-0.237147036585128,-0.0310338437545285,0.169547594069196,0.608083469831465,1.00060673389706,1500,1,0.543333333333333
"eps2[358]",0.00185444560424449,0.315030167508752,-0.631126199809858,-0.212575761190491,-0.00206634674668075,0.212776538928623,0.624254225583865,1.0035656119604,450,1,0.498
"eps2[359]",-0.0127474646628569,0.315948515394864,-0.600732062637187,-0.226753053279784,-0.0151010101874573,0.197594780184661,0.612972917863072,0.999523757945094,1500,1,0.520666666666667
"eps2[360]",0.00569221019376723,0.315812989024877,-0.62434024170403,-0.206182821772956,0.00425107801632927,0.212507255268778,0.61631573759864,1.00028492344844,1500,1,0.504666666666667
"eps2[361]",-0.0152429056858932,0.310590344983365,-0.626727637161882,-0.221232309998972,-0.0201504133615348,0.189069850616315,0.564056864466478,1.0014633813346,1500,1,0.521333333333333
"eps2[362]",-0.0140829520609325,0.319943055681631,-0.64949448360323,-0.224304452783034,-0.00399355128892794,0.209275070230589,0.589069594213763,1.00048425749281,1386,1,0.507333333333333
"eps2[363]",-0.0213647090167342,0.322363464300421,-0.635818858711496,-0.235430296699854,-0.0252020557639878,0.19738230683771,0.612974805979211,1.00110771926743,1384,1,0.528
"eps2[364]",-0.0710091447177672,0.318910753838625,-0.720589424577647,-0.283651508650494,-0.0681826835845252,0.146360115408278,0.562648733037383,1.00341133401746,505,1,0.587333333333333
"eps2[365]",-0.00548518485165647,0.306149848497254,-0.596254668055059,-0.207702012350212,-0.0172158780865791,0.187339709589588,0.610794296648416,1.00033524117924,1500,1,0.523333333333333
"eps2[366]",-0.0282994007313823,0.310145120345498,-0.663079948415762,-0.233317499782916,-0.0267662169382341,0.175823211949951,0.565696151426161,1.00497314978188,400,1,0.542666666666667
"eps2[367]",-0.00669195294410842,0.304741041661667,-0.585088252215705,-0.214260255023918,-0.00367344561634661,0.183696070506796,0.587892447075761,0.999911270449917,1500,1,0.504
"eps2[368]",-0.00414555478653595,0.323462755706004,-0.656186649139349,-0.216626087899971,0.000940143645817307,0.216058314367805,0.6328217157293,1.00228786587076,649,1,0.498
"eps2[369]",-0.00987038756398808,0.313248246687543,-0.610396217280608,-0.216162048732269,-0.014289732515401,0.197268344676818,0.610038912707281,0.999665763459862,1500,1,0.524
"eps2[370]",-0.0112420466407069,0.314487145171774,-0.637344060809333,-0.221554008311603,-0.0117899371247055,0.196486182767751,0.62730977414753,0.999483079826012,1500,1,0.508666666666667
"eps2[371]",-0.0160521238752606,0.31437609021974,-0.627944370861185,-0.219824186153676,-0.0182761192338802,0.182710589563502,0.611996427562459,0.999214480527221,1500,1,0.521333333333333
"eps2[372]",-0.0178986199638002,0.303652456526798,-0.566733995108092,-0.23358971707532,-0.0241502166719025,0.192814936274258,0.570573608349316,1.0004699615184,1500,1,0.524666666666667
"eps2[373]",-0.0114544034364056,0.321669386170598,-0.646715317547195,-0.223455543938779,-0.0153087037384818,0.204677739824176,0.622899838702024,1.0008681403682,1380,1,0.516666666666667
"eps2[374]",-0.0196491753288902,0.324191632645573,-0.637012349919443,-0.240599057636825,-0.0282269778499118,0.20036194985272,0.631086335926665,1.0009225599369,1500,1,0.534666666666667
"eps2[375]",-0.00219447635970211,0.32051179993063,-0.630469764447358,-0.21588022716086,-0.0110969216547947,0.212806779833924,0.614430958611645,1.00013367736916,1500,1,0.515333333333333
"eps2[376]",-0.0164671807493007,0.31627499584388,-0.619900055412137,-0.235673649534616,-0.0151340450607193,0.201698787685062,0.583584380451854,1.00000256131149,1500,1,0.517333333333333
"eps2[377]",-0.0114764640497167,0.315099829863786,-0.6271403961525,-0.218756564265675,-0.00753272519330141,0.201113316489375,0.594658828144055,1.00482349355265,499,1,0.514
"response[1,1]",101.193371011601,0.86527969080673,99.4279359534483,100.597389765812,101.198384274174,101.78543143188,102.834538316855,0.999554957997853,1500,0,1
"response[2,1]",133.002980207876,0.753021791533161,131.496178548447,132.498006151461,133.006447911585,133.49103800321,134.521913749406,1.00290982442351,755,0,1
"response[3,1]",153.159731975298,0.724531727487672,151.746053995453,152.674149107616,153.156493927632,153.649515789087,154.515955053641,1.00049656310352,1500,0,1
"response[4,1]",169.117573691213,0.784975323854644,167.573253801031,168.570026656648,169.097237043887,169.647061080431,170.630051504384,1.00078306359142,1326,0,1
"response[5,1]",180.073635699755,0.844519687001564,178.468728288552,179.481208371281,180.053635844394,180.667464057258,181.667344063093,0.999653322707889,1500,0,1
"response[6,1]",184.080729771312,1.01378539286896,182.128042423893,183.362724742619,184.083138656151,184.774766355713,186.125176431248,1.00059452733161,1403,0,1
"response[7,1]",186.642219150665,1.16953158695647,184.388262308877,185.84863493451,186.64368556495,187.420218425945,188.901495645683,1.00064725986346,1445,0,1
"response[8,1]",187.068851814165,1.3814259733983,184.392378295306,186.141805296505,187.049309457728,187.990181555996,189.840717552383,1.00132188419691,981,0,1
"response[9,1]",181.131015382017,1.85808184413595,177.530047810171,179.873537878635,181.120517283254,182.364153403798,184.837746815363,1.00042220603091,1500,0,1
"response[10,1]",188.19642700754,2.19855646934249,184.132929369625,186.682418946208,188.219141465172,189.71630098528,192.392628032695,1.00044802189745,1500,0,1
"response[11,1]",180.376505603679,3.28528012129096,174.185500991848,178.089109677186,180.305794523689,182.460618115083,186.903461755571,1.00657504679926,298,0,1
"response[1,2]",109.841702095605,0.734332241808617,108.366374803615,109.350030171794,109.823394818127,110.345638022225,111.289921955523,1.00049785268485,1500,0,1
"response[2,2]",143.360890509969,0.686544766598828,141.922772432714,142.928789515245,143.3681455732,143.830262841083,144.699732505636,1.00021233669901,1500,0,1
"response[3,2]",165.227221495481,0.69332187874895,163.90768883147,164.7642430595,165.245086911485,165.669401885339,166.558673333488,0.99946071695667,1500,0,1
"response[4,2]",182.894642429484,0.739197235025348,181.486624040706,182.386604357074,182.898166407143,183.41032043214,184.282980812875,1.0021192939058,1403,0,1
"response[5,2]",195.560283656115,0.808286487164065,193.95865746498,195.024525796192,195.576616807604,196.098479036584,197.136526858912,1.00034474330959,1500,0,1
"response[6,2]",201.276956945761,0.942394460529841,199.400362399154,200.622958043454,201.282829536985,201.931372622397,203.057205698234,0.999609897234461,1500,0,1
"response[7,2]",205.548025543203,1.13098876900926,203.356559237797,204.794770643611,205.553616954495,206.282774518382,207.763839526,1.0032732622551,480,0,1
"response[8,2]",207.684237424792,1.39372492760911,204.954207669989,206.710134002022,207.678092037939,208.608251098753,210.4733098333,1.00129091014629,1228,0,1
"response[9,2]",203.455980210732,1.81787424785449,200.048671332558,202.228531814485,203.432666956491,204.735178319329,206.968329720308,1.00115570695361,1500,0,1
"response[10,2]",212.230971054345,2.46797302484688,207.356638593241,210.537174632759,212.220466169658,213.894857024066,217.131735011814,1.00135910467015,986,0,1
"response[11,2]",206.120628868572,3.51557296815499,199.485945731725,203.774587050255,206.054859922906,208.517219349487,213.517046764397,1.00797170040554,243,0,1
"response[1,3]",105.332271533219,0.893962964433304,103.596726290106,104.706008369117,105.340417964287,105.953751706942,107.123868791966,1.00018264688452,1500,0,1
"response[2,3]",137.473812511623,0.812159855855643,135.872825393453,136.909135179101,137.51466650174,138.02115202929,139.074599617364,1.00044317336701,1500,0,1
"response[3,3]",157.962496061175,0.772553211108228,156.509495873758,157.444500857412,157.961962624064,158.475971545162,159.479778916987,0.999912309172033,1500,0,1
"response[4,3]",174.252269559218,0.797972409907828,172.708655959225,173.708967317175,174.221100979745,174.766825031585,175.891515147807,0.999626679587081,1500,0,1
"response[5,3]",185.54026334989,0.857764484982838,183.86642913797,184.989829118105,185.527612041749,186.071096290971,187.276064068383,0.999112138046827,1500,0,1
"response[6,3]",189.879289203575,0.992186477445509,187.90153470981,189.223334833659,189.894773469523,190.553820280503,191.830765960484,1.00072498096328,1500,0,1
"response[7,3]",192.772710365058,1.19097638873323,190.369471397157,191.979061043917,192.795946446102,193.558130977667,195.072658530341,1.00191401136537,783,0,1
"response[8,3]",193.531274810687,1.51346116818521,190.529480963723,192.516103364779,193.538011795737,194.549166381324,196.544580734297,1.00200796346053,714,0,1
"response[9,3]",187.925370160667,1.84424748094847,184.283048840093,186.741041625229,187.86885387775,189.121173357013,191.629021294004,0.999558970416447,1500,0,1
"response[10,3]",195.32271356832,2.46205213972598,190.33168571304,193.682972622956,195.332812558771,196.959567923453,200.078324520821,1.00177208615601,821,0,1
"response[11,3]",187.834723946588,3.49090084368385,181.324131053767,185.506883856119,187.693813955535,190.230165559125,194.65452740692,1.00816337264525,264,0,1
"deviance",15241.9801687044,16.6271064067021,15210.7497439445,15230.5636529705,15241.8916232618,15252.9512606231,15275.741282184,0.99965762186469,1500,0,1
