"","mean","sd","2.5%","25%","50%","75%","97.5%","Rhat","n.eff","overlap0","f"
"beta1",28.2979977331447,0.53180023679002,27.2340237884264,27.9401727104675,28.2926127697747,28.6528367053918,29.338186162328,1.00026056856454,1500,0,1
"beta2",-0.164815395641996,15.6113261690496,-28.9209456101994,-10.9538324865442,-0.636968251669135,10.4726010662777,30.9560352640982,1.00057538133244,1500,1,0.518
"beta3[1]",151.380917519823,0.996810234671713,149.368059920314,150.763307296525,151.374252792925,152.020925966361,153.421851266154,1.00246504373214,664,0,1
"beta3[2]",165.169572828175,0.857261763582361,163.518512876422,164.602884441309,165.200387876597,165.73955066268,166.805864324766,0.999723000398857,1500,0,1
"beta3[3]",157.855593365908,1.02986861866363,155.850633352259,157.147851580807,157.835716149955,158.555648833831,159.888802306392,1.0019232446436,999,0,1
"beta4[1]",-1.72542210236015,15.5578492172086,-32.8341182925864,-12.1288326024523,-1.36689947094061,9.18824031797601,27.1450980939691,1.00063275579866,1500,1,0.532
"beta4[2]",3.17348610815154,15.6245750770895,-27.9770285572638,-7.4178685459587,3.6693599324404,13.8802635555452,32.2807137897285,1.00063777129015,1500,1,0.59
"beta4[3]",-0.978202201874598,15.5967046292593,-32.3929676164491,-11.6979284889225,-0.600694202789747,10.0528864699849,28.7787516480536,1.000429423229,1500,1,0.515333333333333
"eps1[1]",-0.0419628846320179,0.217638026896848,-0.470766297456017,-0.184809448970297,-0.0405581050185368,0.0992635254215487,0.382947262511511,1.00160269860476,1045,1,0.574666666666667
"eps1[2]",0.00406313876556584,0.209873950306366,-0.414208858830769,-0.141569260369818,0.00762234355095881,0.144686776898868,0.413230889760415,0.999503013807709,1500,1,0.512
"eps1[3]",0.0784390618306677,0.208809572725746,-0.338905757205437,-0.0600764365886979,0.0757312809433157,0.220457715146236,0.495301695827961,1.00171886741629,838,1,0.642666666666667
"eps1[4]",0.0652280396677704,0.205638409747002,-0.342319177634317,-0.0722898039043807,0.0620727875674822,0.205325979026055,0.458656417199583,1.00047634399942,1500,1,0.619333333333333
"eps1[5]",0.0670769969162853,0.21341392976164,-0.355583806674449,-0.0811155557030061,0.0679448745344952,0.21356551965852,0.47096313438803,1.00058275760643,1500,1,0.615333333333333
"eps1[6]",-0.0427486290079071,0.209623614401946,-0.44780683433417,-0.181902046376193,-0.0357531698437145,0.0867138627840973,0.381691995247543,1.00164428342247,1500,1,0.578666666666667
"eps1[7]",0.0108333250895815,0.207184170965867,-0.407806457910144,-0.130623486554454,0.0128902773631228,0.153396253461319,0.411249127627444,1.00123042659942,1500,1,0.527333333333333
"eps1[8]",0.118067564553908,0.218175018836533,-0.296458800266167,-0.0318735200615844,0.112617146683301,0.260005490851149,0.559845418558578,1.00988754648973,206,1,0.705333333333333
"eps1[9]",0.00595828948063476,0.205703386492035,-0.403625664574266,-0.135298704981141,0.00377613078846494,0.146768561212935,0.386916951223886,1.00017464768189,1500,1,0.509333333333333
"eps1[10]",-0.0660193859511744,0.213233987089874,-0.48520452435792,-0.202957510188492,-0.0625417656373338,0.0799087326841629,0.33250966863233,0.999882629772627,1500,1,0.608666666666667
"eps1[11]",-0.186583432953703,0.208104208071424,-0.598433547366003,-0.32226038803987,-0.185817424877036,-0.0490560795450971,0.218023118343688,0.999605652410511,1500,1,0.816
"eps2[1]",-0.00505591862960914,0.211439579340022,-0.410274449173776,-0.148258247015702,-0.0021363380357161,0.13611861554418,0.395817278504287,0.999672195875141,1500,1,0.503333333333333
"eps2[2]",0.0028038517989026,0.214680477036889,-0.434237556334141,-0.13781968339584,0.00686563152572777,0.146347403939595,0.403069434856768,1.00025484581026,1500,1,0.51
"eps2[3]",0.000141829513712815,0.220170687966522,-0.410017954985273,-0.147012768168847,-0.00796109506569151,0.15104986938989,0.44893824364652,0.999137534168298,1500,1,0.487333333333333
"eps2[4]",0.00894736139965892,0.210634940727947,-0.405414181817705,-0.134288709956127,0.00870954099111184,0.157888235714892,0.417697729560594,1.00178240898086,735,1,0.518666666666667
"eps2[5]",0.00180990410603754,0.219275010786064,-0.426562118875051,-0.13781294590457,-0.0034853557228957,0.144408089095978,0.457392170006451,1.00086176445827,1274,1,0.496666666666667
"eps2[6]",0.00868338040832382,0.210104662360264,-0.398704530545175,-0.136249420955068,0.00820793334517969,0.148636091577161,0.424873625189195,0.999881419925787,1500,1,0.522
"eps2[7]",-0.00756140735826243,0.215560753624726,-0.421117605653765,-0.160319262674335,-0.0049320577909393,0.141709445796393,0.410924163118556,0.999557265736159,1500,1,0.510666666666667
"eps2[8]",0.00303278502438571,0.213392705701804,-0.424431761158229,-0.142096092270082,0.00591727667104474,0.144964933575609,0.419726360412729,1.00004893559802,1500,1,0.514
"eps2[9]",0.00128988105846388,0.218313603345868,-0.415006268447634,-0.152677318536547,0.00548182496843488,0.150382470140675,0.424243092079783,1.00005640704388,1500,1,0.509333333333333
"eps2[10]",-0.00626839921291197,0.209178165753922,-0.402857162512558,-0.146925796272565,-0.00467300508292709,0.135887675792065,0.411385846051654,0.999667420191699,1500,1,0.512
"eps2[11]",0.0129196857790038,0.212533093274906,-0.416888123679026,-0.134152260837221,0.0227576186837005,0.156744325927,0.425889419215073,0.999750793553966,1500,1,0.549333333333333
"eps2[12]",-0.0114262542893545,0.2196250871082,-0.4522161917042,-0.158798842183949,-0.0100142039399063,0.133531745211044,0.409076093166927,1.00124393350148,1042,1,0.528666666666667
"eps2[13]",-0.00396768709275019,0.208194235289554,-0.406627282750705,-0.143525092859793,-0.00211319362957255,0.135383401601326,0.411218044918199,0.999895381247279,1500,1,0.503333333333333
"eps2[14]",-0.00943845641355902,0.213492281743426,-0.443753044675615,-0.155125455161515,-0.00299994671533029,0.139437298380419,0.391204071648496,1.00072690936199,1399,1,0.504
"eps2[15]",0.0108679959253133,0.210928225166823,-0.434557790177231,-0.13043909666575,0.0129449127430174,0.153599741518071,0.414540217358401,1.00032643808564,1500,1,0.522666666666667
"eps2[16]",0.0174080837608564,0.211521216559765,-0.379694768397083,-0.129570759690719,0.0113019248410413,0.17011460640669,0.408570675478447,1.00071179394892,1500,1,0.524666666666667
"eps2[17]",-0.0212009309664878,0.215459423792857,-0.437408568086025,-0.16700717045996,-0.0267698731955696,0.126632661609896,0.421355578173949,0.99951051513102,1500,1,0.551333333333333
"eps2[18]",-0.00324360693488046,0.217503218560826,-0.431078422973873,-0.145416870040041,0.00245332389439612,0.142996253052634,0.413774146839925,0.999644974520074,1500,1,0.497333333333333
"eps2[19]",0.00486646226692535,0.202922217504928,-0.387594974964947,-0.126329154845808,0.0027924348661838,0.143144355202844,0.413374378091944,1.00224568339132,1410,1,0.506
"eps2[20]",0.0034091310440378,0.21526205388727,-0.436347767861723,-0.137322653310566,0.00427335173024454,0.144201826233655,0.411765921986404,1.00021406836052,1500,1,0.510666666666667
"eps2[21]",0.000898085835048737,0.211716052215999,-0.407314869762525,-0.140001165714543,0.00230478481079267,0.137614676776074,0.415166380029124,0.999315421611663,1500,1,0.503333333333333
"eps2[22]",-0.00890376619398395,0.217536695363538,-0.450270425920517,-0.153128927192911,-0.00800421504386349,0.136122955285022,0.43263967466825,1.00187230173239,1500,1,0.515333333333333
"eps2[23]",0.00548675290172149,0.212187705772937,-0.422159103043257,-0.133851064593623,0.00698774392540941,0.151097386955762,0.409273969371386,1.00242966434686,683,1,0.512
"eps2[24]",-0.00703025829363679,0.213436092564623,-0.419036019449506,-0.161169169424115,0.000142485262237257,0.143006311448339,0.404112312671107,0.999308712539413,1500,1,0.5
"eps2[25]",-0.00279509261279119,0.211574436120619,-0.427667115148664,-0.13230949445349,0.00386194008626907,0.141807549706285,0.397083841162711,1.00046792363878,1500,1,0.492
"eps2[26]",-0.0130665093507084,0.215213860800934,-0.433362793073562,-0.158675083693829,-0.011178354438221,0.132945233693461,0.398917260303467,0.999543996794476,1500,1,0.521333333333333
"eps2[27]",0.0078974545310424,0.213226905137453,-0.414731394857082,-0.131003956477597,0.00582940579997848,0.149976223764855,0.427539375169418,1.00017080282778,1500,1,0.512666666666667
"eps2[28]",-0.00251444632561098,0.211504236204026,-0.420790010497539,-0.147435885592226,-0.00235732990571883,0.136588676427957,0.422009845854567,1.0068827288874,439,1,0.504
"eps2[29]",0.00264121393703994,0.206851785409528,-0.407391520725955,-0.135213135114685,0.00296373334845816,0.140264065149566,0.408656556741997,1.00164730016578,1096,1,0.506
"eps2[30]",0.00406181387241287,0.215611155048558,-0.410721493682767,-0.140145152747488,-0.000924319357965723,0.146501396608371,0.416875631746502,1.00062802043629,1500,1,0.496
"eps2[31]",-0.006757431119143,0.210802815213916,-0.436918922303516,-0.142578658444818,-0.00514333812886743,0.142584854661274,0.403687695301184,1.00014411440933,1500,1,0.508
"eps2[32]",0.00177767380670746,0.208748447869521,-0.420932305899581,-0.129588535995817,-0.00298482989767081,0.14114770690402,0.410420308476087,1.00049472109751,1500,1,0.496666666666667
"eps2[33]",0.00491447576856119,0.212562748346456,-0.429388775583205,-0.140109251408173,0.00466201395277013,0.139023507330215,0.450986290254348,1.00281395924305,541,1,0.51
"eps2[34]",0.000415731891879952,0.209757544355851,-0.428705912757746,-0.13704198569614,0.00373334101333893,0.146847647092173,0.392778303283544,1.00090135345023,1500,1,0.504666666666667
"eps2[35]",-0.00602747631227062,0.211083624880788,-0.430002248318551,-0.150179232086377,-0.00389069169478574,0.133860302918478,0.38600991839506,1.00024330816682,1500,1,0.508666666666667
"eps2[36]",-0.00283994509112776,0.217423268022724,-0.428745120557798,-0.14519171447839,0.00110893265354861,0.140268598933238,0.424902282973066,1.00293743810236,545,1,0.498666666666667
"eps2[37]",-0.0164892515235001,0.217660163357191,-0.422360718217013,-0.160086955180309,-0.0182245591384975,0.130753360258229,0.403448547899329,1.00391786627209,429,1,0.531333333333333
"eps2[38]",-0.0039685889527494,0.20328804931481,-0.405437122461293,-0.141560471743052,-0.00367312010378646,0.137602733847848,0.384888204629353,0.999502795072288,1500,1,0.512
"eps2[39]",-0.00452133258729323,0.209913780639213,-0.412769697255233,-0.148002577992185,-0.0103207943627205,0.136166711455587,0.393451706340305,1.00332709778543,592,1,0.517333333333333
"eps2[40]",-0.012001255041741,0.210649948753854,-0.418875590938319,-0.153628323062703,-0.0152753882297763,0.13334765258711,0.410709687179263,1.00004470351391,1500,1,0.532666666666667
"eps2[41]",-0.00839443175871241,0.214413790532184,-0.426912291297519,-0.147637218335394,-0.00801551311715205,0.128380247930392,0.421411001807503,1.00179257992059,848,1,0.516666666666667
"eps2[42]",0.00917644214609395,0.206887857772043,-0.38779815862597,-0.133050050355901,0.00597833914374889,0.155001949404516,0.407772966470532,1.0005118426305,1500,1,0.514666666666667
"eps2[43]",-0.000414312535244359,0.21481897171532,-0.427545964040477,-0.144201467247258,-0.00319255164269783,0.140645341504845,0.404548809052138,1.00057984010152,1500,1,0.506666666666667
"eps2[44]",0.00838946163447899,0.209455238777597,-0.391200644990815,-0.142546967256551,0.00903969851972434,0.155869033871311,0.404062346876962,1.00079493060646,1390,1,0.518666666666667
"eps2[45]",0.00379435820369403,0.213140143133581,-0.40628612884497,-0.144441964514492,-0.000670458575771825,0.153030001790984,0.419465421319792,1.00049276298345,1500,1,0.499333333333333
"eps2[46]",0.0241451113915443,0.213862408852923,-0.384045833076536,-0.119431421233196,0.0167574917811155,0.164768372897245,0.458613791618023,1.00262211887218,747,1,0.530666666666667
"eps2[47]",-0.00464181102327774,0.216566114235726,-0.418440349004812,-0.151651634782211,-0.0114183299707396,0.1378383564914,0.429703216643279,0.999714318136986,1500,1,0.518666666666667
"eps2[48]",0.0143016521003606,0.210985837083405,-0.409212846645387,-0.125770586048989,0.0121189226755343,0.152876151423047,0.42079738276196,1.00242736298701,1500,1,0.524
"eps2[49]",-0.000309147800456649,0.208282364168617,-0.427445512325209,-0.132551028018685,0.0053298436132803,0.128690413231737,0.423563380133839,1.00159361351573,1075,1,0.488666666666667
"eps2[50]",0.0138145210439965,0.207841271423625,-0.40934061945973,-0.12220816575371,0.0182784446948125,0.154126561286506,0.425251468709062,1.00033504656908,1500,1,0.538666666666667
"eps2[51]",-0.0043803188396822,0.21225599242933,-0.42445622749871,-0.145823681820919,0.00243605234932199,0.131019283143825,0.419117281529505,1.00019920927571,1500,1,0.496
"eps2[52]",0.00153771295571944,0.209556079376531,-0.408408518745721,-0.141771489345088,0.00698867613673396,0.146203838646152,0.409658827442504,1.0006709485149,1280,1,0.513333333333333
"eps2[53]",-0.00571822509377941,0.209584141957409,-0.429291508732442,-0.141306093698974,-0.0101359013387864,0.129061100236274,0.418530471200399,1.00006597193854,1500,1,0.510666666666667
"eps2[54]",0.0140198302979003,0.214966907023826,-0.386011627903837,-0.133564674731862,0.00526978137239006,0.155569655861873,0.439470079624814,1.0006661364382,1500,1,0.508666666666667
"eps2[55]",0.00514832866156377,0.216861051183074,-0.432698529797279,-0.135704379446324,0.00714212205954559,0.150710251629961,0.41694337206801,1.00179190655831,788,1,0.516666666666667
"eps2[56]",0.00781081243880604,0.210779896926789,-0.409604819120659,-0.134485692224075,0.00791837515020936,0.154450073586746,0.39701762504449,1.00110154924324,1093,1,0.52
"eps2[57]",0.0131040969553617,0.214975608764818,-0.420251649769349,-0.124705655135574,0.0186340897166869,0.153863003946307,0.430026462072535,1.00225796332353,862,1,0.544
"eps2[58]",0.0199773578293432,0.206694599087702,-0.381994617955338,-0.119864507233482,0.0225027789083285,0.157336620053484,0.434734980774567,0.99986244620695,1500,1,0.548666666666667
"eps2[59]",0.0051144228851795,0.210828566797724,-0.393615108280029,-0.145903116759449,0.000122298033016627,0.145530923475325,0.438369115491592,0.999740275377349,1500,1,0.500666666666667
"eps2[60]",0.00340023482182189,0.218687201421133,-0.41943779094564,-0.141780790389661,0.00876879319789854,0.155246375411108,0.432140685089645,1.00170909889242,1500,1,0.516
"eps2[61]",-0.00227910451929355,0.21565279619276,-0.434826169731982,-0.142666777656332,0.0031058899645572,0.138189890258268,0.3966515883801,1.00174646987541,838,1,0.493333333333333
"eps2[62]",-0.0103160102014068,0.213322554686425,-0.429901587841851,-0.152026059917452,-0.0116884819831092,0.12537834386698,0.413825015882171,1.00178953035204,1500,1,0.521333333333333
"eps2[63]",-0.00138770958172427,0.219212712321145,-0.415204963093958,-0.157160693805089,-0.00514084170255068,0.148252481935031,0.434110976807575,1.00176090498159,805,1,0.507333333333333
"eps2[64]",0.00614766909793543,0.20907006495695,-0.391987138858366,-0.136806666874618,0.00243531242950276,0.153543484077748,0.414007868384071,0.999128586572876,1500,1,0.504
"eps2[65]",0.00117856069793292,0.21410868819275,-0.418967366629616,-0.146184310266709,0.00880873377203405,0.14853394223232,0.413399611225658,1.00032471038607,1500,1,0.510666666666667
"eps2[66]",-0.0050328658283923,0.215025558094903,-0.421274321030244,-0.149656444692876,-0.00969543475682805,0.146609532801658,0.410435217763534,1.00645880277644,313,1,0.515333333333333
"eps2[67]",0.00332828790915993,0.210979514671624,-0.418890489477984,-0.135952408528604,0.00269309714365901,0.141701747448126,0.417259639838331,1.00194565289818,1500,1,0.504666666666667
"eps2[68]",0.000370763442739194,0.215241789406205,-0.4372718525324,-0.139530842636389,-0.00226062510184355,0.140537690496293,0.412936193833623,1.00187246112295,1500,1,0.490666666666667
"eps2[69]",-0.0144393331270892,0.21662690637133,-0.417646731041447,-0.164669797866191,-0.0191310565370749,0.131227626555853,0.41868290404398,0.999015360967194,1500,1,0.525333333333333
"eps2[70]",0.00638772449372574,0.21056813608522,-0.402977334408393,-0.134136205624399,0.00637016627181357,0.141120094427375,0.419252038850343,0.999528620217761,1500,1,0.514666666666667
"eps2[71]",-0.00156667688895287,0.212295510314254,-0.411859286445781,-0.143270789256019,0.00069481305342961,0.139518807531419,0.421086476417025,0.999962322867564,1500,1,0.498
"eps2[72]",-0.00236179507381998,0.211941923173312,-0.419415090038635,-0.145404723516112,0.00181821054791754,0.138778323193794,0.402497568386577,0.999836361636554,1500,1,0.494
"eps2[73]",-0.0196660934230456,0.212120302524919,-0.432132333298287,-0.172795019002571,-0.0175100094170235,0.132100564799993,0.37926533972762,0.999119969907802,1500,1,0.534666666666667
"eps2[74]",0.00141594434428566,0.20622122464708,-0.385455325086325,-0.144943139089925,0.000124255969117318,0.141819146350114,0.397604667751044,0.999850894456116,1500,1,0.500666666666667
"eps2[75]",0.0125158349546948,0.222070332862071,-0.451958490806641,-0.134366627502979,0.0192249412355322,0.154213409744975,0.438338470297381,1.00304180347259,760,1,0.538
"eps2[76]",0.00958693079674426,0.212105544090424,-0.401853712156673,-0.134668388824486,0.00811803543503332,0.143538727972882,0.442641061332248,1.00340947366626,563,1,0.514
"eps2[77]",0.00745496592032584,0.208857094958905,-0.397671220143912,-0.136372789911053,0.00249143602695562,0.15024872593371,0.411761586587446,1.00048142888424,1500,1,0.506
"eps2[78]",-0.0216866288504733,0.210831928347664,-0.450090131395206,-0.159700593928673,-0.0192310332610167,0.117265922004154,0.38231388863178,1.00072799659139,1500,1,0.54
"eps2[79]",-0.00976940505660748,0.216123403016772,-0.432913135882747,-0.153285318840147,-0.0117824118254769,0.134387274806777,0.428655017057807,0.999997730372269,1500,1,0.522666666666667
"eps2[80]",0.00695805288843866,0.213933822563239,-0.418095375609651,-0.139500373421641,0.00444519815638824,0.14882830618449,0.425066502244748,0.999845396841815,1500,1,0.506666666666667
"eps2[81]",0.0026407686331044,0.212826660604964,-0.383850548093476,-0.151818204888873,-0.00851384956342054,0.159733615292943,0.41740518563473,0.999380512791919,1500,1,0.484
"eps2[82]",0.00127450142205137,0.218191161597199,-0.424109142582408,-0.151958969481866,-0.000777905991698767,0.147598256716912,0.44340127470948,0.999160184435487,1500,1,0.499333333333333
"eps2[83]",-0.00697819603353104,0.214308913849088,-0.407101853591943,-0.154186912668415,-0.0103309206429042,0.136139827758494,0.416228958545928,1.00123539746461,1301,1,0.518
"eps2[84]",-0.00421246969473182,0.213905268977802,-0.435978578997314,-0.150741109356943,-0.0081202081404846,0.146324651314693,0.406194346735592,1.00203838514679,706,1,0.514
"eps2[85]",-0.000540609980572364,0.214238016949017,-0.418333070241578,-0.143329898033987,0.00627851966876741,0.146883261598725,0.419827118011722,1.00023230410315,1500,1,0.49
"eps2[86]",0.0137917053206561,0.216123303242486,-0.40541091913456,-0.130305208243426,0.0131447314317895,0.161010832267325,0.431379226382647,0.999511643527716,1500,1,0.528666666666667
"eps2[87]",-0.000254538658576531,0.208831564390157,-0.421365138785013,-0.142957103593909,-0.00240863960309451,0.141908480069529,0.427961990203838,1.00115453377876,1149,1,0.504666666666667
"eps2[88]",0.00351011130623517,0.214778563639573,-0.39788869143668,-0.146227367615116,-0.00108717861105528,0.149282145948021,0.431263991215398,1.00098483797552,1192,1,0.498666666666667
"eps2[89]",0.00497167736698412,0.224724795975708,-0.439073233282413,-0.150292407321866,0.0125225658021636,0.1545959633895,0.419986304778832,1.00042195108266,1488,1,0.522
"eps2[90]",-2.17837607316862e-05,0.210790499506404,-0.42002560973844,-0.130218435227649,0.00725398266700621,0.138154551887917,0.408737849563418,1.00273139534049,659,1,0.486
"eps2[91]",0.0149872939159482,0.216379466994392,-0.405273638035741,-0.127509147193391,0.00937873803500552,0.160554487191696,0.438573055030739,1.00029734507123,1500,1,0.515333333333333
"eps2[92]",-0.00503717685737454,0.212796959367166,-0.412628566310343,-0.144827897150267,-0.00872796123304778,0.138410649222692,0.414565308014017,1.00008295451002,1500,1,0.512666666666667
"eps2[93]",0.00664838445231193,0.213402386814355,-0.414830132155236,-0.138157089465481,-0.000241632548625019,0.155274942848814,0.437559017311358,0.999877998390949,1500,1,0.499333333333333
"eps2[94]",-0.00679825434028886,0.21677135947062,-0.418820201956765,-0.149016565604617,-0.00593187927725067,0.139659878657031,0.423039339651911,1.00076015132582,1229,1,0.514
"eps2[95]",0.00518862457888027,0.216005375025539,-0.403377461752191,-0.140134579217425,0.00669863777337932,0.152337514561385,0.433374153570062,1.00292526886794,736,1,0.513333333333333
"eps2[96]",0.00882365793985678,0.215850518343158,-0.409187314991209,-0.140182860534072,0.0117143088731669,0.160947434286263,0.403443389279096,0.999771205640162,1500,1,0.517333333333333
"eps2[97]",-0.0214336214421482,0.212555829614214,-0.420303777475817,-0.170764431932586,-0.0190883224707678,0.12071504247906,0.383231588241418,1.00115601247025,1260,1,0.532666666666667
"eps2[98]",0.0064270639825635,0.210647799609188,-0.419229242413655,-0.127369511726456,0.0108535993246221,0.150021653708171,0.397669517013257,1.00284866294383,1035,1,0.52
"eps2[99]",-0.00765224028989358,0.216694167689909,-0.427779801823351,-0.156008972010303,-0.00602004269731841,0.135751790894805,0.418474613525882,1.00163124574941,973,1,0.51
"eps2[100]",-0.00516982301075074,0.219753319461061,-0.435253316882288,-0.155496312603056,-0.00656564237331447,0.147249403687693,0.431955466443484,1.0001470472365,1500,1,0.513333333333333
"eps2[101]",0.00193682742206569,0.216538729574956,-0.442122229862031,-0.133310730364385,0.00166788771861478,0.135775553884521,0.438827019804922,1.00002610116676,1500,1,0.504
"eps2[102]",0.0121244742890906,0.212071551227132,-0.426786607788713,-0.126311074920864,0.0131414510768875,0.158453477696718,0.421948130428217,0.999998576137454,1500,1,0.527333333333333
"eps2[103]",-0.0181492645333673,0.218872259504741,-0.451098519285676,-0.161886434186519,-0.0194317743965548,0.129344864562824,0.416389519456943,0.999110914150366,1500,1,0.532
"eps2[104]",-0.00240334007212617,0.206439295001687,-0.4033367896375,-0.140407083144564,0.000366907556322467,0.129879666164402,0.386196870550187,0.999576328037554,1500,1,0.499333333333333
"eps2[105]",-0.00467202437414278,0.210277928828758,-0.416748271563994,-0.149639684330832,-0.00170193176013562,0.134349287624102,0.394840239885333,0.999828050830528,1500,1,0.503333333333333
"eps2[106]",0.0043504630042366,0.209858285637854,-0.398575676965921,-0.14173826958209,0.00362137335551303,0.147247755808467,0.404563840572682,1.00577247794794,316,1,0.512
"eps2[107]",-0.0118040407453197,0.211680164311531,-0.428675792874674,-0.147936674784609,-0.0100421782315873,0.130308907597221,0.422905767034555,1.00290899705238,606,1,0.522
"eps2[108]",-0.00794777691576356,0.21858722314236,-0.418599354592719,-0.159597398749026,-0.0119844407399936,0.143068639597552,0.415585328039055,0.999641013037531,1500,1,0.522
"eps2[109]",0.00537307468002039,0.218684657957141,-0.421892389946565,-0.144167411028355,0.00135275624181877,0.157403179570624,0.420268785527557,1.00036190572249,1500,1,0.506
"eps2[110]",0.0146542101471408,0.207037529136984,-0.392393633768868,-0.123134524044917,0.00866312949484963,0.152024432178745,0.448113099388367,1.00085018883186,1155,1,0.52
"eps2[111]",-0.00666968439403491,0.217105332828222,-0.439891655657194,-0.152945099134436,-0.0071281984404703,0.141812670149825,0.407044229144404,0.999449130555675,1500,1,0.514666666666667
"eps2[112]",0.00860609073608232,0.213558533034395,-0.402472449332899,-0.136746861605821,0.00790323548062148,0.150558514215833,0.440647002534626,1.00319578824196,931,1,0.512666666666667
"eps2[113]",0.000806148227567217,0.208982938625537,-0.419824496606531,-0.141209354891499,0.00697289683003987,0.143472182273846,0.405716147899822,1.00003461620884,1500,1,0.518
"eps2[114]",0.00556414183404592,0.215261269379499,-0.409595916843736,-0.143525760570875,-0.00500405900584375,0.160048921332046,0.450899327478836,1.00212345577282,844,1,0.489333333333333
"eps2[115]",0.00201837818040635,0.204379569060168,-0.414738771147823,-0.134174668681637,0.00476802961350163,0.146432678294981,0.378166198594851,0.999348640042365,1500,1,0.51
"eps2[116]",0.00343116294981955,0.20677166922547,-0.394367048358624,-0.134782305159589,-0.006529622853522,0.142325612226885,0.405309223204331,0.999622901211031,1500,1,0.488666666666667
"eps2[117]",-0.00171390922070893,0.219743066234339,-0.409932050735355,-0.153949353099807,-0.00382573376755959,0.139402873692774,0.42316286172542,0.999564360227903,1500,1,0.508
"eps2[118]",0.00140029780787858,0.212367292400078,-0.425169366090182,-0.145701921487855,0.00181593114857486,0.143515366175632,0.419042879229304,1.0009382740859,1500,1,0.502666666666667
"eps2[119]",0.0180239121976473,0.213920502802599,-0.405796551386213,-0.129228267350993,0.0179041111240525,0.164420496949417,0.441045152298199,1.00313646202079,544,1,0.524666666666667
"eps2[120]",-0.00286471295321494,0.216323539288295,-0.433563242117794,-0.15407075244587,0.00386303147076211,0.139730153634304,0.414715237391149,1.00021061853166,1500,1,0.494
"eps2[121]",-0.00295982470203397,0.211653929396895,-0.404598347691448,-0.146182667665004,-0.0083619425062415,0.146674140683523,0.412652563925847,1.00028571822724,1500,1,0.515333333333333
"eps2[122]",0.0101063326708371,0.210075116457816,-0.387900161929936,-0.133265186820478,0.0103963089337679,0.155398173243846,0.408717087522984,0.999794861811299,1500,1,0.519333333333333
"eps2[123]",-0.000845869211501613,0.211043261890863,-0.431126862596685,-0.140167798478226,0.00274079196353472,0.151720865498549,0.391154490637328,1.00057555739523,1500,1,0.494666666666667
"eps2[124]",0.00687187599902052,0.213566331706422,-0.402205474266349,-0.136222588718309,0.00491568475626922,0.15175738779864,0.411531351031413,1.00079209983587,1170,1,0.51
"eps2[125]",0.010008027220785,0.212480942714014,-0.396104912525895,-0.140277814141098,0.0117084279569286,0.160961583553989,0.429954667286073,1.00047687366724,1500,1,0.515333333333333
"eps2[126]",0.00625021675966339,0.209548806871103,-0.39869912411894,-0.140719992376403,0.0071486427595915,0.150305647998728,0.436566859892988,0.999355171362578,1500,1,0.517333333333333
"eps2[127]",0.00907265658543523,0.217239110640134,-0.428624580821787,-0.140988731038699,0.00719208115360993,0.15935105824343,0.437081360996187,0.999980453591021,1500,1,0.516
"eps2[128]",0.00736542210029056,0.220615476084928,-0.426363731427507,-0.136800299006503,0.0123438095475658,0.155082493383537,0.439275707377718,0.999305827845391,1500,1,0.523333333333333
"eps2[129]",-0.00169862895419466,0.208643523919194,-0.401298309333408,-0.141459540889854,-0.00782832792791304,0.133600192870144,0.407390191184351,1.00073967227593,1500,1,0.516
"eps2[130]",-0.00169730522238407,0.211310361670153,-0.428271842024346,-0.129595229615585,0.00395391683943905,0.136379427364877,0.39666688236279,1.00086478046435,1236,1,0.496666666666667
"eps2[131]",0.00547043131944062,0.219114263634487,-0.431160927614779,-0.140819055363605,0.00289827974954344,0.155611908044715,0.430211306124323,1.00022562362846,1500,1,0.506666666666667
"eps2[132]",0.00875297894059919,0.215998268982266,-0.402178573582351,-0.140306743850723,0.0134884574332911,0.157037864240689,0.439709349530701,1.00208898758772,783,1,0.519333333333333
"eps2[133]",0.0116548225089931,0.206060832665059,-0.37783876639522,-0.128361480019373,0.0177326629942855,0.145613485998917,0.419385756446372,1.00039238849218,1500,1,0.534
"eps2[134]",0.00137977190825951,0.212811952213659,-0.435078355821179,-0.137131990156742,-0.00244671308850398,0.146066297038759,0.419181750342352,1.00153471720298,1370,1,0.494
"eps2[135]",-0.0147944658367841,0.207917617783465,-0.427854614067372,-0.15318254882528,-0.0105861600119408,0.118492551666092,0.393834563195542,0.999146206629115,1500,1,0.522
"eps2[136]",-0.00925878731426184,0.210777677325033,-0.407133115442612,-0.151435402767106,-0.0077460729373046,0.13088106514669,0.401635376534934,1.00255759678405,971,1,0.517333333333333
"eps2[137]",-0.00434998508388957,0.211371137164181,-0.406746182321587,-0.14792978927291,-0.00224536752885671,0.135889659350369,0.411063453165653,1.00311205646902,818,1,0.505333333333333
"eps2[138]",0.0152049216978162,0.208001907000817,-0.395202868903683,-0.122536455228304,0.0121953838686704,0.156739302045437,0.417060115556486,1.00093879770013,1448,1,0.528
"eps2[139]",-0.00805552314742669,0.212618936536681,-0.427508471396693,-0.143767931195989,-0.0075463000922972,0.13568044729848,0.384678698037744,1.00255066204543,583,1,0.512666666666667
"eps2[140]",-0.00874424308780279,0.21417117489181,-0.42116146053564,-0.150533480606193,-0.0127645752554714,0.135528687817922,0.40104223865249,1.00143272573298,1382,1,0.518666666666667
"eps2[141]",0.0163036080441916,0.219395931119524,-0.409730133909303,-0.134203947805964,0.0172043500965863,0.169667205933199,0.430111938142105,1.00185859888486,1500,1,0.534666666666667
"eps2[142]",0.00211546035496519,0.212819825174367,-0.410721719278005,-0.138344631970246,-0.00180250714697919,0.144169184885962,0.406888552688089,1.00417119203432,426,1,0.493333333333333
"eps2[143]",-0.00460385822719803,0.218441707911671,-0.44778121401979,-0.146092195067167,0.000783750249725317,0.141274546110889,0.426493135971221,1.00013036954678,1500,1,0.498666666666667
"eps2[144]",0.00202485539339524,0.215278212739393,-0.411563216862315,-0.144645127378747,0.00245893242715484,0.150047918387829,0.427297934514103,1.00071680966294,1500,1,0.506666666666667
"eps2[145]",0.0136496293626792,0.221729439036722,-0.419619152040151,-0.13855155185373,0.0112524242121407,0.164340889597846,0.450177280617118,1.00067655920903,1500,1,0.52
"eps2[146]",0.00637750034712064,0.212884593365914,-0.390342437981582,-0.143831201078905,0.00475748935156239,0.154348253342505,0.425822535643463,1.00095255533236,1212,1,0.507333333333333
"eps2[147]",-0.00366662445150362,0.202700690007972,-0.395716674459024,-0.143326894600445,-0.011311114192942,0.137825038988004,0.381737421071561,0.999807122624203,1500,1,0.516
"eps2[148]",-0.00990644124963369,0.217044191061845,-0.44114000185558,-0.154309131444932,-0.00115830104534217,0.13824809018608,0.387872659794491,0.99934485156752,1500,1,0.506
"eps2[149]",0.0190766820916624,0.20803378636689,-0.381382366746161,-0.119552623706557,0.00868802820324347,0.162936149611651,0.413537074189292,0.999272115122504,1500,1,0.518666666666667
"eps2[150]",-0.00455003116761325,0.212451167857055,-0.404866120449282,-0.143390145518506,-0.00749210569920114,0.137016997515801,0.397570363934426,1.00246480355744,688,1,0.514
"eps2[151]",-0.00886571791202831,0.213048989689648,-0.429441805526333,-0.150196486537437,-0.00847742384429794,0.131472779561431,0.412231685786047,0.999983239789275,1500,1,0.516666666666667
"eps2[152]",-0.00242714843189168,0.209750418194652,-0.441625106579582,-0.142323871496483,0.00136824876704186,0.13949923841894,0.409094838816479,1.00007192460643,1500,1,0.498
"eps2[153]",-0.0016711601034731,0.209555312598233,-0.423686340182656,-0.142418012860086,0.00511827333052861,0.145034175293945,0.368362531593011,1.00007575832878,1500,1,0.492666666666667
"eps2[154]",0.00507089078095491,0.215604501639324,-0.404732671098319,-0.146503792280198,0.0100034366315114,0.152339865636496,0.42595125174428,1.0007488432422,1500,1,0.513333333333333
"eps2[155]",-0.00296595800368645,0.215627016105295,-0.429000552768087,-0.144793142099652,-0.00613680232793917,0.136836812222868,0.404425935415469,1.00346992390693,632,1,0.508
"eps2[156]",0.00276755169513668,0.211375546141859,-0.415405524462881,-0.134314680962119,-0.00239590235383333,0.143767173526047,0.414623357945571,1.00086140736672,1367,1,0.497333333333333
"eps2[157]",-0.00960503436182676,0.211745574600446,-0.423064021839591,-0.152481989783894,-0.0152482160217635,0.133652626337362,0.392508221465375,0.999655204130635,1500,1,0.53
"eps2[158]",0.00610038351763225,0.212478672689777,-0.401664209253192,-0.141846541618818,0.00912234829478846,0.159384914017134,0.417296623666711,1.00342451036233,704,1,0.517333333333333
"eps2[159]",0.000916400660216597,0.213498695710076,-0.40130468116176,-0.13639055294807,-0.00515532637263801,0.141034298772383,0.422869279496367,0.99946359667058,1500,1,0.491333333333333
"eps2[160]",-0.00254130948836097,0.215432658926415,-0.423695625281975,-0.156323969896842,-0.0037319304283621,0.142604312859626,0.407826414420941,1.00101187718962,1500,1,0.507333333333333
"eps2[161]",-0.00426738616349318,0.211807551140389,-0.40718807545871,-0.148433642920427,-0.00179429380758613,0.140567036014613,0.40871301160926,1.00256012172779,651,1,0.506
"eps2[162]",-0.00490757540703591,0.213718414426014,-0.422744336007449,-0.144214178903132,-0.00877617303614574,0.137320115726606,0.421441430544102,1.00220159850512,1500,1,0.520666666666667
"eps2[163]",0.00525820524746486,0.21744848478018,-0.409508945351296,-0.139759549361914,0.00636801119237074,0.14874954519067,0.430562163474077,1.00050212675002,1404,1,0.512666666666667
"eps2[164]",0.00664472932958244,0.211886804572705,-0.39889875341367,-0.136118704099531,0.0110252663815343,0.143446376808521,0.41938073057076,1.00458271060231,654,1,0.524
"eps2[165]",0.00253465848134607,0.216017793178725,-0.416304822793395,-0.143063949944726,0.00228886590373724,0.150682086707612,0.406298453530343,1.00056772127004,1500,1,0.503333333333333
"eps2[166]",-0.00523887726693933,0.211669710789528,-0.424764600722082,-0.145600670749169,-0.0086790795435162,0.134281749489962,0.415076633005199,1.00115714072648,1500,1,0.521333333333333
"eps2[167]",-0.00677012755936818,0.212263401624445,-0.416895139862137,-0.148889176772463,-0.00942500399463467,0.135081984895901,0.419555876829793,1.00134695524842,902,1,0.517333333333333
"eps2[168]",-0.00755558651292218,0.216477491348848,-0.414143660554232,-0.1621509232042,-0.00678563968761713,0.140547376855742,0.411838948660608,1.00107724281625,1259,1,0.514666666666667
"eps2[169]",-0.00315386812726518,0.213029595817735,-0.400700912385155,-0.155099959038439,-0.00345111367491076,0.146758516475764,0.404966511492056,0.999693611657786,1500,1,0.504666666666667
"eps2[170]",0.00155650608240724,0.21928508585024,-0.42086595836876,-0.142998228466033,-0.00747164615675773,0.15013299207436,0.441508630789268,0.999361464273661,1500,1,0.49
"eps2[171]",0.0100263947427754,0.206438036560659,-0.387601008352566,-0.125689100038166,0.006316408587053,0.140874204017156,0.432738557519116,1.00322531249656,490,1,0.512666666666667
"eps2[172]",0.00186001973609154,0.213263353676742,-0.41897786908537,-0.136518675368039,0.00111190800191219,0.138572082737463,0.414974884634545,1.00062419894348,1500,1,0.501333333333333
"eps2[173]",0.00595997340107601,0.207414130869105,-0.399334870622682,-0.138445892738055,0.00310950202845393,0.155209304197391,0.407505464055624,0.999387388653572,1500,1,0.507333333333333
"eps2[174]",0.0076819052757601,0.213645963262903,-0.402603762404272,-0.137242650419963,0.0127702176453905,0.155300531969826,0.422056319057526,0.999559100728072,1500,1,0.517333333333333
"eps2[175]",-0.00166358111390543,0.205088524820572,-0.381280148785142,-0.140702849943897,-0.00359633536215611,0.140211778187953,0.39808926240554,1.00268779377439,563,1,0.506666666666667
"eps2[176]",-0.00210706585258696,0.211002252019403,-0.408316830749706,-0.146924273686258,-0.00160805742264691,0.137699505072266,0.424284952400143,0.999763088893191,1500,1,0.502
"eps2[177]",-0.00342126005769375,0.216461808963166,-0.398483840644642,-0.150844822024706,-0.00394570745177796,0.147649201832885,0.421068579007276,1.00199580470237,899,1,0.508666666666667
"eps2[178]",-0.00234256687310434,0.214258164053429,-0.411927068145916,-0.142711714896804,-0.0108680781542109,0.135852680141364,0.43547631483262,1.00179003763656,834,1,0.521333333333333
"eps2[179]",0.00097260216294816,0.213809678375597,-0.419290246367898,-0.13948824712092,0.00260184531768896,0.147350726618548,0.411218124593902,1.00093781530309,1163,1,0.506
"eps2[180]",0.00462099822909164,0.215197213317399,-0.41011084081753,-0.144439538277685,0.0126485452593577,0.150468854144981,0.419793712230374,1.00287066292467,547,1,0.522
"eps2[181]",0.00391898500881906,0.215522656484166,-0.410073854070849,-0.14162836856388,0.00815218490254084,0.145033713345154,0.424008234890105,0.999438275114899,1500,1,0.511333333333333
"eps2[182]",0.000617976917092232,0.212597996664095,-0.420752587760488,-0.141913938627699,0.00352509563024551,0.141782282004221,0.394443037700186,1.00122715033501,1015,1,0.508666666666667
"eps2[183]",-0.00716593233789381,0.21524687390493,-0.427483683271743,-0.160115561341625,-0.0102706768974052,0.138489161254394,0.415565446540182,1.00268920034666,699,1,0.521333333333333
"eps2[184]",-0.00669633001297799,0.219080662773795,-0.433312778045978,-0.152093078023939,-0.00390692075519636,0.140504199139721,0.409378552778607,1.0006085157061,1500,1,0.505333333333333
"eps2[185]",0.00551067421710191,0.20338233630209,-0.395082276315671,-0.13345264740716,0.0073393377013955,0.142138390729848,0.398446170637351,0.999314475658938,1500,1,0.509333333333333
"eps2[186]",-0.00472581621460394,0.215672243058783,-0.422483467042263,-0.146753324072425,-0.0133335845143072,0.144316544801,0.419375966302254,0.99978798709513,1500,1,0.524666666666667
"eps2[187]",0.00130819652506773,0.207507715787451,-0.426651153405593,-0.132421871450521,0.00415685497042513,0.145880651766034,0.393645454208957,1.00259926142212,1031,1,0.508666666666667
"eps2[188]",-0.00276378699738373,0.20805915568401,-0.412402699847685,-0.140753452271915,-0.00495280344547958,0.135100641308968,0.40897906114926,1.00103992949294,1334,1,0.512
"eps2[189]",0.0028993838829084,0.208345780751679,-0.396378982800222,-0.14204438835277,0.00403483601687381,0.142769633235795,0.419570576119363,0.999192597732269,1500,1,0.507333333333333
"eps2[190]",-0.00851175819882147,0.209483629241623,-0.433478226208786,-0.143850417623851,-0.00419508509773305,0.129016306341706,0.398195922205946,0.999331238012113,1500,1,0.508666666666667
"eps2[191]",0.00556696561029541,0.218009274143015,-0.416510067960613,-0.141304349147515,-0.00191177334728522,0.157785585436545,0.43456872077981,1.00553159057364,711,1,0.495333333333333
"eps2[192]",0.000725529605153876,0.216076775591548,-0.457699758828682,-0.142531414512217,0.0142246001378176,0.148138422476663,0.386759830308737,0.99962972818565,1500,1,0.526
"eps2[193]",0.00144421193233819,0.214843784579006,-0.418004652065935,-0.143393253287067,0.00117480019302918,0.151715132483838,0.428524734197677,1.00246395748536,1418,1,0.500666666666667
"eps2[194]",-0.00397832710488582,0.211253659178324,-0.416197396876104,-0.144261142567356,-0.00789890509708632,0.143768558470205,0.414313893832188,1.00107102010598,1012,1,0.513333333333333
"eps2[195]",-0.0162779423428788,0.212193172221958,-0.435629684341643,-0.156538669180476,-0.0209513388742053,0.127077534635133,0.407270140563011,0.999813032952989,1500,1,0.539333333333333
"eps2[196]",-0.00169594230429199,0.213682884465659,-0.417492826465199,-0.1406106743859,-0.00108014164029864,0.144024563123758,0.405693494777713,1.00110647422475,1336,1,0.502
"eps2[197]",0.00118000541469074,0.216622873833271,-0.429637754051208,-0.148150691286391,0.00243482352723308,0.152976095297902,0.428449690915662,1.00235527575465,1500,1,0.506
"eps2[198]",0.00213627487646035,0.203748389619643,-0.392686741485246,-0.139939522616637,0.000921074947062348,0.1402154248869,0.399792126872802,1.00045358326399,1500,1,0.501333333333333
"eps2[199]",0.0042763607590186,0.211456438504594,-0.415316964913055,-0.142030844124822,2.15671032196066e-05,0.145999031517481,0.429797611027211,1.00000315144205,1500,1,0.5
"eps2[200]",-0.00791069660089284,0.209035616436018,-0.399353993633495,-0.148903800710154,-0.0137018887233863,0.134971352463833,0.408547699531514,1.00102720568657,1500,1,0.530666666666667
"eps2[201]",-0.00603561467268567,0.218649756784542,-0.433696099762454,-0.154907162078482,-0.0141628442891275,0.143679377635356,0.42349008066064,1.00091562764532,1500,1,0.522666666666667
"eps2[202]",-0.00536213263517113,0.208120615647355,-0.416903415187,-0.145948131559988,-0.00548934040167164,0.131065904522821,0.387394920510252,0.999631699455863,1500,1,0.512666666666667
"eps2[203]",0.00944663182395793,0.221591847510417,-0.425181346466865,-0.140021680990755,0.00806493509704238,0.154541469785318,0.427101574233725,1.00231156882496,791,1,0.512
"eps2[204]",-0.00862179913454843,0.218273234811352,-0.424274719147785,-0.144986356441466,-0.0137318787903703,0.132066768136565,0.420514647408677,1.00031224189865,1500,1,0.522
"eps2[205]",-0.00505822112639281,0.211999155712943,-0.432384902048937,-0.150121967082627,-0.00325084184710503,0.140656861193455,0.398998387016427,1.00039747582754,1465,1,0.508
"eps2[206]",0.00284458556147334,0.211485763901556,-0.400382085434256,-0.143802750932095,-0.00360655177436105,0.149417802824662,0.405451612853479,1.00146180971177,1025,1,0.493333333333333
"eps2[207]",-0.0105664820400953,0.209733098260185,-0.409243297320971,-0.147383661915409,-0.0195310500666902,0.130164900508079,0.409056492993145,0.999680633609088,1500,1,0.534
"eps2[208]",0.0117874118519077,0.212251014312393,-0.406625989790134,-0.136026766514506,0.0120925828151558,0.153989645537211,0.423245730987097,1.00299836454203,556,1,0.518666666666667
"eps2[209]",0.0117756700914917,0.215665813257857,-0.412724520705795,-0.138740748000663,0.0138994946748332,0.152446374387898,0.447698752882492,1.00004859231735,1500,1,0.529333333333333
"eps2[210]",0.00881366625078668,0.217947576554907,-0.410298890792403,-0.137398285284151,0.0076599781866039,0.160782583045563,0.429897574902914,1.00566484243169,315,1,0.513333333333333
"eps2[211]",0.00437170577108807,0.21356969305139,-0.418007577280092,-0.14204163383367,0.00748548842589135,0.143129783776579,0.428188982966724,1.00112971266905,1500,1,0.51
"eps2[212]",-0.00385449175102762,0.216739201062837,-0.430866143869626,-0.146291889921322,-0.00478077022315893,0.142071917044345,0.420440512182403,0.999748417753332,1500,1,0.509333333333333
"eps2[213]",-0.000831639225657274,0.215899798181463,-0.410400008399187,-0.149585816012763,-1.33892882114781e-05,0.142511633777768,0.403352524203307,1.00006745835771,1500,1,0.5
"eps2[214]",0.00837116894960137,0.218863562196945,-0.419715405006559,-0.14138420297945,0.00552577896767634,0.163024874495224,0.43051392368342,0.999660202175402,1500,1,0.510666666666667
"eps2[215]",-0.00400171514046445,0.211161106074884,-0.424512322159811,-0.147327222112068,-0.00148891486848002,0.138953589750402,0.390089270745149,1.00194026531672,1309,1,0.502666666666667
"eps2[216]",-0.0180475208218578,0.217792044857557,-0.459027003818215,-0.162696407717552,-0.0204177770125272,0.123892793683905,0.427373629980952,0.999214592437616,1500,1,0.532666666666667
"eps2[217]",0.00702093568506813,0.217263343175959,-0.42992808877277,-0.144675217821129,0.00637495986800929,0.157354800664352,0.412678891961041,0.999461463931699,1500,1,0.512
"eps2[218]",0.00850302684137744,0.209830300760483,-0.40899274701866,-0.129632330103977,0.00589694729554129,0.147974280298664,0.419260873809745,1.00092405270707,1500,1,0.508
"eps2[219]",0.00041150053262749,0.213385467564008,-0.438699781483809,-0.144954316384819,0.0113431647268881,0.14714404977494,0.4051258157127,1.00291978382461,693,1,0.518666666666667
"eps2[220]",-0.0206528217098128,0.210084603584343,-0.43276244589233,-0.163170406048122,-0.019656057084274,0.124503826073423,0.387914614074528,1.00173380563713,911,1,0.54
"eps2[221]",0.00364229628524249,0.211351269625037,-0.406549421805913,-0.147246799027014,0.00439760467933132,0.154081528029895,0.41234749539926,1.00386466692396,1208,1,0.507333333333333
"eps2[222]",-0.00302663251640048,0.213275716926235,-0.418354817149425,-0.145416628811142,-0.00244053521260829,0.14616949857267,0.405766858558433,1.00009466372248,1500,1,0.503333333333333
"eps2[223]",-0.0116773277040873,0.217972918550924,-0.436424155445922,-0.168339244876558,-0.013189474115607,0.136370681240529,0.426029035785623,1.00040153476877,1437,1,0.521333333333333
"eps2[224]",0.0237039475890708,0.211175220671143,-0.3759496846794,-0.12253665439356,0.0231930709202043,0.165527621639372,0.451980843973888,1.00404765510254,819,1,0.543333333333333
"eps2[225]",0.00284112076080224,0.216081916392491,-0.411007551402616,-0.143265573794454,0.00521948817510508,0.146186451573396,0.420065664879932,1.00129976094437,1479,1,0.514
"eps2[226]",-0.00311623031706395,0.215295293471812,-0.422748878975334,-0.145959227454601,0.00124177757952395,0.144966186016,0.423095839887538,1.00295695784353,929,1,0.498666666666667
"eps2[227]",-0.00598901340332582,0.213776138481401,-0.41700147484976,-0.14510332573762,0.00538515814748465,0.134085543988597,0.4104106618707,1.00129846279504,919,1,0.492666666666667
"eps2[228]",-0.0123488017444714,0.213820313216719,-0.440126292260185,-0.163318323831705,-0.0102156928003362,0.134967721340724,0.397079251827553,1.0003070475795,1500,1,0.521333333333333
"eps2[229]",0.0129436597486648,0.213083054080562,-0.404766147988586,-0.130874200913827,0.0143394182907023,0.161861754893769,0.434351889636897,1.00053174721754,1500,1,0.526666666666667
"eps2[230]",0.0142746425810817,0.21483579284923,-0.405018378560776,-0.134472109417056,0.0137464750796489,0.158456170970824,0.44875111807666,0.99948376042806,1500,1,0.520666666666667
"eps2[231]",-0.021395409717552,0.207775608992626,-0.426223800634292,-0.156607279111652,-0.0258993967971411,0.118394537996623,0.409414676019557,0.999459592482994,1500,1,0.546666666666667
"eps2[232]",0.00153785811535369,0.207698935378903,-0.410123765128168,-0.136057440961431,0.000932250054891615,0.149346339706096,0.392124651054182,1.00140664976365,956,1,0.503333333333333
"eps2[233]",0.00203944953908913,0.213292080126935,-0.419485487299992,-0.147023185205903,0.0104793731748928,0.149514882897964,0.408152223284975,0.999451556338695,1500,1,0.518666666666667
"eps2[234]",0.0025817209553076,0.208761334919968,-0.416822555838086,-0.135720557447918,0.00682084056853659,0.140377274987481,0.391942355258697,1.00055368754075,1500,1,0.512
"eps2[235]",0.00418166534576333,0.21123417473775,-0.409441616236943,-0.142928026575092,0.00836222808521798,0.144807537512362,0.410896712613233,0.999866555650427,1500,1,0.518
"eps2[236]",-0.00272796217017238,0.211077238589794,-0.428551709513577,-0.139134577146942,-0.000470109564237903,0.139544401863163,0.414255366337348,1.00107657392156,1317,1,0.500666666666667
"eps2[237]",0.0144033884389838,0.211287889154061,-0.392353960953072,-0.131530113769849,0.0105884241992018,0.161873410379599,0.418678534765553,0.999587093128165,1500,1,0.520666666666667
"eps2[238]",-0.00367299028826742,0.2052650032098,-0.403566651517543,-0.137789834772854,-0.00550253175675075,0.144169386721921,0.388941253802868,1.0003711115747,1500,1,0.509333333333333
"eps2[239]",0.000980896111684197,0.209353039082033,-0.430160210305506,-0.133401952322797,-0.000386128030330349,0.146767616537921,0.393517741208566,1.00179536307023,727,1,0.499333333333333
"eps2[240]",-0.00734475049429462,0.212544345577683,-0.416444789349842,-0.153059791884051,-0.0158872986958606,0.137018604011899,0.432346623842607,1.00012990238637,1500,1,0.526666666666667
"eps2[241]",0.0162435427507927,0.214223809674075,-0.407276303105854,-0.123456645043027,0.0198715215906171,0.150750784797956,0.440600122460308,0.999174180258666,1500,1,0.538
"eps2[242]",0.000698441424616124,0.207861034004488,-0.411336415890327,-0.135722185675123,-0.00165679586422988,0.138410159586099,0.429310859765167,1.00045518086117,1500,1,0.497333333333333
"eps2[243]",0.00057471799349839,0.210437353360241,-0.411851157030978,-0.13346127812302,0.00896818022166795,0.14432773580751,0.414577338702643,1.00027941732723,1500,1,0.516
"eps2[244]",-0.00187215384638613,0.213091147401566,-0.411909250044121,-0.149853190003267,-0.0110270647568912,0.142197063985483,0.41269883645938,0.999350222009061,1500,1,0.518
"eps2[245]",-0.00938533652428227,0.212803944784874,-0.438746860588942,-0.149119075734209,-0.0104072534330161,0.132609093835029,0.402441599785939,1.0014414431272,1282,1,0.524666666666667
"eps2[246]",0.0055406626784608,0.211204187020017,-0.396992559429709,-0.138890122646479,0.00731907863712809,0.148685078709988,0.434569618257491,1.00078136773713,1172,1,0.514666666666667
"eps2[247]",0.0158185205524785,0.206181331725786,-0.380058933162997,-0.122440600724942,0.024167007196793,0.152101618852917,0.408226035869463,1.00042915890264,1500,1,0.539333333333333
"eps2[248]",-0.0108290633966706,0.219748012675535,-0.444221727145402,-0.160002695338102,-0.00547355311583475,0.139940379587092,0.408374617857539,1.00237665041714,802,1,0.51
"eps2[249]",0.00735149257375823,0.217751201780213,-0.39818035322914,-0.153005545877714,-0.000643570026921794,0.149382986176752,0.467688909648161,1.00268439980942,646,1,0.498666666666667
"eps2[250]",0.00942132797917574,0.211189432388173,-0.413799893992987,-0.13024833718046,0.00594012699598797,0.158955542204718,0.415525005376995,1.00181139918613,743,1,0.511333333333333
"eps2[251]",-0.00992247843884647,0.213341501211467,-0.426521154861046,-0.154718508616078,-0.00718436055093336,0.137581221852112,0.419166465096742,0.999161802023834,1500,1,0.514
"eps2[252]",0.0166902268599912,0.214450251224559,-0.417769456187371,-0.128608670080382,0.0125266694122924,0.161555767277318,0.429287705357932,1.00151469266919,1031,1,0.522
"eps2[253]",-0.00420965688630229,0.216351999278185,-0.433209860330771,-0.146412710763926,-0.00343854444082057,0.136198223903526,0.434118976763353,1.0013562622546,1500,1,0.502666666666667
"eps2[254]",0.0245114931871501,0.211194059955903,-0.386524115214708,-0.123607362943929,0.0255257427761116,0.169884712022625,0.451202694686193,0.99923929286433,1500,1,0.548666666666667
"eps2[255]",0.00116033530824572,0.217868074435183,-0.420109245580502,-0.147605696800975,0.00358423616756761,0.147760991449251,0.425451745123525,1.00236319319558,1500,1,0.506
"eps2[256]",0.0022748602513578,0.210401386318145,-0.413997472586611,-0.14145588338178,0.00501383849195896,0.143543627904526,0.405706097969832,1.00111308978158,1378,1,0.508666666666667
"eps2[257]",0.0229318296475225,0.214049426633011,-0.39259261916944,-0.121149721063453,0.0278513662036852,0.168539834770402,0.431390923814777,0.999524856225539,1500,1,0.556
"eps2[258]",-0.00136304048215559,0.215963424141172,-0.431272159393553,-0.144984306125582,-0.00125594171124127,0.139241156334372,0.415955723293533,1.00301043048763,532,1,0.503333333333333
"eps2[259]",0.0121808321561742,0.220313966588045,-0.423290230051769,-0.135800477277926,0.0148901289809409,0.16152251692868,0.432809718423355,1.00577057211573,309,1,0.526
"eps2[260]",0.00453672297177481,0.219713422905087,-0.450392229477811,-0.143475382802902,0.00944427091802321,0.148700291301525,0.438987143070828,1.00043604218135,1500,1,0.517333333333333
"eps2[261]",-0.00627174126686273,0.208338330672189,-0.414863343045617,-0.145373188089919,-0.00838866624712389,0.12827139497219,0.404193180837109,1.00039632657414,1500,1,0.518666666666667
"eps2[262]",0.00809135884119602,0.215783016017742,-0.41919228220317,-0.14418478005549,0.0180359942535973,0.150560787419089,0.430124489879359,1.00114589600413,1500,1,0.525333333333333
"eps2[263]",-0.0048218968715182,0.211626908728691,-0.403083224588131,-0.159795684464714,-0.00415355124710837,0.14390860637833,0.41023039343496,0.999815290405728,1500,1,0.509333333333333
"eps2[264]",-0.00776920784318761,0.205720229935306,-0.396490818758475,-0.144362840868321,-0.00498764231462034,0.131973186007029,0.376173204677378,1.00188603633619,1500,1,0.511333333333333
"eps2[265]",-0.0119916226453753,0.208090974314544,-0.421051514650982,-0.150873247154467,-0.0141390071345272,0.126020485283771,0.389026063921786,1.00046964669286,1444,1,0.522666666666667
"eps2[266]",0.0025463482739628,0.20909011376703,-0.396549397090593,-0.137478750761477,-0.000370790448978479,0.151576148181327,0.405905093819155,1.00683885607812,297,1,0.496666666666667
"eps2[267]",0.00349159330362348,0.211416023032321,-0.408449150789002,-0.135498423037664,0.00245369540587721,0.147093556835844,0.419320018938762,0.999804951964918,1500,1,0.506
"eps2[268]",0.00812593672667042,0.209143060573767,-0.391589018702752,-0.135521019108183,0.00999773028550891,0.144920360095302,0.442658744265235,1.00179218219663,919,1,0.524666666666667
"eps2[269]",0.00915500825157404,0.20854820194013,-0.39441593540688,-0.128765853254473,0.0151252634773451,0.150668997956133,0.404098011523437,1.00068466446455,1500,1,0.529333333333333
"eps2[270]",0.00377368821646561,0.212957037186928,-0.423895357878186,-0.135798475829887,-0.00146889661730895,0.144086867976468,0.430240301108716,0.999639992438882,1500,1,0.497333333333333
"eps2[271]",0.00246000187687459,0.21182265767894,-0.414792013287304,-0.144660958533836,0.00793391387350964,0.14580392154295,0.412840372873237,1.00397241218249,548,1,0.514666666666667
"eps2[272]",0.00480007472933216,0.214140202519129,-0.418136874332455,-0.141456670089293,0.00748833135151185,0.154312434984603,0.400327680697093,0.999120928634877,1500,1,0.518666666666667
"eps2[273]",0.00357118608756473,0.217580592711576,-0.418761623773327,-0.13936045809676,0.00628496540512189,0.15819466899165,0.412277850382744,1.00668441489322,297,1,0.507333333333333
"eps2[274]",0.0226898545863607,0.214038933830904,-0.393172207449805,-0.119218595039555,0.0215533292580034,0.169059398380977,0.446827760367526,1.00147347244553,1041,1,0.542
"eps2[275]",0.00712351695921406,0.214980912193367,-0.418604189460754,-0.13361900600951,0.00577787892646321,0.14696625964835,0.432581317460712,1.00054847764317,1419,1,0.509333333333333
"eps2[276]",-0.0136170098373641,0.211006608070801,-0.427459588132536,-0.155419641413626,-0.0141206495232794,0.138363028480017,0.392857060648373,0.999505509735978,1500,1,0.523333333333333
"eps2[277]",0.00306014626926613,0.214861491915506,-0.422865954814598,-0.144584469005271,0.00298421794688831,0.147196699484059,0.429096956435809,1.00050279179684,1500,1,0.508
"eps2[278]",0.00240644352246708,0.218069148199658,-0.429744148080101,-0.136016764183566,-0.00751192156367253,0.150868880131492,0.421374805601559,1.00048886837913,1435,1,0.488
"eps2[279]",-0.014236229564613,0.217322379275856,-0.432917635040936,-0.160050658461634,-0.0231837321395675,0.131508202021232,0.416586258052331,1.0055338603498,363,1,0.536
"eps2[280]",-0.00907246216495283,0.209844467541024,-0.421709954182154,-0.151700959726876,-0.00984871269212956,0.132600933411066,0.399012878906504,1.00153113769731,1500,1,0.518
"eps2[281]",0.01400813753063,0.21517851693088,-0.38430347313877,-0.138745730404412,0.0123899689569215,0.161042558072237,0.420449334778,1.00066594977332,1500,1,0.527333333333333
"eps2[282]",0.00564056972104104,0.223367217606807,-0.423133103919678,-0.144350682042725,-0.000593004620577833,0.155628814442058,0.45256458192822,1.00046744368619,1500,1,0.499333333333333
"eps2[283]",0.000431958789793605,0.209849975123034,-0.40173085627811,-0.137459213143938,0.00391006629163167,0.145393464257399,0.403715465344252,1.00620642437987,296,1,0.51
"eps2[284]",-0.00508305146138898,0.211331246359611,-0.408792872731858,-0.150058595279412,-0.0101815821542575,0.13647513902819,0.427358551024892,1.00249663675728,619,1,0.517333333333333
"eps2[285]",0.00203488611220966,0.20949096675312,-0.412457269796558,-0.14144321096487,-6.62181959413047e-05,0.148708779555094,0.404575075487755,0.999308226485392,1500,1,0.5
"eps2[286]",0.00551529948108022,0.212782261642432,-0.413041426670019,-0.136254520334292,0.00775203150171527,0.15052217502228,0.402801014122205,1.00180690864296,734,1,0.516666666666667
"eps2[287]",-0.00752959694634466,0.214051531659417,-0.421751769523719,-0.152638889801126,-0.00402687837441753,0.131117637818397,0.410087972140089,0.999347067067346,1500,1,0.510666666666667
"eps2[288]",0.0022949231948216,0.214590645639369,-0.419926268267504,-0.138634334782014,0.00228869451208953,0.146535911139311,0.426190843974264,1.0005599831309,1500,1,0.505333333333333
"eps2[289]",-0.00699507868924658,0.208797346689149,-0.402467082540698,-0.146389189091151,-0.0108052699192478,0.129905558391868,0.414372436690713,1.00027760392204,1500,1,0.522666666666667
"eps2[290]",0.0102274817835582,0.206584540471814,-0.397045496942253,-0.137339161014715,0.0161380584365679,0.154012145224404,0.395268544896296,1.00005277270377,1500,1,0.525333333333333
"eps2[291]",-0.00481497187146381,0.210194787848272,-0.417615510173219,-0.13818226873517,-0.00415644815967965,0.128402345935331,0.400927202984521,1.00046498115554,1500,1,0.508
"eps2[292]",-0.0160289139340242,0.208683341331373,-0.446966020962208,-0.155070040769822,-0.0116710670820433,0.120251149282388,0.39398015826746,1.00067838297943,1339,1,0.522666666666667
"eps2[293]",-0.00743119259416467,0.223883300174825,-0.436123237824571,-0.164588207603615,-0.00719198066164409,0.149200887022353,0.417755884411909,0.999929437477283,1500,1,0.512666666666667
"eps2[294]",0.00436931826513046,0.208554262513947,-0.411654012222071,-0.134394553770139,0.00192863949111659,0.152613597428048,0.412374087672232,0.99960564361504,1500,1,0.504666666666667
"eps2[295]",0.000823345683239648,0.212438327986258,-0.422985052321647,-0.143798074044577,-0.00431816707651378,0.143206845406115,0.417641872382199,1.00001232165033,1500,1,0.49
"eps2[296]",-0.0172489888756688,0.206087477517441,-0.40528250165237,-0.159982863661484,-0.0239078411331945,0.125100083824973,0.38023741871362,1.00139381028758,1500,1,0.533333333333333
"eps2[297]",-0.00824605542393486,0.207465151546,-0.422394840568318,-0.144790168599295,-0.00488516098997051,0.125981039285484,0.381321175664312,1.00097798321668,1314,1,0.508666666666667
"eps2[298]",-0.00225213098941649,0.214124584445541,-0.449767428896988,-0.141361229316915,0.00327047070379663,0.143815405352574,0.397500849654056,0.999871755528949,1500,1,0.494666666666667
"eps2[299]",-0.00730049212433531,0.216721213588416,-0.433361030481131,-0.152824462416026,-0.00882184978985313,0.140136733510225,0.424226969240224,1.00105802399426,1500,1,0.512
"eps2[300]",0.0104798156900249,0.21632625721204,-0.405873226112369,-0.138625595391661,0.00228995909563995,0.157216704437305,0.438328015410465,0.999627442487215,1500,1,0.504666666666667
"eps2[301]",-0.00330550498823715,0.210585915488634,-0.40808356024148,-0.148333288196105,-0.00656404873854302,0.135561552395449,0.405778146667226,1.00130133054557,1500,1,0.511333333333333
"eps2[302]",-0.0054890862658293,0.215291347385307,-0.437048829248111,-0.138105573023059,0.000344141827566258,0.129908940309713,0.411676097403518,1.00322099683348,1024,1,0.497333333333333
"eps2[303]",0.00978390421094381,0.221405343937651,-0.424079325906684,-0.138711693724497,0.0131303429233974,0.159697943059749,0.43480608546198,0.999765221243495,1500,1,0.525333333333333
"eps2[304]",-0.00553723763572331,0.205440552817855,-0.407080856458534,-0.150652881189662,-0.00599416728212084,0.136305254111158,0.400053758509632,1.00026791555344,1500,1,0.512666666666667
"eps2[305]",-0.00447318997408885,0.215319861697622,-0.434429140553757,-0.14739943884505,-0.000634595424022659,0.133451598737613,0.408663511255206,0.999583990222498,1500,1,0.502
"eps2[306]",-0.0077170453505605,0.212839213708843,-0.413428850673497,-0.149740976957626,-0.00370096617407228,0.135595678223711,0.399979158718577,1.00115652017092,1500,1,0.505333333333333
"eps2[307]",-0.00650676016538601,0.210824102533181,-0.40919639647431,-0.151651167618731,-0.00669730353066828,0.140336442620986,0.400783454844998,1.00160823782289,861,1,0.508666666666667
"eps2[308]",-0.00566788691473923,0.213132807959853,-0.418133773737281,-0.146184362447452,-0.00643227332186955,0.13543773246508,0.424945443707527,1.00018562697296,1500,1,0.515333333333333
"eps2[309]",-0.00552174783143851,0.212349622797902,-0.441877937439194,-0.145875259385507,-0.00195778761121418,0.138605044605049,0.397932601681123,1.0011529858421,1293,1,0.502666666666667
"eps2[310]",-0.00250424389006513,0.215712435529178,-0.421005135542005,-0.152606133352672,-0.00416201733066429,0.143158531554286,0.41600746774052,1.00053713934775,1310,1,0.512
"eps2[311]",0.0113851898148672,0.208000102405304,-0.403486911993492,-0.129935933129109,0.0122843760345488,0.152067312930129,0.414207809297626,1.0019769922545,1500,1,0.518
"eps2[312]",0.0141409739763149,0.215724054148968,-0.423639058899556,-0.125041696169536,0.00816644893856763,0.165595678442299,0.419738989558011,1.0010903613604,1304,1,0.516
"eps2[313]",-0.00468631093923859,0.21335382147762,-0.427205885216889,-0.147939348154706,0.00247928558239047,0.143315082958257,0.40680972211005,1.00023489565307,1500,1,0.496666666666667
"eps2[314]",0.000147959047020066,0.215134576276314,-0.416606849833242,-0.147064246188562,-0.00731144983017042,0.154772000259088,0.420350604289742,0.999750850482715,1500,1,0.488
"eps2[315]",8.41414154813223e-05,0.209654730356782,-0.413192243448095,-0.138941532375455,-0.00456541891968921,0.146401680677259,0.404768700043797,1.00069443224362,1500,1,0.493333333333333
"eps2[316]",-0.00133724334306099,0.209734990068967,-0.403083334460706,-0.136346084190155,0.00049925633368561,0.1263147724235,0.410145670700269,1.00345528978703,511,1,0.499333333333333
"eps2[317]",-0.000175757715930553,0.209342821951178,-0.392731083013638,-0.146893772719346,-0.00104649988668745,0.142149563728045,0.415010445709033,1.00316715439193,672,1,0.502666666666667
"eps2[318]",-0.00326856974131332,0.209300191522286,-0.40469042790259,-0.139116287715706,-0.00225460830208361,0.139979150712395,0.392224394206755,1.00094726849238,1478,1,0.504666666666667
"eps2[319]",0.0128279708925249,0.213723867240233,-0.42173403430768,-0.12644435311323,0.0179459534658075,0.147235155249034,0.442481028703457,1.00051208420511,1351,1,0.536
"eps2[320]",0.00907014511892561,0.210214306311994,-0.404244434402914,-0.132784559983205,0.00472740706907185,0.15375093784424,0.413105798449173,1.00136431250695,1251,1,0.512
"eps2[321]",0.00257042853758836,0.212804440839915,-0.412962167313953,-0.142624846663407,-0.000840262738968117,0.148613934751494,0.445108932757227,1.00010327398008,1500,1,0.498666666666667
"eps2[322]",0.0105045304140072,0.212896475324217,-0.392133690340278,-0.141933774753259,0.013857748948152,0.153977810812861,0.449376155716012,1.00203725516605,683,1,0.53
"eps2[323]",7.83578456598998e-05,0.216598894602141,-0.405654318709304,-0.15605418030406,-0.000192425224597947,0.142109351605662,0.422254101509186,1.00179978299413,1488,1,0.499333333333333
"eps2[324]",0.0098771491587346,0.225063282947038,-0.433808356655494,-0.13615727213748,0.0106717740253819,0.161700210598598,0.433067627072855,0.999839637423393,1500,1,0.516666666666667
"eps2[325]",-0.0114431421824542,0.208498123509049,-0.439007307568054,-0.153126481881544,-0.0096003344540226,0.123755025360912,0.403590510456323,1.0004203680134,1500,1,0.516
"eps2[326]",-0.0049502433864179,0.208872106163209,-0.41898940590977,-0.145433199008656,-0.00634360418163775,0.136951174624427,0.408488943287585,0.9999961098215,1500,1,0.512666666666667
"eps2[327]",0.000802264601794808,0.217797064299385,-0.442072223462826,-0.132956862511597,0.00100864533169761,0.144407828867431,0.414838200595777,1.00180841751007,873,1,0.504666666666667
"eps2[328]",0.0110470427815756,0.214354570355869,-0.426937900255833,-0.132762922089897,0.00983999458628856,0.164679758299158,0.418820396810829,0.999914903744143,1500,1,0.517333333333333
"eps2[329]",0.000122379569193329,0.212166306619103,-0.409029810364132,-0.14475041975674,0.0008705486460443,0.151058317695861,0.406567701880218,0.999482154747006,1500,1,0.502666666666667
"eps2[330]",0.00581348907685796,0.208628830685945,-0.398381425882182,-0.137369481967914,0.00548533143749834,0.148675411418771,0.425062707467903,1.00073418720292,1175,1,0.512
"eps2[331]",-0.000385819454246393,0.215375653173615,-0.438134157098028,-0.142566400234403,0.00300620920070352,0.138047567407438,0.436217594410414,0.999399173543346,1500,1,0.494666666666667
"eps2[332]",0.0147570898840692,0.200711349912153,-0.385301192889688,-0.118488448874421,0.0116794287770072,0.148555027158735,0.395794895577327,1.00132314155939,1117,1,0.526666666666667
"eps2[333]",-0.00258567667663595,0.218548532745693,-0.406855073067908,-0.155160243447712,-0.0103425276023044,0.14181547972789,0.44229578866998,0.999997794525187,1500,1,0.514666666666667
"eps2[334]",0.00519503206015448,0.218710730586891,-0.418459393408232,-0.139270315398979,0.00850848998829395,0.148858077919563,0.430101153758399,1.00075256124055,1286,1,0.516
"eps2[335]",-0.00371982771853407,0.210292605679399,-0.394825133507556,-0.142298215953551,-0.00954115090937557,0.139287129642828,0.410669775222359,1.00051868358706,1494,1,0.516666666666667
"eps2[336]",-0.000724530831437932,0.213322465658485,-0.421085997947235,-0.150164697797786,-0.00625713114897487,0.144343158217287,0.424083059490165,1.00158657291912,922,1,0.509333333333333
"eps2[337]",-0.00337314227333316,0.208610788704159,-0.422811183683986,-0.145503144764876,0.00740662809387237,0.126708613788154,0.413367319603409,0.999971372636131,1500,1,0.49
"eps2[338]",-0.00207949625137837,0.208991152854142,-0.416243591932417,-0.13355074592208,-0.00437206479859639,0.135275117080919,0.391690857494296,0.999939611381579,1500,1,0.506666666666667
"eps2[339]",0.011438792091956,0.214942944874996,-0.407335755486302,-0.135449447476811,0.0093063347508614,0.160612311240641,0.42738172403057,1.00033760860699,1500,1,0.511333333333333
"eps2[340]",-0.00472796070093833,0.211599379783267,-0.414637130891714,-0.140722443481637,-0.00981501108384879,0.13520194636007,0.416564145566957,0.999914821887923,1500,1,0.517333333333333
"eps2[341]",0.0105731486632276,0.207226175763666,-0.392136263154661,-0.12765946172143,0.00615234641656473,0.144780505304982,0.415243732562305,1.00144289629149,1213,1,0.512
"eps2[342]",0.00361724338837331,0.207930168757226,-0.392432323384506,-0.138620024370991,0.00119754761189145,0.139968970726581,0.422526354194424,1.00063706558298,1500,1,0.502
"eps2[343]",0.000527213564960873,0.216222645580801,-0.428286267656548,-0.146603340170959,3.94846820743339e-05,0.146752263876082,0.40907975454763,0.999765619728242,1500,1,0.5
"eps2[344]",0.000553243508826641,0.207483606518134,-0.409474640615162,-0.128463435897026,-0.00179006678423881,0.131199900097066,0.404390027201748,0.999978678674844,1500,1,0.498
"eps2[345]",-0.00108816088539418,0.216325282244133,-0.426651121219791,-0.147658671631914,-0.00425829143369727,0.14556400002569,0.412510014864651,1.00109414758578,1164,1,0.506
"eps2[346]",0.0010446884360223,0.214666144700536,-0.411521052772728,-0.143390662438526,-0.000618085165626768,0.146904189706531,0.418553612537838,1.00092666474227,1489,1,0.498666666666667
"eps2[347]",-0.00117255292162806,0.217002513367908,-0.434097095226825,-0.141217642243285,0.00257094615419259,0.142548864564978,0.420674853494809,1.00363923795907,463,1,0.495333333333333
"eps2[348]",0.00364142301433731,0.21027375681908,-0.413713569606697,-0.138487334752238,0.00296190714489802,0.156597296269701,0.404761077622954,1.00114364279356,959,1,0.502666666666667
"eps2[349]",-0.00520245588530982,0.213156550043128,-0.428287948806897,-0.15523532631875,-0.00214685416006372,0.144394302703532,0.407787380082227,1.00018697847592,1500,1,0.503333333333333
"eps2[350]",-0.0116385460162532,0.211592647630538,-0.422044052539718,-0.154676846040826,-0.018200061313711,0.132727155374323,0.386211675473422,1.00187304070789,1130,1,0.537333333333333
"eps2[351]",-0.00257543843469973,0.217443427629341,-0.41364472961437,-0.153182394698216,-0.0125806480401675,0.146289125107449,0.433883712163964,0.999737767286497,1500,1,0.518666666666667
"eps2[352]",0.00425383385553441,0.215206637552283,-0.39514470420339,-0.14220567428627,0.00459575831585137,0.151872869325585,0.440411225323455,1.00078386598533,1304,1,0.510666666666667
"eps2[353]",-0.00750227675428498,0.211252774760069,-0.428968021450603,-0.147361842030904,-0.000689502797982758,0.129320531169134,0.397948786328164,1.0005192671411,1500,1,0.501333333333333
"eps2[354]",-0.000151275211067945,0.216553148366231,-0.421067179687307,-0.148861271623224,-0.00033032442328694,0.150899996418319,0.426639302846491,1.00060914792788,1500,1,0.501333333333333
"eps2[355]",0.00148544242005891,0.212403431144482,-0.414515307780077,-0.144321515489177,-0.0017377925366143,0.144267930113144,0.438046112795306,0.999941426620213,1500,1,0.497333333333333
"eps2[356]",-0.00238766861780043,0.207710790858562,-0.408111152848853,-0.139199061000838,-0.00312444543001161,0.135664473820194,0.401817848247908,1.00297269801394,605,1,0.506666666666667
"eps2[357]",-0.00566408987575855,0.213049437389481,-0.423516440759762,-0.148227858577119,-0.00527422262004585,0.140428143103744,0.397002207577878,0.999523407930497,1500,1,0.508666666666667
"eps2[358]",0.0020868495522017,0.216221372412405,-0.41653572302979,-0.139350555159271,-0.00290805358782603,0.145673132922685,0.418740729135162,1.0011963569413,950,1,0.496
"eps2[359]",0.00108714513309872,0.219468591065535,-0.413447583979786,-0.157563803865974,0.00336889318320688,0.143602636154215,0.428834533200482,1.00204335136628,695,1,0.506
"eps2[360]",0.00195365300539564,0.205593407652472,-0.384779107931581,-0.138071410501858,-0.00516683262425851,0.132417783689621,0.437337940395285,1.00019324479491,1500,1,0.490666666666667
"eps2[361]",0.00023441691235491,0.211818097472206,-0.415152823888822,-0.13868991299435,0.00459246880939459,0.139312073009788,0.408687414630825,1.00001633659194,1500,1,0.508
"eps2[362]",-0.0025048360790988,0.213431155147526,-0.442264331112991,-0.138812856119449,0.00169240902585195,0.133949886479042,0.417503304453558,1.0008657983664,1500,1,0.495333333333333
"eps2[363]",-0.0108137823800649,0.207488667191114,-0.426536514124562,-0.144216663151039,-0.00609199377137334,0.126027951958867,0.407904095492321,1.00208258757147,1129,1,0.514
"eps2[364]",-0.0133522927782919,0.214236766211061,-0.432966653558473,-0.159766437861748,-0.0128684205296224,0.128613604543088,0.426214632017463,1.00017413799149,1500,1,0.522
"eps2[365]",-0.00774576614167165,0.209334962613089,-0.404110430909968,-0.154714692226564,-0.00638504984786932,0.130818741308443,0.415364253314,1.00321200111133,1417,1,0.514
"eps2[366]",-0.00362747026572485,0.20749361666744,-0.419048278630906,-0.133892957728041,-0.0103736060274321,0.139564808342879,0.404603722285198,1.00114416408595,1500,1,0.519333333333333
"eps2[367]",-0.00632484656967768,0.212273223618037,-0.407789204214536,-0.150148720912496,-0.00412198652635154,0.134024924966312,0.411064951816099,1.00326226143418,607,1,0.511333333333333
"eps2[368]",-0.00267972239825058,0.215674826779298,-0.435810779671598,-0.1524099985276,0.00312022188550126,0.132712112170583,0.413040903383587,1.00098876885893,1365,1,0.489333333333333
"eps2[369]",-0.00664664453733824,0.213474186095532,-0.418288592475894,-0.147127925223672,-0.0113730828748665,0.136010601027375,0.414865016755854,1.00239618972137,1139,1,0.518
"eps2[370]",-0.0132656905018032,0.216506626179934,-0.435575373903279,-0.166261127920929,-0.0147633145579594,0.136307978691406,0.412435902375458,1.00061733258601,1300,1,0.525333333333333
"eps2[371]",0.00107580361841952,0.205497224728032,-0.406580462168401,-0.135249498494314,0.00281640211433954,0.143707250428564,0.397799455788913,1.00029196602676,1500,1,0.505333333333333
"eps2[372]",-0.0165739842417304,0.212224800203911,-0.420442563233878,-0.160477562857576,-0.0175862184232765,0.131425300194019,0.399583006059045,1.00034218945099,1500,1,0.528666666666667
"eps2[373]",-0.0104951981883101,0.208995221874568,-0.408120346645377,-0.153099311832599,-0.00758235702160947,0.134435903348399,0.387656291495556,1.00171324493878,1216,1,0.512
"eps2[374]",-0.00107634655827873,0.210443587821823,-0.401321638338204,-0.145973674145755,-0.00265714502418771,0.145508422662998,0.408497661465335,0.999998913534558,1500,1,0.503333333333333
"eps2[375]",-0.00489230660878096,0.206415084871721,-0.417338483291727,-0.145055195066012,-0.00715668102524215,0.138971140616628,0.416062482735983,1.00054686360738,1500,1,0.51
"eps2[376]",-0.00763932332424432,0.210963123952112,-0.409398284543153,-0.146689652906901,-0.0101256159303309,0.128631871767393,0.419612610181882,0.99994436446685,1500,1,0.524
"eps2[377]",0.00427988684050671,0.213792486594581,-0.419194016298448,-0.134163249421611,0.00119605153858886,0.153608953138308,0.410040155614069,1.00027757380027,1500,1,0.501333333333333
"response[1,1]",154.053623739818,1.51079437961798,151.063976397054,153.046981437333,154.031154493155,155.115792745519,156.935665164716,0.99909877450758,1500,0,1
"response[2,1]",153.982123107492,1.47991838081639,151.081715904699,152.99336638782,153.967371344694,155.018973425949,156.783775403912,0.99910502059352,1500,0,1
"response[3,1]",153.910622475165,1.44948200784203,151.070597814255,152.947855823587,153.898453185704,154.932536407321,156.674605810212,0.999113837574726,1500,0,1
"response[4,1]",153.839121842839,1.41951353957049,151.052955668679,152.901876093313,153.816468567046,154.839141685583,156.55599944166,0.999125518868333,1500,0,1
"response[5,1]",153.767621210513,1.39004323953494,151.026048172248,152.851904560509,153.751195697277,154.729824862577,156.412782608519,0.999140382155507,1500,0,1
"response[6,1]",153.696120578187,1.36110346679312,151.024442382394,152.798794478592,153.68760907685,154.635054469617,156.296609642257,0.999158769528953,1500,0,1
"response[7,1]",153.624619945861,1.3327287824769,150.981396201826,152.738744111333,153.621393080288,154.548919083258,156.184955814781,0.999181047037919,1500,0,1
"response[8,1]",153.553119313534,1.30495604859134,150.964064602201,152.680021777161,153.551472373448,154.45895007493,156.075764827424,0.999207603447629,1500,0,1
"response[9,1]",153.481618681208,1.27782451481199,150.9441662357,152.644169166134,153.472898094409,154.379271948377,155.939464209394,0.999238848002081,1500,0,1
"response[10,1]",153.410118048882,1.25137588810897,150.905887736082,152.604348285113,153.410309113448,154.2880336619,155.795457940412,0.999275206952084,1500,0,1
"response[11,1]",153.338617416556,1.22565437902093,150.894247490134,152.540506516607,153.340832588335,154.201791080671,155.660941200067,0.999317118590057,1500,0,1
"response[12,1]",153.26711678423,1.20070671734295,150.850678326527,152.484979900412,153.268399978178,154.101341816107,155.530403885925,0.999365026523408,1500,0,1
"response[13,1]",153.195616151903,1.17658212893041,150.788594968191,152.445043535974,153.200294766437,154.006134627864,155.41168165012,0.999419370926432,1500,0,1
"response[14,1]",153.124115519577,1.15333226433278,150.724155459595,152.38664234117,153.137759121777,153.921493464158,155.280755773954,0.999480577543,1500,0,1
"response[15,1]",153.052614887251,1.13101106916342,150.682408271077,152.332137758289,153.073294016994,153.853455815537,155.173185452687,0.999549044279827,1500,0,1
"response[16,1]",152.981114254925,1.10967458562231,150.688340728321,152.265946233501,152.974522525075,153.767647539664,155.089174494389,0.999625125340427,1500,0,1
"response[17,1]",152.909613622599,1.08938067458925,150.632505397158,152.212892748555,152.89146450829,153.666212273065,154.979356618158,0.999709113009403,1500,0,1
"response[18,1]",152.838112990272,1.07018864839226,150.577179437811,152.156374346682,152.823681944708,153.578721924431,154.860454421721,0.999801217413525,1500,0,1
"response[19,1]",152.766612357946,1.05215880593825,150.563281264231,152.089922413212,152.753896441268,153.500027334635,154.751896295707,0.999901544853238,1500,0,1
"response[20,1]",152.69511172562,1.03535186456866,150.540252855228,152.015492133784,152.684879015677,153.418598651918,154.686346300646,1.0000100756087,1500,0,1
"response[21,1]",152.623611093294,1.0198282869213,150.528947415704,151.955396306584,152.610675436752,153.326201391894,154.612083780949,1.00012664245123,1500,0,1
"response[22,1]",152.552110460968,1.00564750630154,150.503944054922,151.894269428551,152.541992088117,153.234413833744,154.542590691908,1.00025091139998,1500,0,1
"response[23,1]",152.480609828641,0.992867060508515,150.478646253302,151.843553619391,152.462408911997,153.156899430756,154.448475688636,1.00038236650183,1500,0,1
"response[24,1]",152.409109196315,0.981541651455386,150.425346019402,151.782013288978,152.397491332341,153.079131159282,154.343506572986,1.00052030052326,1500,0,1
"response[25,1]",152.337608563989,0.971722155776718,150.362895263336,151.717885883474,152.322778703322,152.979585933504,154.259533219294,1.00066381336576,1500,0,1
"response[26,1]",152.266107931663,0.963454619221671,150.318785826786,151.662086247226,152.260927014782,152.900582170039,154.197396998709,1.00081181970734,1373,0,1
"response[27,1]",152.194607299337,0.956779274105808,150.256942747478,151.594040591461,152.199977304869,152.82937880604,154.099646643923,1.00096306681156,1254,0,1
"response[28,1]",152.12310666701,0.951729623477137,150.228198035873,151.52708342274,152.118517291583,152.745818535535,154.040541624171,1.00111616265729,1152,0,1
"response[29,1]",152.051606034684,0.948331637053235,150.177002336558,151.452653730229,152.042091242321,152.671887687514,153.95795331388,1.00126961359408,1064,0,1
"response[30,1]",151.980105402358,0.946603101756403,150.065494244174,151.38011955185,151.958980931675,152.597838863453,153.863477607103,1.00142186973714,990,0,1
"response[31,1]",151.908604770032,0.946553163567822,149.993309673734,151.3009748338,151.889282430938,152.528687241831,153.791204548947,1.00157137542401,926,0,1
"response[32,1]",151.837104137706,0.948182087709054,149.907631057527,151.239433111707,151.823157553363,152.456962090486,153.748997844078,1.00171662140753,871,0,1
"response[33,1]",151.765603505379,0.951481251644501,149.821480385032,151.17047304898,151.745482862946,152.391400965087,153.682782437297,1.00185619517446,823,0,1
"response[34,1]",151.694102873053,0.95643337133138,149.744550419443,151.109288266913,151.66236634393,152.318182722071,153.626049214811,1.00198882591015,783,0,1
"response[35,1]",151.622602240727,0.963012947030449,149.667349178107,151.041463976901,151.604665083909,152.254975586653,153.566121957003,1.00211342116989,748,0,1
"response[36,1]",151.551101608401,0.971186902345202,149.580898893658,150.960322487931,151.537260622121,152.19259820264,153.534452977213,1.00222909317768,718,0,1
"response[37,1]",151.479600976075,0.980915380250562,149.49192258045,150.892617787784,151.462357152258,152.118211016795,153.506719184786,1.00233517371473,693,0,1
"response[38,1]",151.408100343748,0.992152653538747,149.391456165326,150.800983582002,151.398611372784,152.049194423172,153.442343970459,1.00243121763186,672,0,1
"response[39,1]",151.336599711422,1.00484810465189,149.32991560144,150.713823132229,151.328086617782,151.975443781335,153.381782159089,1.00251699597011,654,0,1
"response[40,1]",151.265099079096,1.01894723107119,149.222480417841,150.62633832165,151.260028930918,151.922753882722,153.345268445717,1.00259248039302,638,0,1
"response[41,1]",151.19359844677,1.03439263666145,149.108874633998,150.53134643349,151.195745594176,151.85241490008,153.297456964537,1.00265782107188,626,0,1
"response[42,1]",151.122097814444,1.05112497574639,148.995340268194,150.445912615604,151.129261276583,151.78795708623,153.263447576747,1.00271332031532,615,0,1
"response[43,1]",151.050597182117,1.06908382425463,148.882360959175,150.367500671857,151.0637184275,151.742239464569,153.199663664235,1.00275940413378,607,0,1
"response[44,1]",150.979096549791,1.0882084601374,148.779619316734,150.287283786569,150.982921965839,151.681441890657,153.162778905383,1.00279659365068,600,0,1
"response[45,1]",150.907595917465,1.10843854269551,148.675394835853,150.193402601825,150.895971860453,151.626844112224,153.124900236657,1.00282547788222,595,0,1
"response[46,1]",150.836095285139,1.12971468696212,148.553154219884,150.105577253785,150.83710738763,151.568638952526,153.089925802322,1.00284668897998,591,0,1
"response[47,1]",150.764594652813,1.15197893458584,148.42838488112,150.017630917456,150.766054084078,151.506836319213,153.077821055209,1.00286088061964,588,0,1
"response[48,1]",150.693094020486,1.17517512665465,148.317174787679,149.924545232304,150.693800866216,151.438799884134,153.053213878139,1.00286870985789,586,0,1
"response[49,1]",150.62159338816,1.19924918664665,148.24191715714,149.835514083561,150.620565917579,151.38819664585,153.031034673392,1.00287082249353,585,0,1
"response[50,1]",150.550092755834,1.22414932333608,148.129725675311,149.750022609984,150.552673437822,151.33713815712,153.012894834384,1.00286784175732,585,0,1
"response[51,1]",150.478592123508,1.24982616421739,147.967170467975,149.658280311136,150.477712518124,151.277350843303,152.996506617977,1.00286036001745,586,0,1
"response[52,1]",150.407091491182,1.27623283004597,147.837097952933,149.566436716253,150.407522608366,151.222372226723,152.981526070844,1.00284893310973,588,0,1
"response[53,1]",150.335590858855,1.303324960629,147.726014345318,149.482523445223,150.336059885552,151.171068323598,152.966762019485,1.00283407687416,590,0,1
"response[54,1]",150.264090226529,1.33106070120662,147.65154557033,149.401541658639,150.282221781103,151.115437841616,152.951997968125,1.00281626548482,592,0,1
"response[55,1]",150.192589594203,1.35940065778319,147.543701562901,149.298931164793,150.208233235212,151.057965675041,152.931492165272,1.00279593118986,595,0,1
"response[56,1]",150.121088961877,1.38830782870829,147.428277092851,149.199015528753,150.126080616511,150.996618092181,152.895073040219,1.00277346512038,598,0,1
"response[57,1]",150.049588329551,1.41774751874609,147.288372535865,149.114626890892,150.055790690436,150.939273617287,152.86758976456,1.00274921887642,602,0,1
"response[58,1]",149.978087697224,1.44768724086224,147.175775774366,149.031390339697,149.982567618889,150.894994281993,152.865161839023,1.00272350664655,606,0,1
"response[59,1]",149.906587064898,1.47809661003149,147.043504843987,148.936352271598,149.903100041997,150.84817243262,152.860481858174,1.00269660766477,610,0,1
"response[60,1]",149.835086432572,1.50894723254476,146.920095895247,148.833372056702,149.833358211671,150.798897206309,152.847029000627,1.00266876885013,615,0,1
"response[61,1]",149.763585800246,1.54021259357565,146.776185841203,148.738395989312,149.755941623353,150.739669836764,152.81644572998,1.00264020751075,619,0,1
"response[62,1]",149.69208516792,1.57186794515322,146.63227578716,148.647469364175,149.670964451249,150.691645632151,152.811345416486,1.0026111140247,624,0,1
"response[63,1]",149.620584535593,1.60389019617242,146.500032870517,148.53753001855,149.599941415416,150.651493778347,152.817500777601,1.00258165443488,629,0,1
"response[64,1]",149.549083903267,1.63625780564753,146.371405754446,148.453346976947,149.5246806014,150.601625104507,152.824287633497,1.00255197291567,634,0,1
"response[65,1]",149.477583270941,1.66895068006624,146.250509541261,148.357058655623,149.459190716501,150.567732587721,152.819303042537,1.00252219408422,639,0,1
"response[66,1]",149.406082638615,1.70195007542268,146.123088079543,148.267644948089,149.36971668392,150.49934075604,152.793216002505,1.00249242514164,645,0,1
"response[67,1]",149.334582006288,1.73523850428569,146.002992792456,148.174995206263,149.292960669463,150.447044295201,152.794260663423,1.00246275783815,650,0,1
"response[68,1]",149.263081373962,1.76879964808529,145.858819607661,148.074792460161,149.218862100599,150.409264561179,152.793624015411,1.00243327026291,655,0,1
"response[69,1]",149.191580741636,1.80261827466724,145.720330673444,147.975399170729,149.156296354756,150.368705023599,152.799672269111,1.00240402846355,661,0,1
"response[70,1]",149.12008010931,1.83668016106467,145.580720263074,147.886259577025,149.097358257357,150.320436929605,152.804181755017,1.00237508790396,666,0,1
"response[71,1]",149.048579476984,1.87097202136202,145.454692756719,147.782321804007,149.012809705244,150.290106596364,152.803263731488,1.00234649477014,672,0,1
"response[72,1]",148.977078844657,1.90548143947324,145.327646638375,147.680200385169,148.947717092774,150.24716419994,152.822469431994,1.00231828713557,678,0,1
"response[73,1]",148.905578212331,1.94019680662071,145.183018993369,147.584097224675,148.882465934618,150.206074372483,152.830085887463,1.00229049599758,683,0,1
"response[74,1]",148.834077580005,1.97510726327762,145.036758992422,147.479393010082,148.819063405358,150.167218859441,152.83775831066,1.0022631461964,689,0,1
"response[75,1]",148.762576947679,2.01020264532447,144.899900470619,147.379189810209,148.748514738313,150.11229578485,152.845430733856,1.0022362572279,694,0,1
"response[76,1]",148.691076315353,2.04547343416471,144.769075683788,147.286466089036,148.669442089342,150.06194949061,152.853103157053,1.00220984396081,700,0,1
"response[77,1]",148.619575683026,2.08091071054583,144.653742531462,147.191849901724,148.59996359313,150.000957700628,152.858915005398,1.00218391726843,706,0,1
"response[78,1]",148.5480750507,2.11650611183661,144.533446553047,147.092871812739,148.521655948241,149.940613797104,152.853472462735,1.00215848458379,711,0,1
"response[79,1]",148.476574418374,2.15225179252004,144.406423418165,146.994951289238,148.44743154592,149.897407048821,152.846570231729,1.00213355038694,717,0,1
"response[80,1]",148.405073786048,2.18814038767086,144.274477932409,146.893600100609,148.373895168544,149.853380128592,152.839668000723,1.00210911663199,722,0,1
"response[81,1]",148.333573153722,2.22416497919863,144.142826914496,146.800296080024,148.307082415938,149.810033305768,152.83315239689,1.00208518312064,728,0,1
"response[82,1]",148.262072521395,2.26031906464941,144.010407923044,146.7095234346,148.226240754404,149.768144250608,152.840941963679,1.0020617478287,733,0,1
"response[83,1]",148.190571889069,2.29659652837153,143.879995579942,146.604555435978,148.159900085172,149.72106046165,152.847808404736,1.00203880719093,738,0,1
"response[84,1]",148.119071256743,2.33299161486392,143.733919209918,146.511501344102,148.089329088901,149.681118572859,152.840886139862,1.00201635634932,744,0,1
"response[85,1]",148.047570624417,2.36949890413758,143.595860234827,146.395213101135,148.016387348186,149.628786057865,152.847395743333,1.00199438936916,749,0,1
"response[86,1]",147.976069992091,2.40611328893293,143.469291697096,146.302295244335,147.94860707395,149.585041227875,152.854334397125,1.0019728994268,754,0,1
"response[87,1]",147.904569359764,2.44282995364736,143.338991465256,146.21510680864,147.869775168105,149.541038162165,152.84256087239,1.00195187897261,760,0,1
"response[88,1]",147.833068727438,2.47964435483811,143.200508770712,146.108052327361,147.801412689103,149.493737766939,152.832240591871,1.00193131987218,765,0,1
"response[89,1]",147.761568095112,2.51655220317619,143.062026076169,146.001209737699,147.728398374666,149.459278652334,152.824273313038,1.00191121352844,770,0,1
"response[90,1]",147.690067462786,2.55354944673643,142.923543381625,145.913220324974,147.6545069753,149.411831960049,152.808529290524,1.0018915509871,775,0,1
"response[91,1]",147.61856683046,2.59063225551826,142.778826763092,145.815956916721,147.585992731863,149.372343583951,152.816121030928,1.00187232302754,780,0,1
"response[92,1]",147.547066198133,2.62779700709966,142.631116542947,145.724119365085,147.520343067309,149.342770684398,152.831355952474,1.00185352024084,785,0,1
"response[93,1]",147.475565565807,2.66504027333525,142.487560941652,145.634656839746,147.452941116009,149.303541448406,152.84659087402,1.00183513309676,790,0,1
"response[94,1]",147.404064933481,2.70235880801614,142.345574979846,145.547677889707,147.383430870147,149.262980127104,152.845542303266,1.00181715200094,795,0,1
"response[95,1]",147.332564301155,2.73974953541608,142.204354952439,145.454833587225,147.311702883298,149.206147916346,152.838475398372,1.00179956734369,800,0,1
"response[96,1]",147.261063668829,2.77720953965477,142.058839008237,145.369066718125,147.243367329489,149.163635101407,152.849911346764,1.00178236954126,805,0,1
"response[97,1]",147.189563036502,2.81473605481455,141.913323064036,145.273406864222,147.172229853206,149.115608091945,152.865698458209,1.00176554907076,810,0,1
"response[98,1]",147.118062404176,2.85232645575206,141.76765849802,145.176696776381,147.104798947315,149.068682173966,152.884731400308,1.00174909649954,815,0,1
"response[99,1]",147.04656177185,2.88997824955135,141.621719031398,145.078978558696,147.034214695792,149.023131617025,152.899108562084,1.00173300250948,819,0,1
"response[100,1]",146.975061139524,2.92768906756904,141.473306432022,144.977468852074,146.964142484434,148.985767837674,152.888312215163,1.0017172579173,824,0,1
"response[1,2]",160.915455059514,1.58366228488382,157.874493851551,159.882452204499,160.896198331297,161.945952509529,164.052747222097,1.00029125507463,1500,0,1
"response[2,2]",161.02926184762,1.55784032827535,158.034323661108,160.006905071882,161.014297801455,162.050986786097,164.120045256362,1.00028918305882,1500,0,1
"response[3,2]",161.143068635726,1.53218752831724,158.191573547358,160.136066559583,161.12607572683,162.149561917958,164.183394271629,1.00028664511237,1500,0,1
"response[4,2]",161.256875423833,1.50671252505345,158.352549880604,160.253819303052,161.241362176221,162.24494866135,164.238216878806,1.00028359998771,1500,0,1
"response[5,2]",161.370682211939,1.48142449084224,158.496145502347,160.388257989048,161.356713426567,162.331537632818,164.29033677479,1.00028000378206,1500,0,1
"response[6,2]",161.484489000045,1.45633316541019,158.659537251558,160.524730097936,161.474129616476,162.433927114098,164.345870741621,1.00027580994343,1500,0,1
"response[7,2]",161.598295788152,1.4314488928957,158.827335837308,160.665680827816,161.592000608697,162.526554873624,164.40142098835,1.0002709693277,1500,0,1
"response[8,2]",161.712102576258,1.40678266088377,158.995134423059,160.796590245466,161.70682927368,162.624867771379,164.472183072409,1.00026543032035,1500,0,1
"response[9,2]",161.825909364364,1.38234614140103,159.155487832429,160.922303815577,161.823848714797,162.728511426608,164.555676675592,1.00025913903942,1500,0,1
"response[10,2]",161.939716152471,1.35815173379915,159.311156499448,161.043744064534,161.938640614362,162.830120977945,164.629706495685,1.0002520396382,1500,0,1
"response[11,2]",162.053522940577,1.3342126094027,159.462454768198,161.163952337764,162.051881287522,162.930937851728,164.70168395008,1.00024407473056,1500,0,1
"response[12,2]",162.167329728683,1.31054275773394,159.621066725953,161.289227202264,162.166450886084,163.027727460633,164.774607615397,1.00023518596314,1500,0,1
"response[13,2]",162.281136516789,1.28715703404861,159.779287147573,161.407906179498,162.277081308861,163.124715012378,164.857295690248,1.0002253147635,1500,0,1
"response[14,2]",162.394943304896,1.26407120782216,159.937507569192,161.535613242304,162.381122243185,163.219819247113,164.922458764469,1.0002144032949,1500,0,1
"response[15,2]",162.508750093002,1.24130201171244,160.073679146666,161.659962931375,162.487783379269,163.318189575329,164.979690821434,1.00020239565183,1500,0,1
"response[16,2]",162.622556881108,1.21886719039029,160.209735292305,161.792192302027,162.597989593009,163.408050839489,165.044189113938,1.00018923933093,1500,0,1
"response[17,2]",162.736363669215,1.1967855484717,160.359548411257,161.915977064039,162.709165172598,163.508053146158,165.103905438719,1.0001748870129,1500,0,1
"response[18,2]",162.850170457321,1.17507699660222,160.534800765121,162.042647357441,162.824553169397,163.614376770847,165.188564475861,1.00015929868874,1500,0,1
"response[19,2]",162.963977245427,1.15376259453534,160.693767048587,162.177308124401,162.944980134359,163.716401867452,165.270887787279,1.0001424441577,1500,0,1
"response[20,2]",163.077784033534,1.13286458981042,160.831082108495,162.307376047802,163.054844834866,163.814471146573,165.350575044714,1.00012430591696,1500,0,1
"response[21,2]",163.19159082164,1.11240645037502,160.978389771839,162.430130900951,163.169077876841,163.908589556714,165.427819558002,1.00010488244686,1500,0,1
"response[22,2]",163.305397609746,1.09241288921259,161.147978771898,162.562239782201,163.297013819094,164.007565972511,165.487439744403,1.00008419187565,1500,0,1
"response[23,2]",163.419204397853,1.07290987873719,161.286287333206,162.685824485701,163.403768190557,164.109122372836,165.553337981338,1.000062275979,1500,0,1
"response[24,2]",163.533011185959,1.05392465241027,161.414032904805,162.81067213975,163.525407558585,164.209290742409,165.629169563223,1.0000392044312,1500,0,1
"response[25,2]",163.646817974065,1.03548569073483,161.553070170177,162.933123268689,163.646231058352,164.310986998574,165.706648765168,1.00001507917814,1500,0,1
"response[26,2]",163.760624762172,1.0176226885085,161.68933311387,163.066110026848,163.759039187589,164.419727382557,165.783331365991,0.99999003874587,1500,0,1
"response[27,2]",163.874431550278,1.00036649999396,161.837967776135,163.189582669711,163.882247371949,164.53236297673,165.859867649273,0.999964262232667,1500,0,1
"response[28,2]",163.988238338384,0.983749058523192,161.996579599333,163.315333560459,163.99910723564,164.632611531388,165.92708984043,0.9999379726645,1500,0,1
"response[29,2]",164.102045126491,0.967803267029298,162.151612026541,163.445916934079,164.117531787055,164.724422121691,166.000052844813,0.99991143932394,1500,0,1
"response[30,2]",164.215851914597,0.952562856137121,162.309927118218,163.578171056973,164.231410453534,164.828910217147,166.076000481286,0.999884978603459,1500,0,1
"response[31,2]",164.329658702703,0.938062206787934,162.465862538472,163.701347881568,164.347797736106,164.937598860866,166.154418288127,0.999858952894744,1500,0,1
"response[32,2]",164.44346549081,0.924336134968117,162.605448375643,163.826068860825,164.46718896223,165.033920297673,166.230960505289,0.999833767019258,1500,0,1
"response[33,2]",164.557272278916,0.911419636997117,162.755668751576,163.95175897301,164.577964880169,165.142442844429,166.3220631634,0.999809861750006,1500,0,1
"response[34,2]",164.671079067022,0.899347595033382,162.913796529068,164.070582443463,164.690841889765,165.255097267004,166.394421831077,0.999787704080412,1500,0,1
"response[35,2]",164.784885855129,0.888154443986466,163.027881490682,164.183266078866,164.80653346504,165.366636023372,166.471977803836,0.99976777407887,1500,0,1
"response[36,2]",164.898692643235,0.87787380285876,163.18930633004,164.307786552848,164.919613366514,165.473523639357,166.568284552218,0.999750548427216,1500,0,1
"response[37,2]",165.012499431341,0.868538075625188,163.328310011149,164.426948711426,165.045703754643,165.586472597971,166.676197882624,0.999736481071239,1500,0,1
"response[38,2]",165.126306219448,0.860178028996276,163.470002293786,164.550542660356,165.154949497852,165.697199195012,166.769907788038,0.999725981789209,1500,0,1
"response[39,2]",165.240113007554,0.852822356658961,163.592659749087,164.67085041519,165.268052104429,165.808282726362,166.867721663471,0.999719393869165,1500,0,1
"response[40,2]",165.35391979566,0.846497241672399,163.720727999544,164.784650030283,165.382181807521,165.918870787096,166.984162575836,0.999716972424614,1500,0,1
"response[41,2]",165.467726583767,0.841225930409201,163.864817302404,164.890985921845,165.497369560321,166.025059579638,167.084586132025,0.999718865108921,1500,0,1
"response[42,2]",165.581533371873,0.837028332566397,163.975483701653,165.010609618118,165.611797437588,166.137779481596,167.195487407447,0.999725097050197,1500,0,1
"response[43,2]",165.695340159979,0.833920662135885,164.100853314002,165.117562303104,165.726273557625,166.24894763732,167.311216792517,0.999735561676171,1500,0,1
"response[44,2]",165.809146948086,0.831915133681093,164.203923400645,165.225341945651,165.834019003609,166.361766642089,167.427102505013,0.999750018717182,1500,0,1
"response[45,2]",165.922953736192,0.83101972675161,164.324348859973,165.338963951119,165.940354906748,166.478920581805,167.542910053795,0.999768100086096,1500,0,1
"response[46,2]",166.036760524298,0.831238028813181,164.448064480415,165.44998227091,166.055434394533,166.586605987403,167.664604609914,0.99978932360141,1500,0,1
"response[47,2]",166.150567312405,0.832569163813033,164.565573745217,165.558754021755,166.161581037193,166.699811062167,167.798183478318,0.999813113739116,1500,0,1
"response[48,2]",166.264374100511,0.835007809671058,164.695445996683,165.678369006252,166.267761258878,166.807943523522,167.890332700144,0.99983882788551,1500,0,1
"response[49,2]",166.378180888617,0.838544303888107,164.811719759421,165.787968028971,166.388002292059,166.920861605826,168.019174614909,0.9998657860201,1500,0,1
"response[50,2]",166.491987676724,0.843164832430134,164.944926178792,165.889921702195,166.500604348423,167.042292586377,168.149052360369,0.99989330147204,1500,0,1
"response[51,2]",166.60579446483,0.848851693408743,165.05755784143,165.996627096682,166.613114414111,167.170726778659,168.263485726974,0.999920710392883,1500,0,1
"response[52,2]",166.719601252936,0.855583624113421,165.180471844022,166.106834062896,166.72599574188,167.289705861669,168.398924493472,0.999947397861713,1500,0,1
"response[53,2]",166.833408041042,0.86333617785393,165.263119666021,166.217570574574,166.846078383016,167.411978321066,168.545723839776,0.999972819029897,1500,0,1
"response[54,2]",166.947214829149,0.872082135939053,165.376543637368,166.32768854714,166.953547255434,167.537882234516,168.680718525965,0.99999651432521,1500,0,1
"response[55,2]",167.061021617255,0.881791939943215,165.48287910791,166.427151224472,167.0607305262,167.660637410673,168.809292534437,1.00001811838218,1500,0,1
"response[56,2]",167.174828405361,0.892434130099151,165.564064279847,166.540805189846,167.171207188089,167.768054299369,168.940132014405,1.00003736294932,1500,0,1
"response[57,2]",167.288635193468,0.903975777039988,165.647427424524,166.649521948983,167.285337866105,167.885913224758,169.064953947859,1.00005407448816,1500,0,1
"response[58,2]",167.402441981574,0.916382895997345,165.703582464921,166.760770024744,167.39853503944,167.999247284771,169.208520955343,1.00006816748662,1500,0,1
"response[59,2]",167.51624876968,0.929620834733238,165.785903531444,166.868457035772,167.513428449768,168.120717044104,169.362302531342,1.00007963465556,1500,0,1
"response[60,2]",167.630055557787,0.943654628747179,165.876831777785,166.965823534914,167.635372274636,168.236149205234,169.503334483808,1.00008853518165,1500,0,1
"response[61,2]",167.743862345893,0.958449319491667,165.969832287419,167.068578309122,167.751221393147,168.358991888543,169.632722841407,1.00009498210567,1500,0,1
"response[62,2]",167.857669133999,0.973970233325596,166.067392837593,167.173038254413,167.860279694779,168.485468631133,169.785645327185,1.00009912972131,1500,0,1
"response[63,2]",167.971475922106,0.990183220655046,166.139453371854,167.279882880397,167.968866448522,168.613568065683,169.952010896596,1.00010116168017,1500,0,1
"response[64,2]",168.085282710212,1.00705485611336,166.225061846789,167.390074577536,168.082882419547,168.738465971856,170.12795184264,1.00010128027694,1500,0,1
"response[65,2]",168.199089498318,1.02455260170886,166.319457402821,167.495354556364,168.202366979221,168.854983850638,170.286508077436,1.00009969719527,1500,0,1
"response[66,2]",168.312896286425,1.04264493563606,166.37687087675,167.600154325822,168.321283644047,168.983468007034,170.427912085551,1.00009662583285,1500,0,1
"response[67,2]",168.426703074531,1.06130144993722,166.460134861312,167.696102423183,168.433689729083,169.111284409248,170.570314503519,1.00009227519634,1500,0,1
"response[68,2]",168.540509862637,1.08049292045917,166.551408002417,167.789747334574,168.539239723255,169.238956431602,170.741138812103,1.00008684527025,1500,0,1
"response[69,2]",168.654316650744,1.10019135261923,166.634670150743,167.87961123746,168.652263214946,169.36342489285,170.916971445661,1.000080523704,1500,0,1
"response[70,2]",168.76812343885,1.12037000642025,166.710391160296,167.97720619582,168.772378642954,169.489068083135,171.074174379644,1.00007348363421,1500,0,1
"response[71,2]",168.881930226956,1.14100340397664,166.798810174591,168.081383862567,168.886565900099,169.616257895856,171.24247767439,1.00006588244949,1500,0,1
"response[72,2]",168.995737015063,1.16206732256727,166.867171473516,168.176935068356,169.003750787636,169.738560761999,171.359088927597,1.00005786130962,1500,0,1
"response[73,2]",169.109543803169,1.1835387759441,166.941254884971,168.273673148756,169.11488717845,169.854562863143,171.509991441692,1.00004954524843,1500,0,1
"response[74,2]",169.223350591275,1.20539598632153,167.006384192979,168.369900379503,169.227096016227,169.97789158755,171.684399879956,1.00004104370856,1500,0,1
"response[75,2]",169.337157379382,1.22761834916601,167.102232120318,168.473480078333,169.341744894954,170.113471179161,171.849880280445,1.00003245137992,1500,0,1
